mlp_weights
I:6
J:5
K:2
V:
0.01065181407829589310676254854116
0.15525457682440471640639145789464
1.71163925943605477186792995780706
-0.27843832827572456700693237507949
1.30122575189483735691453603067202
-0.96883325105659601206298248143867
1.24170075873743490646461395954248
-0.10028119322906933752470592935424
-0.55596130837232249355395197198959
1.19069352726170074596723225113237
0.94696875247587519730529947992181
1.05834039063614970821447514026659
0.44036215793274502416920768155251
-1.29066775878989536963104001188185
0.90647983873031889867633026369731
-0.75900339028173324784631859074580
0.66976119065343564518144603425753
-0.11646243203304201818681917757203
-1.60710569807628189664683304727077
0.20107461886806304862673755451397
-0.06626325526977365487635296403823
-1.05551654176222564629483713360969
-0.11003902976931316526343351824835
-1.02246235855177669549220809130929
-0.56483033558189887912703852634877
-0.68043037664089212057660915888846
-0.54468122620351555607243199119694
1.10786476003942269130675413180143
0.85126428850277979787364301955677
1.82743435979845925132281081459951
0.34603570202265410138409151841188
-0.46370049863037765547346680250484
0.76076465784042412998644522303948
-1.46595529674189828384101019764785
0.63274116552645687239220251285587
W:
1.44982789554142965648964036518009
-0.31306555977626571163341395731550
1.73037390608513441669913390796864
-2.72293243869327517003853245114442
1.43136809928682451342751846823376
-0.36534877203811105816910753674165
-0.11272849850346955413726846018108
1.34476210650943217572717003349680
-1.13740671681337301990311061672401
-0.04385918207717959260705242741096
1.29156338594328179425474445451982
-1.47446929469892662467600530362688
