mlp_weights
I:6
J:5
K:2
V:
-0.77763141330312013366210521780886
1.22825254344079537460743267729413
2.26746089688411212037522091122810
0.00185588681783285802673333364510
0.68726270597931349293219227547524
-0.82373232212261815465836889416096
0.79054485309373068169236375979381
-1.61457906697828135200722954323282
-0.18517504813579110933829952045926
3.25622021999577482276322371035349
-0.31043480198080908305513503364637
1.31604700477122205093394313735189
0.23931380947014979643228116401588
-1.15893375299211620621520069107646
0.01387164892761845284840926950665
-0.44937060353760927000621450133622
-1.12794930639821000539768647286110
0.28526827310543906301987249207741
1.43742444700067828478040610207245
-0.97250686986635537234491266644909
1.23359516978693473099326638475759
0.41549281594979947662693575693993
0.88368403918166094079822414641967
0.28596194265442737014737417666765
0.31842199022425771159916507713206
-1.01187019581196979700621341180522
-1.06069847506562897621051888563670
-1.27256211667364049766604239266599
-1.20059925775613485221526843815809
-1.10767223481523013894900486775441
1.00473872569358912976156261720462
0.50766275590640008719134357306757
0.49784600737925543967321573290974
1.57435211085478332648790456005372
-0.40854742495473805874439676699694
W:
-0.16570598129928126862608905867091
-2.55449187672835043017016687372234
-0.50852498334162088422516490027192
1.05683457203880681873897628975101
0.72994799647415742338552036017063
1.36047206399876685622984950896353
-2.46825758863288635680532934202347
-2.39602587643176656584387274051551
-0.22038347521104439952210896080942
-0.26191376650192416120077609775763
-1.77615461015430531332981445302721
-1.38217970583950044982657345826738
