mlp_weights
I:6
J:5
K:2
V:
0.78164498803211890365361114163534
0.12200984223755020896540202102187
-0.71242480749658843031113519828068
0.68663124904809791360094095580280
-0.42989045815827253704810573253781
0.31350627093010136059447745537909
3.51539131977967400644047302193940
-1.30048215964278979228652133315336
1.18297988178149471316658036812441
0.69775470275549633658584980366868
-0.49564749529486862300586835772265
-1.07004609900058733629180096613709
1.29940716927513055800602614908712
-0.65416691349402422694936376501573
-1.79805232470607756489755502116168
-0.16813518053748849334638748587167
0.63624706783848195001951353333425
0.86617766733317513860868075425969
1.25334011029526015690294116211589
0.99275430866647140781822145072510
0.76278809081244325351889301600750
0.85851621369041408726729969203006
-0.19476966720374952468652907100477
1.58014568980447989154924925969681
0.89131569963790924226998413359979
0.76872942396058430158944929644349
-0.39221306265556782344461339562258
0.66763487261629006486174375822884
-0.87624566197375275411474149223068
0.89418493403308063616208301027655
-0.33362248777235653518502545011870
-2.05603337445223077750711127009708
-0.32604341142148940413392210757593
-0.06069989343393530911718869447213
1.14991983685320109387362208508421
W:
-1.18580763359179930382936163368868
-0.95838288145371830495378162595443
-1.26972705604014901581422236631624
0.29877321881208296350251885087346
0.52372048021062689304727655326133
1.12942691855744192785948598611867
1.65662386961643637306451637414284
0.94601324745205439548101367108757
2.17492758966021515476541026146151
-1.15386432986508502551714627770707
-0.32646440452333957971120526053710
-1.22061314353226291196108377334895
