mlp_weights
I:6
J:5
K:2
V:
-1.72866259657064724741815098241204
-0.36102462272296492740153439626738
3.12607629561102129400751437060535
0.19666078106013540338636857995880
0.19380419429679862641791032729088
-0.32247007514839454156430065268069
-1.03926294397849305894965254992712
-1.25527883538915530081681026786100
-1.01254792715404717817762048071017
1.20066560816518208554271041066386
-0.56114900600055817037059568974655
-0.91983837341039587087720974523108
0.90317096885390835137030762780341
-2.67202022165497465877592730976176
2.16133023752876152201451986911707
0.51817666752784607986370701837586
0.08056089057938867203922939097538
-0.07106073396909787232011979085655
0.05582499747193003791778664890444
2.85638779966091416184781337506138
-0.47066077750776763588547169092635
0.45859179433969293748774020968995
-0.26293179139491068552203500985343
-2.19677218640660409931797403260134
-0.62484335768878462857855993206613
0.70798787250495809342254460716504
-1.57080284836590711172732426348375
-1.17989126091888096858895096374908
-0.18937473863468085033545662554388
1.98627878018552839201049664552556
0.41198089439699880909273588258657
1.68991186110798330410887047037249
0.29820792114090538538206942575925
-1.79152461168891341536379968601977
0.21241216894964545791602006374887
W:
-0.70389760997456962687834902681061
-1.49434438837015282075526556582190
2.69023156975650312716652479139157
1.33007452655316171785671031102538
0.05052905197949858484562923877093
-1.35024315716806087017687332263449
-0.06503043060253382856572557102481
0.46642929143104683298304280469893
-1.78568584085645776227124770230148
0.70442477059337094136282075851341
0.39197221385333713694620882961317
-2.97172594767405273685767497227062
