mlp_weights
I:6
J:5
K:2
V:
-0.70668030509149548645808636138099
-3.22716609796723030711973478901200
-1.94327858468817837866993158968398
-0.28241313173719478912815361582034
-0.23067210543356608809517638292164
-1.09817537115745422759971461346140
0.80272217287494718185314468428260
-0.42790703894512105431857662551920
1.26821284313695903378516049997415
1.21409154789412343511401104478864
1.66079119878918723962613057665294
-0.30824298675234118594090659826179
-1.98172852974626412247971529723145
0.96547317812590371932657262732391
-4.25121467915791839686789899133146
-0.36509194742384271092916492307268
-2.89240867370640497568956561735831
-0.04710046789593601984647008862339
-0.92245471250456512191107094622566
-0.41043919517687593723209715790290
-1.93506798119736589391948200500337
-1.48345244416823951461026354081696
-1.70981509935196385185918188653886
-0.27043691827549365402916237144382
-0.67843984076402508165415383700747
1.41484206994770556065077471430413
-0.96829567190035725765540064458037
-2.33083498194167493267059398931451
-0.84566264124064316476392377808224
0.04579161915715580788432959025158
-1.09432755365061651353641991590848
-0.81577726392540450550683317487710
1.69739610525152118114533550397027
1.22829052476807265570357685646741
-1.37990039067065395350653034256538
W:
2.01974407460030702665676471951883
-1.74287658614359464159804247174179
-2.68819039381566637914033890410792
-3.47794386575552572082870028680190
0.09959210590919823080646722246456
-0.35004262913452116601220609481970
0.65347224514138202433599644791684
-2.69446262720857632189108699094504
-2.60981139863770961184741281613242
-1.29251415275198255905308997171232
-1.34277825685075358208564466622192
-1.00519803199086599221345750265755
