mlp_weights
I:6
J:5
K:2
V:
-0.62251712274217751996729930397123
-2.43463638241701829656449262984097
0.25778277877949384855327252807911
0.16924331346195936598419962137996
-1.65949974789329646185365163546521
1.19852006897182139510960041661747
0.44878258553783956230631702055689
-0.03561296282180409500384143939300
2.03148863450254735241173875692766
-1.99269541493435475842943560564891
0.80691725882012110826480011382955
-0.62758100114139525604883829146274
-0.14321871844122022188194875980116
-1.08473831583603130823689753015060
2.54859165677991672538382772472687
0.35418647501217059847533619176829
1.47617381756566556916254739917349
-2.20434166401251507849679001083132
-2.33561413975774812001873215194792
-0.24936318608077340241990782487846
-2.08404752620929878403899238037411
2.20637720741075948893694658181630
0.46337138639644814830376162717585
-2.04370441930054891344070711056702
-0.69959074509698027100057515781373
0.10331028834217979850418345222351
2.15203266992072839158822716854047
-2.25592048487459839734015076828655
0.42545542086288823391271307627903
0.84914539905098729288823733440950
1.75088523283142083464269944670377
0.22513265459480141794657015452685
-1.51353629677855816559883805894060
-0.38261997280075066285576212976594
0.12721411069488566814023045026261
W:
-0.40450352168476416681031082589470
-0.49280547072676217368325524148531
2.39603972855380487061438543605618
1.35878211077446087173825617355760
0.28393983900347813387199380485981
2.04063373530470837380335069610737
-0.06090164957180760341159952986345
-0.71244996341147237561841620845371
-2.20454099040227591288498842914123
-1.28302687489978861634654094814323
0.67717107210441707110248898970895
-2.88180646828354003474714772892185
