mlp_weights
I:6
J:5
K:2
V:
-0.85609773636440489319454627548112
-3.06072137022643753212491901649628
-2.06226853942660603991043899441138
0.24688536285914605694635781674151
-0.28645109766052595512419998158293
-0.84317319801470946849519805255113
1.00936499533171408771181631891523
-0.47026659857446673207448384346208
1.81996808985690194937490105075995
0.91309470943155623956499766791239
1.64158688442385858330396786186611
-0.49818816053324066484009335908922
-2.38797166496438029170690242608543
0.69165384844491406557409618471866
-4.43836092715407737330224335892126
-0.33878998230444257178106681749341
-2.64888030719720779515569120121654
-0.09298652753617880906134018914599
-0.69872487916183023681782060521073
-0.45994274188355033228248203158728
-1.78523039820096074414834674826125
-1.68971407409429597024086433521006
-1.88273660146613464050346919975709
0.58325722990905193299226993985940
-0.67934509099765505446555380331120
1.60679684781962195394555692473659
-1.16033852956457672611634279746795
-2.54820469935060511801339089288376
-0.91932700907429731884690227161627
0.30706445469589915830965765053406
-1.17697611504783505864679682417773
-0.75229251268454710999122880821233
1.72304270521432245644177783105988
0.94900795060890796861485796398483
-1.40537670765123023919329625641694
W:
1.83206252735767138872802206606138
-1.58336343578679183963231480447575
-2.62033353889706077666232886258513
-3.45180888550181830254359738319181
0.29399430827607442306970142453793
-0.26426327371372509977831555261218
0.17444879761234965975802424509311
-2.83756413709230903563707215653267
-2.64804874584352578636980979354121
-1.56565019376542413631625549896853
-0.83050995191568977027429809822934
-1.02912156755840578092886516969884
