mlp_weights
I:6
J:5
K:2
V:
0.05442590702822344000955112619522
0.09902614867867369496945428863910
1.98417060196278960404470126377419
-0.48883809174801473584892619328457
1.34641147854327658528461597597925
-1.33640064233005384508601309789810
1.36488993418113624400689332105685
0.26776792623152079197978991942364
-0.54607511356756088805042281819624
1.24660296033676831761738412751583
0.61648379164810374053473651656532
0.60062378157590345928440456191311
0.56398328946814679785148882729118
-1.39287612348971645559458920615725
1.13605053486650775518285172438482
-0.48616116819648302893597247020807
0.08455066523678557433019165046062
-0.00474617811794904309596887514999
-1.66389501445075871366441333520925
0.12220798063148524681409412551147
0.06420554660213553810343967143126
-1.18712417243410928158198203163920
-0.06078886176067675728429406944997
-1.68406827314102702786158261005767
-0.67477917274971010996864606568124
-0.67867936487728153238663253432605
-0.55240227376180894847124136504135
1.37655329113515190186944892047904
1.00742407978640269305969923152588
1.73196380173858299755806910980027
-0.14508256037109951153141196300567
-0.14462729527105694371513777696237
0.55849977575010201213956406718353
-1.36754715626315648258071178133832
0.66998362287846513485334298820817
W:
1.76584524396330477813421566679608
-0.17396156330416609470113087354548
1.56260118242580792191631644527661
-2.76235089292080360223735624458641
1.34311493074811183490169241849799
0.00101468203143083302020244218511
-0.07321216209957837062205499023548
1.71558546134051814746612762974110
-1.48546829548872016957261621428188
0.14904986648113555114392170253268
0.86756117237220609084147326939274
-1.13934123660119124288314651494147
