mlp_weights
I:6
J:5
K:2
V:
-0.05956672612799493449209364825947
0.32103705475583338424527823917742
-1.37987130348332009965872657630825
1.28068000395593406537386726995464
0.44431820704773022923106395865034
1.88921235281646748838113580859499
-0.03075516490966928584427364512521
-0.75198660638423042712474853033200
2.40955837670344097389829585154075
-0.65012902777439018908722800915712
-2.55968962699506130675786153005902
-0.27520940313119152120791000015743
-0.88593581761232587101773106041946
-1.90216459172220297979549741285155
2.42125695576566624112047065864317
-0.86465562222084046961612102677464
-0.61900438991849160430547271971591
-1.62343393271087665929997001512675
-2.29704412483337039319053474173415
0.83668775938393802338310933919274
1.96293436749899385951323438348481
-2.11777234105814349263141593837645
-0.33100843560455306402445785352029
-1.54198516734182167198241586447693
-0.17747912664613857414153130775958
-2.31781420174320240690235550573561
-1.42601984597094388895754946133820
2.27857293072294808666811150033027
0.04452563507404661002908596856287
-0.01670266864517358160191484728330
3.40852786683921804566921309742611
1.94132633320282610434048820025055
-0.44440664988489664288806579861557
0.27644793465667394372076159925200
-0.33986177447369908533048032950319
W:
-0.24832386358057467745652502344456
-0.00364730723912476406667337869294
0.95001784706591296814082170385518
-2.62528314809931329065761929086875
3.29707681038635946890735795022920
-0.01391109303666065305504773164103
-1.91357663562028967874084628419951
0.60219489772224743528994395092013
-0.62843135400928473721648970240494
1.11603019778900169889368498843396
0.28789331909726040281682912791439
-2.49084393945997062402852861850988
