mlp_weights
I:6
J:5
K:2
V:
1.02062853102745498823367142904317
1.01142910543155561953199139679782
-2.20247270033985165227363722806331
2.56044100267744045851259215851314
2.00601924015148869173685852729250
-0.30267237558653420359533470218594
0.76649436176292229383477661031066
3.59633688361755732287861064833123
0.11782011204665943093772284555598
-0.61499134608547312286219721499947
2.55107977685719733429436928417999
-2.25225394382824095629302973975427
2.02624926474863764624956274928991
0.38652705352188715393069173842377
1.68140237122230473687523044645786
0.96509298633921569710025778476847
0.25814150749468151024856865660695
0.68845080921135837215274477784988
-3.21090210409226539667315591941588
-1.52590787343548317522845536586829
-0.47615786819201605384321851488494
-1.96413859114217004275815270375460
-2.21285543396608730404295783955604
-1.53234245345934860793590814864729
1.05809326858752061895074803032912
-0.02503317386160516799797903786384
2.18331377269701576437910262029618
-0.87601890112268687715868509258144
0.69803219629579826843723822094034
1.86972742446013806549842684034957
1.88655403720681036361384030897170
-0.67823961924003905998858954262687
-1.16856084595281628502050352835795
1.65800386387996434578440130280796
-2.30299641343191208164853378548287
W:
-1.56215810558809420349746233114274
2.51668920815705687843433224770706
0.49206069496374987837228331954975
-2.44452663693583627235739186289720
1.32681479847502736824083058309043
0.11769985192313159316768178541679
-1.58117206034730961583534281089669
-0.72137850440836748244777254512883
1.52863433148931404659265353984665
0.97241295840353192403426874079742
1.26521527587339255305209917423781
-1.82657880053370580419880297995405
