mlp_weights
I:6
J:5
K:2
V:
-0.69176805256354256812301173340529
-3.21076572027680473553346018888988
-2.00228282265532486761117070273031
0.03458166850588746676908868948885
-0.08620594609234610850023727834923
-1.12619247876197259294883679103805
0.76789482838454947710715714492835
-0.34141019491126312068729475868167
1.57911217967408035178777936380357
1.05166660280199786292598673753673
1.50603945525233595681413589773001
-0.19497686693685892245220259155758
-2.27050238872407073031922664085869
0.85783996811662410753029917032109
-4.27724265709725859352374754962511
-0.31167496538899075453343812114326
-3.03303196375037664722640329273418
0.00766253709959460738154746195505
-0.87740094714680350040936218647403
-0.49256977282236125148529026773758
-2.02012782505685528633421199629083
-1.51357655140930913439945015852572
-1.76711622543424273779066879797028
-0.05472458031655262622461322052914
-0.73127680300793129752889853989473
1.48305647353638359042804495402379
-0.92349537100306555714723799610510
-2.46421026342159610322823937167414
-1.05187981398537089283706791320583
0.21740329896747165316917005384312
-1.06693574065416796337046889675548
-0.84580486727992643114504289769684
1.82817019337773722931217434961582
0.98590154419856956824474991663010
-1.43972571627461176646534113388043
W:
1.85227519524798056593795081425924
-1.64281714122006272660314607492182
-2.59713513434410536717678041895851
-3.46335750053151070204648931394331
0.12343699873502467223573830779060
-0.19328002516291614698573653186031
0.59929562311107831273915280689835
-2.47046924192424377508814359316602
-2.65106494256327707148557237815112
-1.51621065536218346814223423280055
-1.15384462730603454261313345341478
-1.11597912746837235609120853041532
