mlp_weights
I:6
J:5
K:2
V:
0.39881581564020007757420671623549
-0.32097202686249759473469111981103
-0.04840970623390135341157503034992
-0.99233103861568727754871588331298
-0.62291221386851547414664764801273
0.97548445417413498503833579889033
1.40664969091765246211878093163250
2.32459468597335883188748084648978
0.23826757980061002983873663652048
0.94882417681289521471654779816163
2.57684051988571516389470161811914
1.69495660454049534848763869376853
-0.54149803875362956251393597995047
0.22154213060495436815600100999291
-0.82301561111363330525136916548945
-0.51703265258755004563084867186262
-3.01177989601253726092977558437269
-1.54864300937374776978572299412917
-0.15742173813347731803347073764598
-1.20379507645949757055348072753986
-0.08815128321186480042648270227801
-2.69400878444842684089621798193548
0.50426541222906084982469110400416
-0.39212392327596379271170690117287
0.74182738193843644758374011871638
-0.10657596093360122146975754731102
-2.29720288897276248007983667775989
-1.66733760252603624429923456773395
-4.04505726258918674176356944371946
-1.99815518906520050990138770430349
-0.13022818201687463846027981162479
-0.20314425974100691618673408811446
2.16186973578774699333848730020691
1.97552453270347627700687098695198
-1.71361750720370631384525950124953
W:
2.39470414778629514529484367812984
1.01962872283972894038583945075516
0.18735436114035644572517469441664
-0.90357495023996392546905553899705
-1.24111963608381303814098828297574
-1.23019138682487194635939431464067
0.15401202002892694364888370728295
1.00035065580357596104477124754339
-1.70726260613243074892864115099655
-0.61503167749787501783487186912680
-2.02539060769823864305294591758866
0.29638130568213288951184836150787
