mlp_weights
I:6
J:5
K:2
V:
0.82923756431788286924700059898896
0.24116602441946294321795107862272
-0.74575786800212950922173149592709
0.60340706320332682111029498628341
-0.34053949277021428043710216115869
0.43940899749559214626515313284472
3.50206369542993289911692045279779
-1.33319397422388918883484620891977
1.07246372338062223583676768612349
0.57892662222294355434115686875884
-0.39979566823954937326845993084135
-1.25591724012509842189899700315436
1.28705306294260779509386338759214
-0.42169768598063267495135164608655
-1.89882685557145336474604846443981
0.01449078543887136194534548394586
0.55590679330506598265770890066051
0.94489524241171418683649108061218
1.35546581944959232401970439241268
0.87450968753424529467110914993100
1.08610115179266442098082734446507
0.77187640331339357757656216563191
-0.20627316098515710574012871347804
1.55724470408275328381364488450345
0.86482472074346083967810727699543
0.64045141935511584740936541493284
-0.32895459517693081963329859718215
0.73152182455249381565209887412493
-0.89717100403232552530141674651532
0.92167012619555599428622372215614
-0.30973919445799713567879507536418
-1.86939834354227518709024025156396
-0.37115711362120534788644476975605
-0.14712661412963976004242283579515
1.08124006855846643837537612853339
W:
-1.13118247251118231311295403429540
-1.02118223875396130218007328949170
-1.19694897936403354954393307707505
0.10393100875122052162424779453431
0.69419885351595522759993173167459
1.13375502647703529923717269412009
1.79027123653355979548962295666570
0.90026014895686956585052485024789
2.57343192737232984157458304252941
-1.47475083837417408894054915435845
-0.23744365135609790673498764590477
-1.43722162913353446178632566443412
