mlp_weights
I:6
J:5
K:2
V:
-1.05735422668628742393082120543113
1.10609617440698859702763456880348
2.11987338575481398805777644156478
-0.10111939145758516711559593659331
0.99109010887797133193544141249731
-0.92143505813073456334194588635000
0.85931651448196400000512085171067
-1.40245405856685523282578742509941
0.02607718674276186116012254956331
3.35240012793767094834151976101566
-0.39585391875566949826392715294787
1.43463985047242936765599097270751
0.54660094149324178758320158522110
-1.14781892088222270409403336088872
-0.22283520314648103122223687933001
-0.57477067713408414029174764436902
-1.15210342468597404241847925732145
0.53517828288833402261559513135580
1.16134405223145487084934757149313
-0.46546024315407863447546787938336
1.25149739636658452468509494792670
0.22740718216612010316168834833661
0.78983156926617559268066770528094
0.33362684298642836244752629681898
0.27131012364948264847797076981806
-1.07905874571682836027264329459285
-1.07074382951699220711816451512277
-0.99693200752208854797942194636562
-1.16282573403878064510763579164632
-0.99989991001414757487708584449138
0.70335893583539643714175326749682
0.76914009751989342866806964593707
0.99630447912391018050470847811084
1.91903663624952103283760607155273
-0.55089275852975561065250076353550
W:
0.11355028335402915506957555180634
-2.35201931279758147397274115064647
-0.63722218948316788900143592400127
0.52734510887672125800662570327404
0.78124806647862321540287666721269
1.38996702114163372954180886154063
-2.32102676999639223609506188950036
-2.55997466508854287781105085741729
-0.08738773169555860698132221386913
-0.33567820585438234992636807874078
-1.72124377467087175119786479626782
-1.10490258532225915644175984198228
