mlp_weights
I:6
J:5
K:2
V:
0.31783388474735324580322526344389
-0.13549879930125402482943286486261
-0.00910036725176600891362710399335
-0.98670161118125077059914929122897
-0.50139748170299136553751395695144
0.92239511532721008002511098311516
1.40186503577773446949095159652643
2.33981401426044310909446721780114
0.17539356650077783661423325156647
0.94637414064436531369040039862739
2.54579454779140634812506505113561
1.60779062782100745643276695773238
-0.64050109428988388771131212706678
0.24107247085791236318463859333860
-0.73104647024730584625729079562007
-0.61692243151363534980902159077232
-2.83662379373321149600428725534584
-1.76879814255717371374032609310234
-0.04662555692537319329549205804142
-1.15314683133599915620948195282836
0.11614685959015746963274295922020
-2.67034368661057719407381227938458
0.52323974645407089756332652541460
-0.20626082689180891271973905531922
0.89519447800242923918290216533933
-0.32584460974899498442169942791224
-2.20068272718024005030201806221157
-1.72459351193553511727429849997861
-3.91102229325224293177143408684060
-1.93190792179402426320677932380931
-0.22682696995914358728541060372663
-0.22210915725371202511517765287863
2.18044900927396190226659200561699
1.99644188184676107944426348694833
-1.74481299183261295837610305170529
W:
2.28846507658747500002505148586351
0.78670339595990412817627657204866
0.15946774340214669996029783760605
-0.86608169899803544300453950199881
-1.44142665252525392638460743910400
-1.27249985596608072846436243708013
0.18968344473580533993128938163863
0.93706395363640437867758237189264
-1.64785706746301352509931348322425
-0.60666723234722230717608226768789
-1.88043821904948904588650293590035
0.26917943545823908024772208591457
