mlp_weights
I:6
J:5
K:2
V:
0.02605725628278755812150535575711
0.16563083233736533572688642834692
1.85498666204235740373462704155827
-0.26235268655371996038283555208181
1.41147718571326175052149665134493
-0.70962880912061310212379794393200
1.32899348743526779514922964153811
-0.00920195493662130832579482131450
-0.38039831096678583532977313552692
1.24638791531929937761447035882156
0.63536117718199036641379962020437
0.77695820395467074526152373437071
0.35871125024670491576728181826184
-1.35252835128034343270542194659356
1.09028713835224655426259232626762
-0.59635202101885398384695236018160
0.28745386535639128045005463718553
0.16522588305018975907145772907825
-1.51217998200668657382550463808002
0.16412303071741712878761632055102
-0.19510572620823790623845184200036
-1.05039504458492238825328968232498
-0.22076383725891840503763319247810
-1.57123109911828606755079817958176
-0.79441762653743031030728616315173
-0.68288942313547584817001734336372
-0.62680040264644198977350697532529
1.12552879509954029124685348506318
0.73366772753773334958538043792942
1.46545460541509342533572635147721
0.14752739956854823977216994990158
0.12714310759603991707322734328045
0.51724277313630540042765915131895
-1.18541970910557270535434781777440
0.71267322733090243680464936915087
W:
1.71316483041235367856813809339656
-0.31735459606523491737917197497154
1.62410444996671698980605924589327
-2.65366554489151651452516489371192
1.59063397925484539818796747567831
-0.19120163401339723696636951899563
-0.05391054953443426278614225566344
1.75695606034582474386240846797591
-1.45197398327205573487219680828275
-0.04385234166434578279014644408562
1.06974705642739431610266365169082
-1.39945671233157931112600635970011
