mlp_weights
I:6
J:5
K:2
V:
0.66282345123830299638001406492549
0.24584935968997193023177771920018
0.21083265878121265624045577169454
-1.45911038559901551359132554352982
-0.25377039181722155225529036215448
-0.09771712512429751862352844682391
3.19197809724049230695186452066991
1.87012680410491016758101068262476
-0.15948906482054270306036869442323
1.11696411837264197863817116740393
0.69964616418596459190837322239531
0.84591957056845590301463744253851
-2.17629109027361078432249996694736
-0.32113076723663513956097403934109
-0.53161222652391426635176685522310
0.06662988874225606039658487134147
-1.38728641702702004678826597228181
0.86766985852577116489214859029744
2.00259616552066210815041813475545
-2.35663426872239201159686672326643
1.41700734270448291951538521971088
1.84079164898914249270944765157765
1.30207719228966656288548620068468
1.72487631619231374102696463523898
-0.84854272996802182493780719596543
-0.06828671938287177167747898920425
-0.17214419858420892950334746274166
-0.82321166944970280976434651165619
-2.19007690206277150224423166946508
-0.99106818904394478053632155933883
-3.73534268660166279829581981175579
-0.07853703176812174002741073763900
-0.38193476240887735961848648003070
-1.63731172629181909172757514170371
0.75424067387353643798775237883092
W:
0.76709555523329009396604760695482
1.43831777493907031484354774875101
2.17272075443231704738877851923462
2.50967942951311817623150091094431
-1.62348199925440006552435079356655
-3.60933326327291092994187238218728
-1.03376135771749622094262122118380
-1.26463793306139704597512718464714
-2.58125239240603931989426200743765
1.38789273398391999059242607472697
0.59949073716237344378043871984119
-0.69672060090529663867187082360033
