mlp_weights
I:6
J:5
K:2
V:
-0.17924577984759546001036767393089
0.27516082141576508890423724551511
-1.47650188442606689065428327012341
1.35983562699422955155625913903350
0.58621783528347881642162064963486
1.86347087068627081940519474301254
-0.08095838943809824383990303431347
-0.93936394709355308663134564994834
2.41703329630185992371593783900607
-0.57720198085823304356978269424872
-2.62276812137361359233977964322548
-0.27713028254731569832713944379066
-1.10981268324274595649114871775964
-1.83704865236326364552610357350204
2.48129216584563572212118742754683
-0.75049235924126989072391324953060
-0.80182984001248469585476641441346
-1.52576769616215068836595492030028
-2.09183581212197511334238697600085
0.83655125654797313217159171472304
1.94529281413327570504634422832169
-2.23569103446913786115146649535745
-0.34962920772092692667243341020367
-1.38037036421192915724986960412934
-0.15994249126283108242141395294311
-2.27608267909143524576620620791800
-1.59965482448511120416867470339639
2.21494755801218312640799013024662
-0.09393357889358380785616020602902
0.04417010054250333078718071533331
2.97683388909225943308456407976337
2.12182121978160997954887534433510
-0.09397995906825803991146983662475
0.18302719715188642268799412704539
-0.04326046934616059602696225283580
W:
-0.08989478642547794884354317446196
0.10386119828671699916178283729096
1.01635090965879459901088921469636
-2.62084381688773504492928623221815
3.03726415886946510269694954331499
0.17425583505613906343256758191274
-1.90546121994557027257144454779336
0.60746031757710661214133551766281
-0.58823496944562858601557309157215
1.05749239609471690215514172450639
0.36065110582185455623260850188672
-2.54480205669266679180395840376150
