mlp_weights
I:6
J:5
K:2
V:
-3.81145504235020471384132179082371
-1.58816445462925903697737339825835
1.42498857009549984020679858076619
-2.12837376690196533601806549995672
0.22450992237841052578950495899335
-1.41603297667912775281706672103610
1.51807235675811669217694088729331
1.47193541494018975690494244190631
1.43528886291307378186843379808124
-0.76522778704001059857375821593450
-1.16659181119819033156659315864090
-0.21679861400295322160225452989835
0.61591138123787092517602559382794
1.63732834762282974949698655109387
0.13029841140275982835916579460900
0.59115805343677640948385487718042
1.77620730907791357644498475565342
1.02313296106864348722353952325648
0.79775012586777338530197312138625
1.66202123324210049304383574053645
0.40506181937354307498466710057983
-1.42711414038372752521866004826734
-0.74846128780857235085477441316471
-0.28999342552631124370066117990064
0.08471305643009467700732528783192
-0.36594317582131619115415332998964
-2.11900132292184162352555176767055
0.11061577440288578033644739662122
-0.06159521472840776001866913702543
0.05267655497910250783633046012255
-0.99542589994025354460660537370131
2.01873258494916463234858383657411
-2.31807969973091898552297607238870
-0.69495680948430571532981048221700
-1.31662434740187928028376518341247
W:
-0.23986073692568093962407260733016
-0.20456484646997394327705421801511
-1.63852060793508780278671110863797
-3.74147901085256862074857053812593
-1.77783002017591496013437790679745
-1.13705613337686095576373190851882
0.22844069423354793069158574780886
0.69741456949142954790943349507870
-1.03039394900626235518359408160904
0.82612001652590028033529279127833
1.25215874874225763235813246865291
-2.91326184349706673870628037548158
