mlp_weights
I:6
J:5
K:2
V:
0.28645867344264136500342488034221
-0.29322907837676126518999808467925
0.20673939130158144883431248217676
-1.01807222246191120262892582104541
-0.00025611141443994400734851524248
0.89991058404731283371091876688297
1.24348742486311225619033393741120
2.01174031033859135320085442799609
-0.01974248964985423487883409165988
0.58102005502910414325157262283028
2.72641348792226834163443527359050
1.39436452859057569142464672040660
-0.75076550873855529832923139110790
0.31835831183757623552565974023310
-0.87812849995747765952103236486437
-0.12080685784918658576270189541901
-2.87278808974414134880248639092315
-1.73268939912539754466536123800324
-0.47190910345976272433077269852220
-1.15713365149314317825712805642979
0.26738607259708740970793883207079
-2.95881826003115167011969788291026
0.60107911136248182160102260240819
-0.26858020956183858984900325594936
0.78118869590596373697621856990736
-0.56572007245844424527803084856714
-2.36386094393485546305555544677190
-1.46812930759608284425610236212378
-4.38675716455761843803884403314441
-2.00390557872784524917619819461834
0.05120225470145275958877562061389
-0.22148477810618028005507085254067
1.88249343933390456129473022883758
2.28168563816832170587645123305265
-1.19383812289648538751407613744959
W:
2.26763827735328593604435809538700
0.96889751006495417051667118357727
0.09024373868612223237306579903816
-0.64617298074007145647357219786500
-1.70872521522037867924836973543279
-1.56474097824308411297522525273962
0.14938774968007306753747798211407
1.10869331496240297596500568033662
-1.24500105861388998818028994719498
-0.91847996484100624670077195332851
-1.37418220912056532334588609955972
0.32643714764799114380622313547065
