mlp_weights
I:6
J:5
K:2
V:
0.09717207376357400727684421326558
0.23682295824800536632182001994806
1.86918027214540849456625437596813
-0.15918190711539723092293741046888
1.13059086635522532127140493685147
-0.81378264331777938611622857933980
1.43736374813914613568499589746352
-0.11780002405019833477961554990543
-0.37356572203823074085349276174384
1.44215964161049847724882511101896
0.93275622241240341292467519451748
1.00224770201158364102411724161357
0.39385827197915140862605198890378
-1.45101881922034370298035810264992
0.96666169165949056285569440660765
-0.56515389576435393070852342134458
0.36430763507142049917320036911406
0.06141446410181883308609940286260
-1.51697104245435543390385646489449
0.24838611053014270080296910236939
-0.12620161921353978407012164097978
-0.96955696326999230016951969446382
-0.27587339437134195119227797476924
-1.10123895409418737223461448593298
-0.59665268204817001329587355940021
-0.41375504420715031317357102125243
-0.55749154964848546267575102319825
1.09891084621637946661110163404373
0.96982534060703029510364103771280
1.64314442973025731653535785881104
0.45381192216902516145538015734928
-0.08017662756347798680423011319363
0.83368155803619348187538662386942
-1.30201068751370985232540533615975
0.68645267610847671146956372467685
W:
1.85802857439601742939316864067223
-0.32148178298903079541659622009320
1.60428014565941778890589830552926
-2.62056646676731785916558692406397
1.62584034192098503268653075792827
-0.25601006095348616264928409691493
-0.06915765257076272876091138641641
1.73450571351030147226879307709169
-1.53901141134556995737625584297348
-0.05168394094583265985232145567352
1.66425193437880847291410191246541
-1.46365111460858976499821437755600
