mlp_weights
I:6
J:5
K:2
V:
0.00628746819267962664401494521371
0.16079877129550393388690565643628
1.74925200363035759920649070409127
-0.17033072335241325467869444310054
1.18965384486814751419103686203016
-0.83083264240530374511450872887508
1.34486444706796581805008372612065
0.10240396271601749644819534523776
-0.43454762088845466649900117772631
1.24952128745496970907424838514999
0.89925912245357386698429991156445
0.86761204823648563344562489874079
0.50455027939603969144855000195093
-1.30230825375956493772378053108696
0.83857990903945944793917988135945
-0.81385623776643567506283716284088
0.70704039849503219627990802109707
-0.14226345837136725180904761600686
-1.62872617740453784485055166442180
0.30299212229804967089208389552368
0.00974526371319313355900959550127
-1.12161146548862755700781690393342
-0.02163110856711571161614671154894
-1.03795217754786328612226498080418
-0.81328886295540858686337060134974
-0.42411868766369947847394428208645
-0.46124745601590733112828957018792
1.07859924061831469188632581790444
0.81090886458325794894363980347407
1.93906109477723398448745228961343
0.25643120641650823943180625974492
-0.38033394449360552469485696747142
1.09808030796339939350048098276602
-1.34476418097482719460344924300443
0.70703786768254262007360466668615
W:
1.61113992564790464712132234126329
-0.24365502328303820234189913662703
1.69908540822426235017417184280930
-2.58885544229734776422446884680539
1.32306403466594546536327925423393
-0.28547376399171153771305853297235
-0.00379499150198275847500894997211
1.46004945382530704200974014383974
-1.38342931689243942017242261499632
0.05779635519370847351883213605106
1.33458648712747440789883057732368
-1.33327769708671328707794145884691
