mlp_weights
I:6
J:5
K:2
V:
0.35331043810182877207282103881880
0.38475888128592028447627626519534
0.58472215090391788105961268229294
-1.37944580702396368820927818887867
-0.24696364607690193815336954230588
0.23940832024527819443804332877335
3.00025843656099722167596155486535
2.08413070290188429112276935484260
-0.06332613570749819065230923342824
1.08923636074140173235491602099501
0.98076244368452991650997319084127
0.81936028816746753200561670382740
-2.44041948293223587285183384665288
-0.31008430276132220582141485465399
-0.47506833571368906055099046170653
0.09487631216889375052048194447707
-1.44227005174046829516498746670550
0.81910446835977490653846189161413
1.90071346756404513378413412283408
-2.16647063697963382367106532910839
1.41457761213803689948065311909886
1.87360149274334863989110999682453
1.53549080868702492175259521900443
1.69982838637016597793660821480444
-0.96376745146946640740992506835028
-0.26545519455383931317626888812811
-0.15879996067668533665795393972076
-0.54000921517958178075247133165249
-2.31765972056814995028162229573354
-0.67718859638321093896706770465244
-3.96378442329664704146807707729749
0.12841113696046932424188469212822
-0.27047606731217588293958442591247
-1.58729878491698439546553345280699
0.77353672762231961979040306687239
W:
0.59139140055859007460981047188397
1.48741925401442576237798220972763
2.06289336679449286648946326749865
2.32248718129693010325809154892340
-1.68250300212954506662299536401406
-3.54509155221939087354598996171262
-1.31120208827969042530980914307293
-1.23698623270386587336133743519895
-2.41289726060749876168642913398799
1.18776194688157699097530439757975
0.71388629697574912391644375020405
-0.98685997042164774750716560447472
