mlp_weights
I:6
J:5
K:2
V:
0.54435922381109480561178770585684
0.00580679943434211226493957269668
-0.56850767514251732137608996708877
0.26190647662874838585977954608097
-0.26652857503623378354618012053834
0.24240144649845080104810790544434
3.54334344089932473664816825476009
-1.48074216213242015882656232861336
1.09320900989688518656350879609818
0.77722668155878971152361600616132
-0.43418720224784690397967779063038
-1.22996407614875513658603267685976
1.21501669241397891596534464042634
-0.65835919264932041272686547017656
-1.86922253451784592392925787862623
-0.18385481428754793520319310573541
0.50382528867283071782878778321901
1.12107000402155554397154446633067
1.24162728714680548058879594464088
1.10995026031503907226749561232282
0.79843913829233958967535045303521
0.80707094905191523181997581559699
-0.27692858299095690632896094030002
1.56436528068870539520673901279224
0.70808507652985652747190670197597
0.74959642189513686627577726540039
-0.33319130560599030665969166875584
0.83010250910289240522388354293071
-0.99071781406969416927665861294372
0.68785165246505530767251457291422
-0.18001148026284882752712235287618
-2.14417975934673332716329241520725
-0.23728962408496662161994095185946
0.05176314964824196840353920379130
1.45952533062445333200685126939788
W:
-1.26636806815877234200229395355564
-1.00716510260620584205071281758137
-1.15075922851737089125379043252906
0.18576573091462994513634043869388
0.59446137835179091446491383976536
0.83756873678500898261489737706142
1.75342545167442365183774199977051
0.91576576352859528906691366501036
2.21306761180691458079650146828499
-1.03726448238137058943664214893943
-0.03362417565434863697682033034653
-1.11208802895008962430267729359912
