mlp_weights
I:6
J:5
K:2
V:
0.70420846052350061228253252920695
0.45149230837883269629173810244538
-0.26333811513501170775697346471134
-0.03918512873081330533109323255303
-0.36625500330589366715372534599737
-0.06883933224617988511084831770859
2.92279428798444529391531432338525
-1.44207174901222079377305362868356
1.00139907459499610808961733710021
0.99991763106413755757273520430317
-0.58033858948889771589563224551966
-1.35077244618648562024532111536246
0.30630008419117393803077220582054
-0.59534226501408127329995068066637
-2.69944642906625453804281278280541
-0.19643424780565515996855197045079
0.21892582875174565470999255012430
0.87646252991218842609555395029020
0.57621795090038185893632771694683
1.23815669341935974401280873280484
0.17811725268955741485754629138683
1.28625364676040954137192784401122
0.11341853215326022641384895450756
1.07951661390648512295342698052991
0.12611576160018853065558630532905
0.82347513238803904389584431555704
-0.96575803110945479534876767502283
0.44178514913353661430761576411896
-0.02000786016011229379030211816826
1.02154031723546756538212321174797
-0.36902276753193496983129762156750
-1.08540116178520551493136281351326
0.11229744304741635929634213653117
1.14408373815319563959747029002756
0.28493828444193908255854807975993
W:
-1.44305904927147499172690459090518
-1.16405430566564160876907862984808
-1.40856192661960699652468065323774
-0.33970601836741970425137537858973
0.31341759112153877442352722937358
0.89180146185328479369047727232100
1.73657305162951902666179648804246
1.08950573455946719825249147106661
2.37278261809950974381422383885365
-0.59337780332952561046511164022377
-0.60549291704608565467538028315175
-0.94045394501670864784159675764386
