mlp_weights
I:6
J:5
K:2
V:
0.59877859299329383446774954791181
0.78713370569379093044659612132818
-1.79470222223630804236904623394366
2.71928635197568402404044718423393
1.62753225666766798696016849135049
-0.24243148762672256379957502758771
1.07098595398534923717193123593461
3.54048146150170683910118896164931
-0.13495004112096004034171414787124
-1.08200555558754851759317716641817
2.46173007350538375348492081684526
-1.84784281377175241267707406223053
1.98650364863840489526580768142594
0.22966161928839684547298816141847
1.61807087679186367701333892910043
0.85732459654525350334353106518392
0.63058957823852801460873251926387
0.48370191252789823677105118804320
-3.40445289663141981151284198858775
-1.45408234180578443961451284849318
-0.50701191533465284067005995893851
-2.07967843430896426326626169611700
-1.79532015971032543610874654405052
-1.63116694830267605631490823725471
1.53462845066896269585754453146365
0.23962594657579711077133310936915
2.49034623729075299536361853824928
-1.12298186663499266479959715070436
0.27309419197258544276252223426127
2.06549879325160290477469970937818
2.09518856569862510497159746591933
-0.48777137079886140336171251874475
-1.14087731582713325373390489403391
1.65550443303106353809539541543927
-2.31560503987554744398380535130855
W:
-1.68255575020413217224302115937462
2.36751005792824953388731046288740
0.67237171755472413536836029379629
-2.31254628488714519818358894553967
1.55426792552384629431116991327144
0.56635767498111011519767998834141
-1.47429387489108987274732953665080
-0.83808088722510287738032275228761
1.62507230539828784188216559414286
1.15084724805381055645625565375667
1.32857697004106012350632681773277
-1.78263237924511752652279028552584
