mlp_weights
I:6
J:5
K:2
V:
0.65114152819010429062984712800244
-3.29335825893991218649148322583642
0.08976832142595744801205626117735
-1.25513884317606816409806924639270
-2.07168964398919985825386902433820
-1.30497609185400653686315308732446
-0.21756531849105595344262553680892
0.42210021521015606005278186785290
-2.49264945463205700448838797456119
0.17915974710328894103916752555961
-0.63689145748425379789381395312375
1.72149972401108164454797133657848
-1.56033340946362919510193023597822
-0.39597154384034127794222968077520
-0.67525314397598201754391311624204
0.68648472949857242131344037261442
2.16574990825846658282216594670899
-1.31808253731124036534083643346094
-1.58166288319330838874066103016958
-0.48103205484062505625786343443906
1.91755391771752936591610705363564
2.69445132020078181867006605898496
0.79894386672457884390752269609948
-0.74846026157678258172722962626722
-0.14285081293452481232542083944281
0.13225365477614117737381604911207
0.85621519130822665299973550645518
0.87111228060978773690692378295353
1.41305898564306087195063810213469
-0.46146780252914554321108653311967
0.69911689383188579949290897275205
2.79634904008191087498857996251900
-0.15483389333402891585578231570253
-2.10669053795576033394354453776032
-0.55774820821583825924960819975240
W:
1.16726390086651177213639130059164
-0.37052548416399677666532852526871
1.44563997342850147909132374479668
3.09122238410348160186913446523249
0.81589152629433603358677373762475
-0.48370289750776312986957350403827
-2.19268822303442467713807673135307
1.89770594025259797810178952204296
-0.21086820260827623951804810076283
1.24112573748248822269601987500209
1.44998335058738425651370107516414
-0.82508373380179356182395622454351
