mlp_weights
I:6
J:5
K:2
V:
0.60974539161632590467121417532326
0.32971225252055708088150254297943
0.46905005868235760679851864551893
-1.29416075982972467173226505110506
-0.37503619278815136794946738518775
-0.06560457808917503907952806230242
3.03536576061352247890567923604976
1.80952010224688719652874624443939
0.06622649638984058617641181854196
1.14613962099233290814481733832508
0.72376711993178799442461013313732
0.89268293098164208654310414203792
-2.07829845131909429767347319284454
-0.17473222869797028211635847583239
-0.49557283504297661158588539365155
-0.03668420400293467831254190514301
-1.45260730311827090943666007660795
0.89007592227089127323580441952799
1.74749188423391843549836721649626
-2.40698309257474374334151434595697
1.49255309600070384945524892827962
1.91246004027567728655867540510371
1.35414685593550210285229695728049
1.56228732391423053016410449345130
-0.97943086438025195317180759957409
-0.02920670459245706951367793635654
-0.38786015764669729000146958242112
-0.69025678801138534712578120888793
-2.30943408406732997306676224980038
-0.91445957915647213543053339890321
-3.84617606505376752323854816495441
-0.13677024101661686139586038279958
-0.34799474357707615990165095354314
-1.69620621049658559797990164952353
0.69833670026464222946316340312478
W:
0.56365261453328907581550311078900
1.56752265630342790814211184624583
2.27146874243649632418851069814991
2.51576371548667987454450667428318
-1.64855878154135870872210034576710
-3.69290763924854914534989802632481
-1.16430389752801821678929172776407
-1.41779619563251690905758550798055
-2.61980709978889514388811221579090
1.30303583883635520912491756462259
0.66676483680367948370104613786680
-0.79699808770399793722560843889369
