mlp_weights
I:6
J:5
K:2
V:
0.32332726403317102459311627171701
0.34845168047826446944270628591767
0.62084237882788118056964776769746
-1.48390418596133932815916978142923
-0.23796206630204283505314322155755
0.42552806444997215429282277909806
2.81459243652420232351119011582341
2.23527320221137770772656949702650
-0.04730083347356456302534866154019
1.05206698867407322239841960254125
0.93226005493058505813053216115804
0.97056106345473502905463192291791
-2.40430216230104853991633717669174
-0.42184098715269824353413241624366
-0.44073973734886079389738711142854
0.06765106018187171110778166394084
-1.48954392652227030069411739532370
0.94410629291439096544280573652941
1.86162455062826337481851624033879
-1.97456193420947156980105319235008
1.43320976706158220714826256880770
1.91037717102962401050092466903152
1.70038953287468030950435604609083
1.57162832325095380703317005099962
-1.00770730601042535212741313443985
-0.20825400161210944061096483892470
-0.27536509528244729194668138916313
-0.61382438864480259876899026494357
-2.36228972965482952872662281151861
-0.63991733080420121204667793790577
-3.81483349545541816638660748139955
0.02574237146870869685777449831221
-0.24273620505511031564260804316291
-1.67806148759932582947840273845941
0.63935645889906500549670909094857
W:
0.58077516891058367232147929826169
1.50488051483553930687264710286399
2.10383281246646491879914719902445
2.32023496043061294713538700307254
-1.56464521697417424661580298561603
-3.41210372717983112522688315948471
-1.10504692263030390719791284936946
-1.23590105309654751941650374646997
-2.56648673412468353305371238093358
1.06426410845537811056260579789523
0.73057280872046748143588956736494
-0.97393090024204298504884036447038
