mlp_weights
I:6
J:5
K:2
V:
0.52052111890577934527613024329185
0.02877975845996658121883626790805
0.77314979931626415243783867481397
-1.16584771218141236559517892601434
-0.13533096768410202148658072474063
0.30118764518535817709121715779474
2.92689232529128728899081579584163
2.09563842179144188548889360390604
0.37180667238243081396120714998688
0.82147743957804653103238479161519
0.58848393399206011533664195667370
0.88227126279119238994042007107055
-2.47863210165632619208508913288824
-0.30734940184456271961010997983976
-0.71402789409780420548656820756150
0.34333240348657412255306553561240
-1.20965932836761069779640820343047
0.83091507854005652866646869370015
1.68691974980618852875124957790831
-2.30128489786307222075834033603314
1.64643013986918207436360717110801
2.13487913676819118791172513738275
1.14696019428335804768437355960486
2.12939043430910235343844760791399
-1.15792771363862545541678628069349
-0.39912102911352487222274021405610
-0.06248951037991062884557891266013
-0.80850158664672211461521555975196
-2.27795229596582871067766973283142
-0.55482260534088934100793721881928
-4.01787327859434384436099207960069
-0.08616067180026171223872211157868
-0.61107736619692387680657930104644
-1.55079758760253705318632455600891
0.91040139221902660615626245999010
W:
0.48264469563182571532067299813207
1.53236309727252972834321553818882
2.21408887542579835283618194807786
2.61221142389938609795763113652356
-1.73399091885828937620317446999252
-3.23988019634995305651159469562117
-1.05709256649427874030777729785768
-1.13021665081240829664466218673624
-2.39902367617809275657236867118627
1.31350756992980199910903138516005
0.82600171267851507650448183994740
-0.92374282379286987154642929453985
