mlp_weights
I:6
J:5
K:2
V:
-1.35308134776038735402892143611098
-2.65422157411462800169488218671177
-2.25455411270019157043975610577036
-0.32523240412733056547978094386053
-0.44631715768070434613434827042511
-0.66587189597053297873685551167000
0.85422603104023919762255445675692
-0.28885699752773863480115323909558
2.06810258445764105772468610666692
1.18766851320405497638432734675007
1.44380211497478105897585010097828
-0.45623184336463828980612333907629
-2.45231981597736270472864816838410
1.04050132322369570658793236361817
-4.83325397480427643159828221541829
-0.24535593526619406401501066739002
-2.93660612972402379483582990360446
-0.30686004902486568868269500853785
-0.54031169749291041437544436121243
-0.53509480395920083761751584461308
-1.79210931723340394228216609917581
-1.77400664413124053986337003152585
-2.11431601438531080461302735784557
-0.15290829265991276453284797298693
-0.82859462476440737255245494452538
1.78528360505892402798622242698912
-1.08869636156664451043241115257842
-2.98727313466004007480592008505482
-1.23801099972266226423300850001397
0.12651973760941925828404919229797
-0.69445562442655395241075666490360
-1.07302159680536846053655608557165
1.94520463063658377578235558758024
0.58031920486882337950618193644914
-1.54320260626715244356432776839938
W:
1.94699727278395862128945736913010
-1.46172869758834655939949698222335
-2.37729166312914763636854331707582
-3.37058513363748790681029277038760
0.01218297912761026613459591771971
-0.39771493069510038820268960080284
0.51068418410668503515381644319859
-3.18945117691875656973365948942956
-2.52967963944197427039739523024764
-2.12069147745058428355946489318740
-0.93470484445994506117472155892756
-0.95157794670892770216852341036429
