mlp_weights
I:6
J:5
K:2
V:
0.54615065467509327223893933478394
0.89583597868262854202470180098317
-1.80638233988632879167823830357520
2.68212653645278509273452982597519
1.53804277350410312230621912021888
-0.24767754463410776577525496122689
1.14916865090481778999276230024407
3.60589521933364176575764759036247
-0.08732611109504570534589618091559
-1.08983799823975990861413265520241
2.56307261155576826539004287042189
-1.87927246579645856883189480868168
2.01293845509955282579994673142210
0.22435258851689240944260461674276
1.63229551580380682906934453058057
0.75186915033883383596702287832159
0.69017563307070128875153613989823
0.63289763624055794810630004576524
-3.33265891295249394588040559028741
-1.32707044215164371436799228831660
-0.59237053264039596367496187667712
-2.26471084783850962196538603166118
-1.76081607558235342381180998927448
-1.78712493549173778717431559925899
1.78691907179066977739978483441519
0.29602925822542264233661057915015
2.55270062034583133936394006013870
-1.11941630157598992489909051073482
0.17542136019050469375457623755210
2.15739627631707886479262015200220
2.16373425026506893686928378883749
-0.54997534098033706850827684320393
-0.99557177803725127596123911644099
1.75667500168174850472269099554978
-2.10763352297662498457953006436583
W:
-1.65181824949415179126788189023500
2.37461805333872710832565644523129
0.74766458316779549342356858687708
-2.21028136492624094344705554249231
1.54974726606012258578459750424372
0.48929252698807235155697981099365
-1.39465443308490755214279488427565
-0.73965440804701920729513631158625
1.77166230774717647911131734872470
1.12762313785398293752848530857591
1.42751247124416136280444789008470
-1.70849990753801450615867452142993
