mlp_weights
I:6
J:5
K:2
V:
-0.59889397551100642669297258180450
-2.56192465687788795136725639167707
0.28871282194176423052667246338387
0.35365057248501879927360391775437
-1.84232350356146445946592393738683
1.11706251340752915623966146085877
0.38761382718969483729409830630175
0.08195326521195615832038328107956
2.04640529404825821657709639111999
-2.11643656768835475290302383655217
0.86155593305752731225766183342785
-0.77109345459309397430303079090663
-0.14807265490031504273638063295948
-1.19882957870057738070102004712680
2.60143442309250882971127794007771
0.49327190052683766996466374621377
1.42229301885084047363250192574924
-2.23719365722413776609300839481875
-2.34869838588270685164616224938072
-0.27648652666797751686900141976366
-2.14729821470945259065388199815061
2.23046022509177088721799009363167
0.50460164657914929886572963368963
-2.08009602226786016743176332965959
-0.84752868617950560814477967142011
0.12069243958896473667419257935762
2.10129768465660138332395945326425
-2.31277563138164188316636682429817
0.34151877245091488699557658037520
0.83882707761282426783822074867203
1.75710390748574485364486008620588
0.12313383980127577677077255202676
-1.60921443718769086039799276477424
-0.32534409248126328062511447569705
0.19376442837312324307674771262100
W:
-0.56332941029773231367272501302068
-0.66828879319845035933411736550624
2.38896589886204946395764636690728
1.20187930022449651623617228324292
0.33039136262187729364825372613268
2.20391277086581460764591611223295
-0.12050745500262360909715653178864
-0.81234836954828393285055199157796
-2.29771194414133317351911500736605
-1.29109267680692085811244851356605
0.77472161490897983870951293283724
-2.87346590280740432632455849670805
