mlp_weights
I:6
J:5
K:2
V:
0.51117084577626203945044380816398
-3.44332823838966772811431837908458
0.38616457448895891158002768861479
-1.38908858281703784243177324242424
-2.21620506382883020179974664642941
-1.48888305656394903664363482675981
-0.23101980572052499551816140410665
0.21876971872951289643793870709487
-1.95671711108338319817789852095302
0.76435053914096795502075565309497
-1.17552524918283340937819048122037
1.79230271893716830433618270035367
-0.93675981748320502617843885673210
-0.45914272986299153878064771561185
-0.63286194425182629164083891737391
0.62205442404911115428234325008816
2.13414743482258772999671236902941
-0.64780799054405746595364234963199
-2.02275487470802106670930697873700
-0.33384400944936198918355785281165
1.94072258226658056479152492102003
2.84732438769373530362827295903116
0.11220820717645718644916996709071
-0.97622306998161467728181150960154
-0.15651560663407237949940054022591
0.18103107657040351519128762447508
0.73884403684361155129067810776178
1.58995634705725441548906928801443
0.13953346980298325652469770830066
-0.73114691297294553962160534865689
0.73720481415826943916158597858157
2.16387765376395035943346556450706
-0.31108575163435947530388148152269
-2.54132952315704097046022980066482
-1.10763402121537923861183116969187
W:
1.04839926650554282616667478578165
-1.03031505171697834732924548006849
1.23185755194516466382026464998489
3.06109896133855041711058220244013
0.93985398072784986922556527133565
-0.29369339995290144607054116931977
-2.20883833575547550154283271695022
1.16895390126104103956095059402287
-0.41212335179272885365975298554986
1.12158052866541724235105448315153
1.76988246131973392394343136402313
-0.68202762643609182724446782231098
