mlp_weights
I:6
J:5
K:2
V:
0.99955578127897037887805709033273
0.94680705487979555101674122852273
-2.21236320528622387726613851555157
2.52343874655450628452513228694443
1.91525946124036239304189166432479
-0.16260096435512116919142044935143
0.92927684883904693169398569807527
3.42369019457711276643863129720557
0.08813468182799108485703243331955
-0.67109989915126644355325424839975
2.46968043880093901520922372583300
-2.33579712494031754843604176130611
2.02777785771221319421897533175070
0.35367862949960926499670677003451
1.72783002479846459209511522203684
1.03997263822067975702623243705602
0.30111035494216609187390076840529
0.70393922034092826223172778554726
-3.22119671973421217714417252864223
-1.54536306665835576623635461146478
-0.62832291896574532508168431377271
-2.06189947323668176792921258311253
-2.18928632784638610431215965945739
-1.58984457149789748520163357170532
0.96549012373814935283888871708768
0.07354994751038798628250958699937
2.10699643798695612773030916287098
-0.76942877020883149175034532163409
0.81810245311026941195109429827426
1.61217419423036512071689685399178
1.96943903647655926825166261551203
-0.73389163726129380549423331103753
-1.13955047957488475596221633168170
1.53266896580988376541654361062683
-2.24081351253842031567842241202015
W:
-1.49524454210915003216086915927008
2.60824626737740139503785030683503
0.37305652838752079158979313433520
-2.25060126797443071922089075087570
1.36225742992236775741332621691981
-0.00108056170469833512370882999676
-1.62648461393789633966378005425213
-0.65522962024965092364681140679750
1.52984406079078905094092988292687
1.10089555207118294788415369112045
1.11154874963473804250213561317651
-1.81426786021800290349403894651914
