mlp_weights
I:6
J:5
K:2
V:
0.17633437339800306364878679232788
-0.29205658476533297163157953946211
0.28031604209655636150699820063892
-0.87874484604676272869738795634476
0.10525273435533932797625311650336
0.86469941005830819324984304330428
1.27717931467320933158759999059839
2.31700409491210201906596921617165
0.02616328887839894021261066825446
0.49910913462322664679859940406459
2.91304883015129778556229211972095
1.40861190996553586884942887991201
-0.92437267453192395461059049921460
0.46305033934336803369546942121815
-0.88368283277763537419957629026612
-0.13896036823220631051256646060210
-2.85531991115259309310658863978460
-2.01931016151588860196852692752145
-0.47582869492931456623097119518206
-1.13594173312900270644831834943034
0.24565315402744258843625857480220
-3.11761015679235109487876798084471
0.32151551967604075077389325088006
-0.44129231835695570396183029515669
0.89345187460145480962125930091133
-0.43847461858277592128274591232184
-2.24432793512586847839429537998512
-1.62540412674491130395892923843348
-4.21862074894616156939264328684658
-1.95774261457341425263223300134996
0.19012596989459440433023473815410
-0.36997369737416907486959871675936
1.83030112539520550818394895031815
2.18406876999429044872158556245267
-1.11348434811761864970947044639615
W:
2.17429228735390500659718782117125
0.75716467758150807210171251426800
-0.09612073391183573178864207875449
-0.76438000669167793788005837996025
-1.88795503182014257070875373756280
-1.43680006027228990284072551730787
0.07398573527737278832105971559940
1.00266124415969515304425385693321
-1.46535820171329622674250003910856
-0.89810944675514414736738899591728
-1.50180746829761213589904400578234
0.42142393107251135964119725940691
