mlp_weights
I:6
J:5
K:2
V:
-0.01569304577369570741218751663837
0.34298937385010969114418344361184
-1.40844414955223395935490771080367
1.10435599064805356483986997773172
0.75248877502000832695472354316735
1.97250253730889468783971096854657
-0.04887273787009879105758258788228
-0.67631380673538499248564903609804
2.10626140409924067498081967642065
-0.71496366643814068808637784968596
-2.57747226384715633074051766016055
-0.29554485601660679394697694988281
-1.19251386877802767472189771069679
-1.71877538606476676363854494411498
2.05830074920931327397966015269049
-0.74179020174532572795556006894913
-0.74207212380058562573026392783504
-1.07981005590133039007127990771551
-2.26184707476534052617012093833182
0.61782882604083877442491257170332
1.94142054717284850973157972475747
-2.31644705116184113080635142978281
-0.21801373589513672879292016659747
-1.44830249097635244126536235853564
-0.39818846558077414243825842277147
-2.15898647593939285727060450881254
-2.15492496609501893445326459186617
1.99884977788297235612446911545703
0.04783813162539992530630783562628
-0.07671454101216769461135669416763
3.13296342109007630583050740824547
2.00010882045204585466535718296655
-0.01051844655865080691015123193210
0.18027922304646692985841127665481
-0.54005176817130828847979273632518
W:
0.38059264710643464502126676052285
0.31199549496491618683080560003873
0.79908129860898124974255551933311
-2.56841390967556337798782806203235
3.25042987827578233606118374154903
-0.18305728213552319161294690275099
-1.66667627100903659176367455074796
0.78477104448780754530901049292879
-1.05186525261412699983054608310340
0.94158737813631054880403326023952
0.23563553122699676389828482570010
-2.61308055379351777958163438597694
