mlp_weights
I:6
J:5
K:2
V:
0.69911665754976914932683484948939
0.57531549992176023167189669038635
-0.38514836162993637547202752102748
0.00365337061560491727085775437445
-0.31367528676160361111868724037777
-0.04688589897038965281783617911060
2.85549656444890986861651072103996
-1.53688915415753912796503755089361
1.01109047320593292695889431342948
1.08592131469844210833741726673907
-0.63471356041578919082724041800248
-1.46167748985407852657658622774761
0.34586201951866057946460841776570
-0.70829996715112364391586652345723
-2.59289381359656179171224721358158
-0.29659226210846179050406590249622
0.32354025723252721746803217683919
0.86685777286991172463359589528409
0.52665905147847125178373062226456
1.25318433390309769137616058287676
0.13468713717693839293509938670468
1.53666030933009034598057951370720
0.06554592801233863341714425132523
1.21010282910848232518219447229058
0.09086224881102579475911085182815
0.80435812933576444905270363960881
-0.98183182336989893723711020356859
0.22274893937806816701652223855490
0.01630709458159412122979503578790
1.08143557167225301540725013182964
-0.40686387151518976779129843635019
-1.19272640760239445612000963592436
-0.06831475621540726572700208407696
1.17281173105100888776064493868034
0.38747132698058495137161116872448
W:
-1.40213547369113267215823270817054
-1.20106844078108387918746302602813
-1.40697197268942986170259246136993
-0.15702821467403285660147105318174
0.31807018855654534128518662328133
0.82840802767204446688253938191338
1.66888188786210101000051508890465
1.19416951783395508535079443390714
2.25898936424713436821321010938846
-0.46295895374582224368609217890480
-0.59459286047548254305894488425110
-0.90306999179361568952373318097671
