mlp_weights
I:6
J:5
K:2
V:
0.40432646261655758035402641326073
0.37274343428241152320623541527311
-1.70341598982303410458882808597991
2.95982040042551375336188357323408
1.77587659987739510114579388755374
-0.27007780097278122344306439117645
1.12462700458544695436557958601043
3.49508156361085209340444635017775
-0.03419253722120783184346137772991
-0.79865627742814193634757202744368
2.83449557646237737529304467898328
-2.17688579604193810368428785295691
2.07781468906156252529626726754941
0.02395680446712157574129520298811
2.03833506610391612667854133178480
0.85986149797405075911882477157633
0.59445112785671894162220496582449
0.62458162539078143637993889569771
-3.36261052082225431192341602582019
-1.61258849234192780386365484446287
-0.70074060845662522467591770691797
-2.04403844162726278099739829485770
-2.12264547181530449648789726779796
-1.73940211645391107353475490526762
1.26431882063546385808194827404805
0.17758789326218943349644519003050
2.44186384958428348568304500076920
-1.25419368389625884852023318671854
0.46310946197616048580769643194799
2.06529247636436341650778558687307
1.67111441574466357273820449336199
-0.47477306068021485341290599535569
-1.34248478247260605300539282325190
1.44333062374601683863772905169753
-2.51963671086868679083181632449850
W:
-1.05461762528406977068584637891036
2.08756206292472290542150403780397
0.62255192140435544612131479880190
-2.01044493283898972890710865613073
1.31210867437689615577767199283699
0.29212553625618398189800473119249
-1.74488207101733849846425528085092
-0.88426537295170926089582508211606
1.70511560510562509840326583798742
1.05439429222146374698354520660359
1.15066500478473132673684631299693
-1.70038707421150503407147880352568
