mlp_weights
I:6
J:5
K:2
V:
-0.49177082226423940447546101495391
-2.33589159147732416954568179789931
0.46178238074094696274940474722825
0.08762749302734043621576631721837
-1.44165660633530778866884247690905
1.14630350169462147391641337890178
0.65971950869415207918677879206371
0.39808220417138601154860566566640
1.68908134683215171989445479994174
-2.12560252573726637947970630193595
1.03554420016914705549027075903723
-0.67572210280369082724405416229274
-0.26103930875621117468909915260156
-1.11548387301562801354748444282450
2.42021818172972169591616875550244
-0.36282495671305109441462377617427
1.37395137448960102943829042487778
-2.65537004522279929119576991070062
-2.81036922773251029994412419910077
0.32071840011400792880280619101541
-2.18007885486767793992157749016769
2.25312748890012315428066358435899
0.41806731203087066361945289827418
-1.70402636813479047006580913148355
-0.59758839960654741574330728326458
-0.31973098240224839816647772750002
1.94319215821572321978294439759338
-2.01793414217799815801868135167751
0.22758923337669823006024216738297
0.79733252022277079085199602559442
2.02324711370689280798274012340698
-0.08071398406582840079348528661285
-1.79005605015278290714775266678771
-0.51966446337566807311958427817444
0.40454520204566507546317666310642
W:
-0.89817257663671079548350917320931
-0.30466710325363666189701916664490
2.54181654022079284160895440436434
1.43382115342501159638288754649693
0.25629161557082780209526617909432
1.93434848838985740115958833484910
-0.07231647636455088012930048080307
-0.40674276314505308782543124834774
-2.34155282691821486906746940803714
-1.43691630162222239164293569047004
0.70818110630213326750492797145853
-2.95128367592155260723529863753356
