mlp_weights
I:6
J:5
K:2
V:
0.80101293909875936893882908407249
0.09292058646932480070468329813593
-0.65641555011829744170626099730725
0.59556590535677345066289944952587
-0.73114635031638974815848541766172
0.27156925020173161566816588674556
3.41466660659351362028246512636542
-1.47985068570598632398116478725569
1.17579706349215928895546312560327
0.70929295610610176847643515429809
-0.49210987488046531446173048607307
-0.84797493203051499399691692815395
1.30200976840661919453623340814374
-0.53918204693186111420288852968952
-1.80450884367949182518486850312911
-0.09106368094038601312956160427348
0.74034689921040541804586609941907
0.96844714671217813073411662116996
1.47182933785665848169799119204981
1.04905983815137004988571334251901
0.57476921436917216556850007691537
0.87885144697179551354082605030271
-0.15609665488186921789015570993797
1.60472190622611088350879526842618
0.83429601616266624297679754818091
0.81590636622488510454331844812259
-0.39221365560620780055245404582820
0.64625832996581911160660638415720
-0.78416430889362487288707370680640
0.83736542863633223188202236997313
-0.35179540941841447310167723117047
-1.82965982777741786868830331513891
-0.27712699122126049910974643353256
-0.00747289697657221863025256425317
1.11110023460049855970055432408117
W:
-1.02078489760557911125715691014193
-0.88126582424099830781472064700210
-1.27531146899983105491571677703178
0.40125934189517770134258967118512
0.59532947601530228354249629774131
1.14903227828043075220421087578870
1.61607360353505358219194931734819
0.92898469017009588366562411465566
2.22742501344313881261882670514751
-1.19397159206518144181075058440911
-0.34309792588644200117542482075805
-1.33614205159941268341583509027259
