mlp_weights
I:6
J:5
K:2
V:
-0.01627804189761535708091955143573
0.16452907127192831215900525876350
1.89153557513666936706897558906348
-0.38083412841927144487641498926678
1.46527904243927675764780360623263
-1.10358748084440883019397006137297
1.31701796296321016477293142088456
0.01280027066892933107489227495535
-0.52582045253594567046917518382543
1.34392961250695264219245927961310
0.76838925716512940233826611802215
0.77642636884086657644843398884404
0.61968387836508354027387213136535
-1.40377148779817750856580005347496
1.08031052938070915026003149250755
-0.58804055463339055531690746647655
0.15949865698546777936783769291651
0.07895668774946799917113793298995
-1.70456196175508623014138720463961
0.19303389841727502940216254501138
0.03186936694428010863333611268899
-1.18019153838314050375402075587772
-0.09976036308537077068603338148023
-1.62307859821058064753174221550580
-0.70330015730920170113904532627203
-0.62642899093500525875555240418180
-0.42894740333709285851071513206989
1.33547112078386009947905677108793
1.00388118588735930636346438404871
1.74465914875473493417246118042385
-0.11051925774844886807279920049041
-0.05739692661552031616167823813157
0.59586266928902675843460201576818
-1.36960478968032828284151491970988
0.52104381919355635677248983483878
W:
1.82490139879724577731678891723277
-0.05168241019882441333876954558946
1.46052705452983566658531344728544
-2.77346944346836199457584370975383
1.38320449021246472121049464476528
-0.08024246185187927649096195636957
-0.02702792087463914624811955889072
1.66374452597692434885345846851123
-1.49669835787490179690450986527139
0.10323184592957385108391576977738
0.99764162056029404013202110945713
-1.37077161237796096848740035056835
