mlp_weights
I:6
J:5
K:2
V:
0.28972526123196096214940098434454
-0.47527824699147214193573063312215
0.38252169202337138464997678966029
-0.73302597342345321429490923037520
0.02347041923654452633130063077260
0.80272115583770764501991834549699
1.33204388268890294710899979691021
2.03058638728397022887861567141954
-0.06042385139719688713633161114558
0.45334653680338626857704298345197
2.76650092094933208741736052616034
1.43586082438420103990495135803940
-1.09946066528899732972490710380953
0.41975461198419727892883202002849
-0.98290416608531738784648723594728
-0.14512046576446094303669553937652
-3.03673461812743061827291057852563
-2.01805007672844993749095010571182
-0.39312173792447102638192291124142
-1.14468722430359104436092820833437
0.20445465123842482269012066353753
-2.99683480206811436730163222819101
0.77959824104063057959024263254832
-0.29801481534351548230432626951369
0.90478617025283836206028809101554
-0.66241444769966317807075029122643
-2.25399956929492173429707690957002
-1.45102984260680512029750843794318
-4.30558824730406808356519832159393
-1.79969439594495472789503764943220
0.10840277286108188081747982778325
-0.39010530156115685862516784254694
1.81391615904008829396332203032216
2.20757576688500023465167032554746
-1.25889040222889603271028136077803
W:
2.46773417605033218436005881812889
0.99469396142207811006841211565188
0.03085825648789881914257904327314
-0.77893910484597217447344519314356
-2.04670708833954995142789812234696
-1.50711474329511863068375987495529
0.10260686311644433288403632786867
1.12141211868436352361300123448018
-1.29084699376954725735799911490176
-0.93020545087372019654736732263700
-1.51517882429253636367150193109410
0.36499717910048029567704475084611
