mlp_weights
I:6
J:5
K:2
V:
-3.39810727320130645523477141978219
-1.58701524722900777497613944433397
1.43883766056476258832219627947779
-2.11273135041967963232423244335223
0.60529462898827746109020608855644
-1.33130550665896407735999673604965
1.61792383670915729254602410946973
1.30944329984228513552579897805117
1.56351364073056897652236330031883
-0.61471698920403605725937268289272
-1.38898661659805444656967665650882
-0.22383983776530824716388679007650
0.75217243128360922188591075610020
1.64343554870803210121721349423751
0.28734810453321879553101325655007
0.77002265868795438663596542028245
1.51617723124707715065540014620638
0.78880206876660452497418418715824
0.88898579863180937632449740704033
1.69119119150214003433063680859050
0.10852137222024135776443642953382
-1.45308193170431687590848923719022
-0.56818121035582669353658502586768
-0.37643152114541772457201318502484
0.09965298034017636141790319470601
-0.27561622797483070756996426098340
-2.01715130064866299264281224168371
0.18732424861459559539689223583991
-0.07918038082708825364797178281151
-0.10865091140989088791535266409483
-1.18752992541626190003967167285737
1.78894647149663765794969094713451
-2.57423236199204863439149448822718
-0.44156829532082553235738942021271
-1.34395846063190971264589279599022
W:
-0.39989939434151949848583740276808
-0.13166430040046481209081719043752
-1.80196815055469050648184747842606
-4.00949760937221810763730900362134
-1.81965217106192245211104818736203
-0.97125886414986561945283938257489
0.10983586283722888976566167684723
0.79319237975636769366616363186040
-0.92606011215969286087812406549347
0.89853334884184665742878905803082
1.32965478222996291712831862241728
-2.92631232158570542267739256203640
