mlp_weights
I:6
J:5
K:2
V:
0.37684082776763616617898833283107
-3.66314503287690218513716899906285
0.52573948877935450241238868329674
-1.25423474641217880254373540083179
-2.12773801812418916767910559428856
-1.75291245177368049112942571809981
-0.34131518935243870815909872362681
-0.00107927899162998941484659098933
-2.08695142694572011166087577294093
0.91845181832079303418936433445197
-1.14905889989553977592606770485872
1.98978417161059195628070028760703
-0.73723800349415435917421746125910
-0.56227531157409726958462670154404
-0.42341718246290022120703611108183
0.69009855575899892166091831313679
2.14109259284629160902113653719425
-0.76465552296203787019379660705454
-1.91661972804185820606903689622413
-0.39833749147777330890107805316802
2.15244821175143430380671816237736
2.73042316874971913165381920407526
0.35417309444815475716339392420196
-0.93641091369664253285520771896699
0.00489922922919606984581974984394
0.21313613692697602752801344649924
0.76798902645095967756105892476626
1.47271008175766371373072161077289
0.32684016831819823201144004087837
-0.67146383263065212432252337748650
0.36556884072859630041563150371076
2.28760330703696901366583915660158
-0.16386258789833116344958341414895
-2.21981426985800789353220352495555
-1.07425176682968848140831141790841
W:
0.98956381025288020492070018008235
-0.86092488695215685368111735442653
1.14657394287518399345060515770456
3.24302221526168210630203248001635
0.69333199313482407610820246190997
-0.36369025813512068090460616076598
-2.38380594775315879374488758912776
1.43395440591469514046707445231732
-0.34427264164529181034168914266047
1.07989674246698519333165222633397
1.75744941346835670259451944730245
-0.42450145544765749416882272271323
