mlp_weights
I:6
J:5
K:2
V:
-1.76037460939017975647402636241168
-0.29607028437855342772877520474140
3.25695192767032137837190930440556
0.04385538249656602272086303173637
0.20643486687335269036402962683496
-0.24258228253517258310445470215200
-1.00575002583109296416807865170995
-1.24024883291954290953640338557307
-0.87939739052548338005266259642667
1.13411207950570047664484718552558
-0.49207936719999478825116057123523
-0.94119895514417528659123490797356
0.72153539604188998701772561616963
-2.70673440318038727170346646744292
2.28991962114269975714364591112826
0.49222504180206982926648606735398
0.07103431056022521672410618975846
-0.27612107409740754837557119572011
0.13339119114277303568272259326477
2.80559722736543593057945145119447
-0.73256885501110124980783666615025
0.50947695295918971059023760972195
-0.36105273569297413605028168603894
-2.21487764002546905217627681849990
-0.62639406207881342947274561083759
0.70256223899846648173195262643276
-1.49944157986315818043010494875489
-1.06522017364394261385029949451564
-0.45178542228139872971581780802808
2.07511445512759040710193403356243
0.45863869280049629484352635699906
1.56656248512586038224014828301733
0.35596719475503690865991757164011
-1.77755304824976789745960559230298
0.15645842737147958034782391223416
W:
-0.66533205915475890357413391029695
-1.47090097349598458720265625743195
2.78530994832783074244275667297188
1.19880875426526545268757217854727
-0.09867946462978496868778677253431
-1.61632784395979389735487075085985
-0.05549089083065864708155245921262
0.51316965524022906119938625124632
-1.65571950155624736389370355027495
0.70250155103508171716697461306467
0.65701982271060188622868736274540
-2.92062624411951521352648342144676
