mlp_weights
I:6
J:5
K:2
V:
0.63343014791085150427818462048890
1.22261118909578092583956276939716
-1.82864739358300187888062282581814
2.49438958147307321411290104151703
1.75619783439057797203020072629442
-0.39796247196354189723521699306730
1.01727382120976739265927335509332
3.00031385246188087023710977518931
-0.50148366759031204331620301672956
-0.82069635123661321962629244808340
2.27016300832207384985395037801936
-1.98281253211205954478657531581121
1.80567833555563672653931917011505
0.76467355803167647021467701051733
1.67209297417871005642098225507652
0.71356504503246709347763498954009
0.40656334060939658403555085897096
0.64183974613885375060107207900728
-3.11256147448846220981977239716798
-1.32989542914631986292306464747526
-0.46144218045636786751373392689857
-1.81903199575385698949503421317786
-1.95335881671652100699532184080454
-1.50513256259556915672703780728625
1.09891170497765222613395508233225
0.21358883471477793647430587498093
2.11661728464470888511073098925408
-1.17355827349158992056743500143057
0.46573493711168728603766453488788
1.42684638950541020641082923248177
2.11969163994293596786633315787185
-0.52673957086236689040248393212096
-1.10873506460615556257209846080514
1.78849890990267335055818875844125
-2.04271871594824050433203410648275
W:
-1.62857273970110538741096206649672
2.28440501871957346580188641382847
0.94762044076413465276687020377722
-2.45817482349100169258804271521512
1.60927069682790246929471322800964
0.26770975418036196957771721827157
-1.38123508698501740177277952170698
-1.00379342524066150765804650291102
1.72913445281246924700724321155576
1.17839925782283017063889474229654
1.55598755694243440217405805015005
-1.63191176146279870451394344854634
