mlp_weights
I:6
J:5
K:2
V:
-3.72025958354511310233192489249632
-1.66994437205708234905898734723451
1.45336454428087802348557033838006
-2.11878711922601725703430020075757
0.43401296049900806028887245702208
-1.29680767071350344643576590897283
1.59910728659550072094930328603368
1.62946971716543820285494348354405
1.29958285289746289237200471688993
-0.66315828516784691704089027552982
-1.04285511157933585835166923061479
-0.07505200927281871492446896354522
0.76093810258503091770165838170215
1.81487873268866595211079584260006
0.23599417347577555936766202648869
0.60278591233878797694956119812559
1.77748048331094365970272974664113
1.06088214180016349175161849416327
0.74994383874206727025324425994768
1.66491928000843936175101589469705
0.44122070023158488361048057413427
-1.43628717315025045131449132895796
-0.81661525082602548497590078113717
-0.18292925925791875263470842583047
0.20259838630648713264648108633992
-0.47903608250973844784326161061472
-2.25546177328845631748777122993488
0.24672373549925680213945611285453
0.02513406185771502321379955446901
-0.00818498780694152522352524670168
-0.91748405289215539948344257936697
2.00550983707098406938484913553111
-2.43868141338107324855855040368624
-0.70023503808523424041254656913225
-1.38059794309433070402803878096165
W:
-0.23447338409841833595237403642386
-0.26515585721967321886083368553955
-1.75100985301637979141275991423754
-3.73345624235868678297833866963629
-1.84173647223219871804644753865432
-1.26851779771602468649405182077317
0.18592637271541037624622560997523
0.81383934987910400149502265776391
-1.30380956992213148382120380119886
0.85184515464227039682754138993914
1.22135022307138663144598922372097
-2.76549206891727328283536735398229
