mlp_weights
I:6
J:5
K:2
V:
-3.77703761350370026406153556308709
-1.57315477425543415179731709940825
1.41191392238136725900687906687381
-2.22720550315387644246811760240234
0.38205221951520090817311370301468
-1.33522220979096917226058849337278
1.64242426779309358408909247373231
1.43926544133151668170000903046457
1.47076704453806228478640605317196
-0.57056471848519529910248593296274
-1.24143713033059688299886147433426
-0.28553254288440982344710050711001
0.54081410814621511118360785985715
1.39103357763914114997305659926496
0.08299657605430041384941830528987
0.55103960448297739649348159218789
1.66495541442578431912124869995750
0.96570811467127037897029140367522
0.74106556072934981482802641039598
1.66738333945937289293226513109403
0.36894762280599113779544495628215
-1.40269548219857975723812160140369
-0.68796828215123972949385233732755
-0.27296326937912623877835471830622
0.12460478504087549311840632526582
-0.41161879538531881417284807866963
-1.96763046836271460193756865919568
0.08781835923200885518635772086782
-0.09545741594916079542088027665159
0.12571948126948584434359190709074
-0.98433554034810843980096706218319
1.82312487234993869655852449795930
-2.47083476670971657895847783947829
-0.66667326863666476199909993738402
-1.16122929155476617424369578657206
W:
-0.23128742243627090080515529280092
-0.19339655408987121987252066901419
-1.56631768495748757707985987508437
-3.62805016988894735163739824201912
-1.69579152603194027726374315534486
-1.12992730456172263409087008767528
0.11710446659329910856772727356656
0.67052246446063235030266014291556
-0.96416921805524735678005754380138
0.84914209594479905796049479249632
1.07400170066160716153547127760248
-2.96150989401878472762064120615833
