mlp_weights
I:6
J:5
K:2
V:
0.02270884189479030479397181352397
-0.24601067568964937737341358570120
0.15209465900397323157022810846684
-0.69677408061839696262751431277138
0.08175911406422138594241033615617
0.78252834094378076468245808428037
1.52651586017365104019916088873288
2.29947304393010032441679868497886
-0.00551691637512610570659443709474
0.43308883794322922122788099841273
2.80774754264639048173535229580011
1.58343562020670214351980575884227
-0.99830246203445960340161491330946
0.39492456468710362971208382987243
-0.94857736069005960111155673075700
-0.36918472158552584350132974577718
-2.82745502782006852271479147020727
-2.02608829447614580132608352869283
-0.50332895291512846913661860526190
-1.20643897514563280815025336778490
0.36273401338185468079089446291619
-2.75747496207193076855901381350122
0.56259899179133376900807661513682
-0.55523719443392871575326807942474
1.02415072560545850066660023003351
-0.47149707191031425823624090298836
-2.27220800294714919687066867481917
-1.49373682999360157808155236125458
-4.31248797510049186598735104780644
-2.10181333009357507179970525612589
-0.00768075550239014082087862789194
-0.29956921595968294402823062227981
1.84812283799351484425699254643405
2.18940894457761370262005584663711
-1.24098199116532326158335308718961
W:
2.39375026553901015802239271579310
1.02688068331364568130936731904512
0.10596862246294974641003250326321
-0.74153700700324043371125526391552
-1.83025574340161645281455093936529
-1.44428991682182505940090777585283
0.12106286747040646833983856822670
0.98943400971490014228493237169459
-1.38283911103158652089462066214764
-1.01223136015384085339974262751639
-1.39704823628756558129282439040253
0.35086453919012527968845915893326
