mlp_weights
I:6
J:5
K:2
V:
-0.78974148244668984641947417912888
1.33881347158349717219039121118840
2.37353549614729075756258680485189
0.13703777765920838183077989924641
0.82558491396199062961613890365697
-0.75104684438899937948264096121420
0.93606791400225641819332622617367
-1.70750633723308542499808027059771
-0.04504081286149380636274486278126
3.47662353006913837916158627194818
-0.31372230863090688757210955373012
1.30443505296478234889434588694712
0.36095315892646145927713519085955
-1.04997362550425932248288063419750
-0.03084755324368868706352841968510
-0.68002945324746377764313365332782
-1.18940479098933171719920665054815
0.13368327894506532027563139308768
1.39885135745533384366012796817813
-0.83132075030271057602959672294674
1.24977449369010429336412926204503
0.26747368201192994741077768594550
0.73217301618072661018032931679045
0.29476228474037136084717758421903
0.50355495673036376746978248775122
-0.92524933777234152909585418456118
-1.12987786414088220432461184827844
-1.12270036510905302229446078854380
-1.51498284753889489451239569461904
-1.06503091533713223348911469656741
0.98075253600335021708644944737898
0.36894945267718876058538057804981
0.52796138230385325496030191061436
1.54649915388648162561935350822750
-0.48258923571361839188753606322280
W:
-0.15427805384087472928555939688522
-2.39739366326788161387639775057323
-0.49313599401694224733105897939822
0.63638822994897126239521867319127
0.58283951397797295612690504640341
1.16569596422434962335046293446794
-2.39171771267346322531466284999624
-2.34748723519835467143934693012852
-0.34287876223771479589075283911370
-0.28449992465625417725760826215264
-1.95505434140292133626815029856516
-1.47994334738002986107119340886129
