mlp_weights
I:6
J:5
K:2
V:
0.60242568720803846282763061026344
0.21124943642454746539627308266063
-0.61877358487022393607190906550386
0.67275092645398115731580901410780
-0.28948731657268467198917960558902
0.57462575001666849061621178407222
3.45744587163366512427842280885670
-1.26055965877074682701675101270666
1.37146161204362493357677976746345
0.45678571659004391092295804810419
-0.57889092836308375655818281302345
-1.28189508069410051938064043497434
1.37476454128013836353261467593256
-0.44769528927639279380912284977967
-1.91832768240649786939400200935779
-0.24084219845260868009262367195333
0.32274996458809934729572432843270
0.62565876367623685094798702266417
1.52414733852467820796050546050537
0.70144109883340766131709642650094
0.93524012882516327493931385106407
0.91985421511041953746001809122390
0.08021637035573994656267871050659
1.66283800263364578420066663966281
0.76195987965816236453520104987547
0.66196631179171849801434746041195
-0.51318622496713106606591736635892
0.46980853960042179284783969706041
-0.90774418245174937069918996712659
0.98339253336056464682712885405635
-0.34040172145639430167918249026116
-2.11551684263073358494011699804105
-0.61279206211287828853784276361694
-0.24111357020885754165462344644766
1.27065323027749910167472080502193
W:
-1.27636293437599035449636630801251
-1.19906968910503053393767913803458
-1.17391335350346537325094686821103
0.01787385989642602257543302357590
0.73726291279789379906617341475794
1.26548022195798748334993888420286
1.73490879818813104051855589204933
0.61903687302185694818490446778014
2.20267059823926469874777467339300
-1.08000856944388146096969194331905
-0.19789291137252079666453141726379
-1.63245195698626144320542152854614
