mlp_weights
I:6
J:5
K:2
V:
-0.66912933697061471871592175375554
-3.35704610871414210748753248481080
-2.14594340381577897147735711769201
-0.26139062741054475136337487128912
-0.27204569008110113248477546221693
-1.09029991232894052366475534654455
0.54272114026829754163117058851640
-0.23771055366169163702849687069829
1.62018976775849732341328035545303
1.15777571610245888500401179044275
1.61526837636345343973687249672366
-0.33761341795485688699329784867587
-2.23421017617226835838550869084429
1.00978655366098291068510661716573
-4.12453803102995308904610283207148
-0.36594905587156151272054671608203
-2.74141413026469082936387167137582
0.12957732769092003555222447630513
-0.86644676130879150210972738932469
-0.34946378246156228897234541364014
-1.84893951885238916332809822051786
-1.52701954914706172772298486961517
-1.75521174064706397821566952188732
-0.26786062977815949803783723837114
-0.97874623819171613359202410720172
1.51695805163497454692844712553779
-0.93969621190963670276374841705547
-2.36759544358507900696508841065224
-0.89473480111987990781585722288582
0.20668666178628347651624608261045
-1.14719525696320245877757315611234
-0.88936283026361973025331053577247
1.63106206794767527590295230766060
0.92339533248870098169902576046297
-1.44518232334815444062314782058820
W:
1.80926164276424805699150510918116
-1.77788358077396946299586488748901
-2.76271634538715016304877281072550
-3.12881202661499946415801787225064
0.06149413953115457492915041370907
-0.33538451127346446956067893552245
0.53100986690168106019172000742401
-2.48309723586798547501075518084690
-2.61651247808030174013538271537982
-1.48387569073933622831873435643502
-1.14817690733332256058929488062859
-0.99157889320696712687208673742134
