mlp_weights
I:6
J:5
K:2
V:
-0.68444039216352969834389341485803
-2.34036069108157640528133924817666
0.08175062994531578919321646026219
0.26188093982379512247860020579537
-1.65730228693276826490432540595066
1.08711009586585305441985838115215
0.51242192955638166118603749055183
-0.01345467925193299940644919843180
1.96979620070201066894810537633020
-1.96484860585725251702626792393858
0.79566114338376148218401340272976
-0.40560224671902167514758730249014
-0.13229845418015054314686551606428
-1.09374009124184845553884315449977
2.63084493450127299141172443341929
0.30763935676635267846279475634219
1.50958061615814687073111599602271
-2.03860919630883685726985277142376
-2.37278911064253694718217957415618
-0.13744419661916887354102811968914
-2.17269818651734203385217369941529
2.21311079912375907596810975519475
0.41582543997001836233451399493788
-2.05652980121742068320145335746929
-0.85234457340848990281045871597598
0.15539425116098504187078788163490
2.26375862204006184086324537929613
-2.20176690587467271953414638119284
0.38988923936607688958133621781599
0.96854558308940186250879378349055
1.83956852844895579757178438740084
0.32738260879195490993254225031706
-1.55390679300438594445665785315214
-0.27797615086222554614536761619092
0.03176445569839958515956368501065
W:
-0.39125452587314962782372163019318
-0.47408580533105382226466417705524
2.35227831816009036458581249462441
1.24024290790372737625091303925728
0.17986887005427276697844263253501
1.95874958705752977294878292013891
-0.03410412464829126050203100817271
-0.63898276634205664059606988303130
-2.27227812702350062679101938556414
-1.47023431721087161072603066713782
0.48872272959656859470101153419819
-2.87961053335613392789582576369867
