mlp_weights
I:6
J:5
K:2
V:
-1.00796287845180221331986558652716
1.09504357579822020340998278697953
2.17076837859481308612430439097807
0.08107628789497543786435329593587
0.63719688860658219020649539743317
-0.49252216013289884521952899376629
1.05159799167978618150698366662255
-1.67232271377059737993420185375726
-0.12003692331258236647428816468164
3.06053375660383508716222422663122
-0.54987389425188959446444414425059
1.32458265165226762860584130976349
0.62889521851515484129890865006018
-0.99251117039308267564479137945455
-0.24694382301263703705096475005121
-0.57398388822826640343066628702218
-1.09262186580270559410621444840217
0.57611208077991737930290128133493
1.27230378485080519723737779713701
-0.81309206640641618069054175066412
1.54729325864873579199354480806505
0.46370622230193153656685467467469
0.92379331839994660580117624704144
0.46820182216343553260884391420404
0.35563066420262384736972194332338
-1.03694759931377622486081691022264
-1.27793068436868950676910117181251
-0.86459717401276259263198653570726
-1.18915065232385752658217370480997
-1.07592446994080459532483473594766
0.44834552813723249631294720529695
0.73845205918134826372778434233624
0.82809191066346077292337213293649
1.76854186479176389568124250217807
-0.40090278605265394773482512391638
W:
-0.23396026341490899769226530224842
-2.41322133195887422729697391332593
-0.59795943576471966007801484010997
0.62558662622686800336424539636937
0.83018456131447815327106809490942
1.40141086034851225505803995474707
-2.19769079881619022742711422324646
-2.57650210124917800058597094903234
-0.25763118005410562405543828390364
-0.34668755060949374424694724439178
-1.85904461500646500660138826788170
-1.51145483343548892030128172336845
