mlp_weights
I:6
J:5
K:2
V:
-0.57877922001159065601427755609620
-2.51051875989231820796021565911360
0.27161728089325154478217427822528
-0.03015624038021505817774858826397
-1.49694082867902467093301765999058
1.05264795996022919588597233087057
0.52633635616363438902709503963706
0.42982209864981457680954690658837
1.69907864461192126270816515898332
-2.32750704104400796268237172625959
0.92268537831845731655988629427156
-0.49804281994951549172867544257315
-0.12208079803816954123085736227949
-1.21667172361223840937327622668818
2.61887902484194556862462377466727
-0.19170051717192773677034267620911
1.49967394387671970612530003563734
-2.58440369898065425147137830208521
-2.93920545554388201736628616345115
0.33316614771667785177555742848199
-2.15870618234985389705116176628508
2.23940079597245489395618278649636
0.40243059774056910704587153304601
-1.98980829722819385629861699271714
-0.59268072054730724929072493978310
-0.32574730727724798828859320565243
2.14842593970519191159951333247591
-2.23472032796651021158140792977065
0.19482779124063953624101941386471
0.71733904645550439216350468996097
1.77842755276269182118653588986490
-0.05452731490765276578525089234972
-2.09645539966373650742070822161622
-0.51012043762347758502073702402413
0.39579779604582598917517088921159
W:
-0.82012181915143222976638526233728
-0.20394144055724772179871706612175
2.42853401079659469985472242115065
1.30867468425419319899560832709540
0.36856286889062450651266544809914
1.79805394653947669958427013625624
-0.26092537931392162375843213339977
-0.42706331400645225482293199092965
-2.55480271836394123852187476586550
-1.45589182228586233591727250313852
0.70769161556166726434469183004694
-2.81088941268731229428112783352844
