mlp_weights
I:6
J:5
K:2
V:
0.49343850528148824885477097268449
-0.12965576816962115502818164713972
-0.25066615891061672094508594454965
-0.85769800259268280662183769891271
-0.50852635289778391758375164499739
1.08576137053089705197805869829608
1.42869702163967593477877926488873
2.17076974780031672906943640555255
0.06151302238823178059057283917355
1.05842822249898227404685258079553
2.55709623852883760619647546263877
1.80584646137987281377945691929199
-0.83962591868580971343760666059097
0.08514698774480378151707782308222
-0.76929532547728562974498345283791
-0.49434657360816841586981240652676
-2.83230936152239287650900223525241
-1.93656151500027551293214855832048
0.18556007457551465522627154314250
-1.41003813636010000287512866634643
0.00042253148416705743617427515346
-2.25817392729457377953394825453870
0.67433145040384734336669225740479
-0.26865301700041643861993634345708
0.66782157320889690144127825988107
-0.33202527604634524127646955093951
-2.12808945987776532149382546776906
-1.90934765585419996547500431915978
-3.95214673375794633969348979007918
-2.04754714046114383307894968311302
-0.19559991248581287681673757106182
-0.17996373717048672058460567768634
1.96250893043274721172508634481346
1.85509774305880026368242852186086
-1.56750456953153349815011097234674
W:
2.51145727882176483802822986035608
0.94597883120064407691529595467728
-0.10463181377680758066262001193536
-0.66162271413897633109968410280999
-1.52034430268846598721665941411629
-1.59359308998537341217627272271784
0.26758298515726652855306610945263
0.95905697169048309547179087530822
-1.68415162940652152201437274925411
-0.66273079626002462383382862753933
-1.84793071437243483501333685126156
-0.03685538312013800221755843722349
