mlp_weights
I:6
J:5
K:2
V:
-3.98062710647969808519519574474543
-1.41690449245223204499666280753445
1.39912784194945083449113099050010
-1.99415881750765699997884894401068
-0.17268994048864916290852988822735
-1.30959604824497688468909473158419
1.49498408785771119688945418602088
1.37793152335540614039643969590543
1.26749452519882477297130662918789
-0.86212448619587123133101158600766
-1.05617710062341596533030951832188
-0.28463237174517430627673775234143
0.70304931196925002367947854509111
1.44183566895815440389583272917662
-0.02879703917423062642377828979079
0.37953932871733681020387507487612
1.75271818404819335057709395186976
0.98357823394004062489415218806244
1.02942019666559914092829330911627
1.77609851836032395233644365362125
0.59753835100225805021523228788283
-1.49628786448190753688436416268814
-0.71933248122498150145531781163299
-0.14844916633433105634942705819412
0.25774624305121085487968457528041
-0.26375532170122123476474484959908
-2.09807866317868185745965092792176
0.28296860534628820449398745040526
-0.06127613127351123900599105809306
0.03009764484374859161430748599741
-0.80928205305053346751975595907425
1.95005413410543715357903238327708
-2.15449869908141300456350109016057
-0.53849169006498220912959595807479
-1.17494324585753484591066353459610
W:
-0.12699583825703392170325400911679
-0.13976146003440786946825369341241
-1.75764101952536910822288973577088
-3.75650014202891036063647334231064
-1.80783145251851307122592515952419
-1.02511496583528649573224811319960
0.25254211968634643348252666328335
0.65563003331668645579100029863184
-1.11102732522102076728742758859880
0.75909522271064922005479047584231
1.34139307236949356649802211904898
-2.63289297565466595685279571625870
