mlp_weights
I:6
J:5
K:2
V:
-0.21822095758421566902285348987789
0.38785191629641352362156681010674
-1.53615472690506993380665790027706
1.38672967627604770690652458142722
0.58591523056522876178320302642533
1.95179896879352354766012922482332
0.04749354142749809964962892649964
-1.12696691356654077331711505394196
2.34532650236265016729930721339770
-0.68839420976197585044786819707952
-2.57915453508862801967893574328627
-0.41797825583972636476204343125573
-1.11869976091774980808679629262770
-1.96251779095956635501352138817310
2.34255313204200188437198448809795
-0.53601475660572539538861747132614
-0.71551445659526047293752526456956
-1.44896109188468780182290629454656
-2.10774743066468150942682768800296
0.92598779318488355638550046933233
1.90844032124415186046917369822040
-2.33874671352544627467295867973007
-0.45864058758957054751093096456316
-1.27131547331168071046647582988953
-0.14761292551363264236030659048993
-2.29624488569387974479241165681742
-1.57905190477856316455529395170743
2.17223132836031673775778472190723
-0.03354898795832046004550264228783
-0.00343674300517120973053053489821
3.13191338718044320899025478865951
2.01340554355407741482508754415903
-0.29655803752184611843389916430169
0.33346704714454855622562945427489
-0.20417654452133196518737179303571
W:
-0.17083627107652865628750760151888
0.13154910902380911874587354759569
1.01709226210966585668415973486844
-2.59502159083738481726300051377621
3.16889423700135042238912319589872
0.15968532077672767388598629167973
-1.89731000768288948776785218797158
0.58072948108939348443868766480591
-0.70690877491491221906727560053696
1.15659173254863012481052919611102
0.21031315750867371483501244711078
-2.33977751240077402883343893336132
