mlp_weights
I:6
J:5
K:2
V:
-0.63592492726803695468618116137804
-3.31313101420726496826318907551467
-1.98259592683907870380721760739107
-0.21166746878681114152342956913344
-0.10202914875099590441553942810060
-1.10308150413193595262839608039940
0.64203731882170878009219450177625
-0.35319649852681200830062380191521
1.51114456117434547977040892874356
1.19341975658418864014720384147950
1.70755278234405771797810302814469
-0.27669105375093544507691945000261
-2.17826400833965116987656074343249
1.05052672950474756952132793230703
-4.10626624075137414138225722126663
-0.36239484174661895643509978981456
-2.85391966463393265129866449569818
-0.02803661384267341905029979898245
-0.99964355621476408408909719582880
-0.35237186112728180464870320065529
-2.00059764961815123029964524903335
-1.55223437260136343240901624085382
-1.71427622647208677264529796957504
-0.28026431672458657073931931336119
-0.73206558577663261022649976439425
1.43333804367412032121364973136224
-0.88111772610432659291745949303731
-2.39327571181342646511325256142300
-1.00217350591639875467819820187287
0.13190780001037946678188461646641
-0.99746268288963157999660325003788
-0.79925909888128776614735215844121
1.67677386968954067469894653186202
1.19799897738621075049536557344254
-1.42014344470046927071393838559743
W:
1.95820942024791389002302821609192
-1.63986124047189152364012443285901
-2.65547139487892502884847090172116
-3.27387739901352237126275213086046
0.05570049030178719773331863507337
-0.36219211036144960402793913090136
0.59692566580276706922347784711746
-2.45521426531760900147105530777480
-2.71757468872289420502852408390027
-1.48148246547955064755797138786875
-1.21876032121308042199814281048020
-1.10071883041225260235762561933370
