mlp_weights
I:6
J:5
K:2
V:
0.44434464821516583832305968826404
0.24151888177923697131888047806569
0.60160927195627178498682496865513
-1.36459937430091104992868622503011
-0.32692413220190963407674189511454
0.12303161176428262235660326950892
3.03054659121393710208280936058145
2.26538569950477342018757553887554
0.03160319237975739437018773969612
0.91262686754015442947007841212326
0.68594138081358446701329967254424
1.09568950872381298822233475220855
-2.51460792600786398054424353176728
-0.17158362003730920353206101935939
-0.80718905900076687309763201483293
0.06754782273534049030772052901739
-1.52259375765998239415921489126049
0.80017741317235946407748770070611
1.76896123819708628310820586193586
-2.29941099610252130958087946055457
1.68097825861553484827481952379458
2.08444610607005387237222748808563
1.31338351119601881578091706614941
2.00496154901299439288209214282688
-1.09910072529416202868901564215776
-0.16115716241312108558680904479843
-0.27041323749976342583067889790982
-0.79865423377492128498289503113483
-2.33444075822132868225367019476835
-0.65665245724318943576491847124998
-4.20040967405995324668310786364600
-0.32463880793462329688026102303411
-0.53260505798716795133884716051398
-1.47106356778292379772210551891476
0.89752920408199243773594844242325
W:
0.69632683699807607080600746485288
1.62180111490988565492443740367889
2.31954711951480652132318027724978
2.39760060667837482384356917464174
-1.44496283552250814885553609201452
-3.32445148847263416413966297113802
-0.98951688214055177894579173880629
-1.08827636858151155507812291034497
-2.50045049174094469179863153840415
1.24291339790350408023300587956328
0.53291777236870352396636008052155
-0.97407500039542660452696054562693
