mlp_weights
I:6
J:5
K:2
V:
0.78358771299718243952270313457120
0.33491209890709372487549444485921
-0.66408684090648373299359263910446
0.61832180947065928933170653181151
-0.36555514985327175470075644625467
0.45563248348236873308536587501294
3.46141365069948214738815295277163
-1.29790007307866184227407302387292
1.18493831783753456043939422670519
0.55649801334393189655713740648935
-0.61362691300872929112131259898888
-1.20180423862131546819398408842972
1.29844628992136290612791071907850
-0.49669049627331440799338224678650
-1.92153460740798842643073385261232
-0.09349526572075451957832825655714
0.51856047147877681879890587879345
0.82597530486674530791901815973688
1.42817727842886998956828392692842
0.88879979212010951084010912381927
0.95411424372104791657989153463859
0.80899459338785606465904720607796
0.02080179399940210172026411328261
1.65375846838572093666641649178928
0.79595641950162920874589644881780
0.65313508226781435972441158810398
-0.51357401553103476654627002062625
0.58771102655213047771809442565427
-0.88919049053440812890869437978836
0.97095296615102533177577015521820
-0.29552034751498312825646053170203
-1.88943159220707945777917302621063
-0.38938786310060502504626356312656
-0.10368559826425388648019065840344
1.22289671515604858598180726403370
W:
-1.25255099096560207350137261528289
-1.05233699690535753568099153199000
-1.15360231267378487984842649893835
0.12221937671943883252367868408328
0.65992714877626978964286763584823
1.23666955170039583045138442685129
1.75754551417454907280557563353796
0.86261583916096662427719365950907
2.30312202237280727601387297909241
-1.15430479054218326773195713030873
-0.30322950971635820316407716745744
-1.48934788839356935241653445700649
