mlp_weights
I:6
J:5
K:2
V:
0.83846787472640094129872068151599
0.02572361219640086071880347162733
-0.83714087410436688330150900583249
0.63608778759885964415587977782707
-0.33376183902885425691664522673818
0.12586881216787171311466408951674
3.40473300279432589121597629855387
-1.38688349235920282964684702164959
0.98468128727321979631881276873173
0.72360946308960538697618858350324
-0.56185987555684846483927685767412
-1.24975005694884999662974678358296
1.22452051005281536966151634260314
-0.61437874734545150356979092975962
-1.64367939023420062127911478455644
-0.21326970437928552404294180178113
0.60449958630848477092456505488371
0.74932086229226391171920340639190
1.16587328784311106133486646285746
1.06218627243066943144356173434062
0.86192563910885966471653318876633
0.75621176751291341311400628910633
-0.24945039459478782206680591571057
1.75655467921060615132944349170430
1.10401757632142860643398307729512
0.76782602618283279927169360234984
-0.35271910391986915911388678068761
0.66228884426870815449461815660470
-0.73580536159580334221175235143164
0.89720360709414370692371676341281
-0.33285316028601397153607877044124
-1.98522699741389674343849947035778
-0.50372875868661470821763259664294
-0.12726268574266080824131108784059
1.11446910550356248492676058958750
W:
-1.15999258108236258379974970011972
-1.01884297669130363672707062505651
-1.16603918672733586348044809710700
0.15271097728234367396638049285684
0.59514144099448285096798372251214
1.18549425758477688930270232958719
1.64949541434900148750841708533699
0.89673238472116756359042710755602
2.28655468261552652364798632333986
-1.35914982109038673385725815023761
-0.31911364367350891768637666245922
-1.17628892164737730574586294096662
