mlp_weights
I:6
J:5
K:2
V:
-0.77275723213226843455458947573788
1.27835650493553942830260439222911
2.35025899198056897887454397277907
0.06046043157973277071270956639637
0.80555634028838551952134139355621
-0.74255514941243805360215901600895
0.79530526040370308482607697442290
-1.61000927172808783183199921040796
-0.12883525870621048703412725444650
3.33621212683244783292479951342102
-0.35579692094244652622592184343375
1.32487475189860393065544030832825
0.37437857187008333204047971776163
-1.19044854888011997218200122006238
-0.07357184968793945012421886531229
-0.41805671496051211022404459072277
-1.18025352004975414565990377013804
0.16373669123017475790504704491468
1.34416287759575481253193629527232
-0.80176766155334744379246103562764
1.26124778290206540631857023981865
0.26924601052921259825012612054707
0.77006355061373199522023469398846
0.36483296633975986766884602729988
0.48780992489558194780130406797980
-0.84142652603149958867589930378017
-1.07831471518981225621303110528970
-1.08666290245158991822904681612272
-1.39608050085317403343765363388229
-1.07881860625375525231106621504296
0.90205990112773870581719393157982
0.55437307649215472604709020743030
0.47454209227679927662890690953645
1.57109558468933241393017397058429
-0.49022744170428755872137571714120
W:
-0.20729878303438772912947740678646
-2.39099620177904714779515416012146
-0.51156236712961300483470949984621
0.72909976386981145690668881798047
0.65920640477984449034920544363558
1.31084353298895406325641488365363
-2.37402580278752850517776096239686
-2.36317173998015483959989069262519
-0.31490872788760121414597392686119
-0.35765958545008691427113944882876
-1.94725030687239897275730982073583
-1.48180274992223148800007948011626
