mlp_weights
I:6
J:5
K:2
V:
-0.04840856533898357794143407772935
0.08163097279502930236905200445108
1.93395276045501773864998540375382
-0.29665712770192714797801158965740
1.37625056026167214007216443860671
-0.97501374767456927550313139363425
1.28782954551703232581871816364583
0.05459256994227135867392419754651
-0.11500211180583880254957307442965
1.27945945850822839773286432318855
0.54001727754840767037336490830057
0.79907574176275475430486494587967
0.53990475729048026387602021713974
-1.51755627400323778175561528769322
1.01385916677946319452985335374251
-0.53657495640403918280014750052942
0.07815946684009481004729025244160
0.13617635777158623722193908633926
-1.64787213217969719103450643160613
0.21121506719992899636650918182568
0.08125788564005612113483323355467
-1.11083870109149085436683890293352
-0.22483741610682372868978973201592
-1.53768190663131965045806737180101
-0.67069706349985169779870375350583
-0.56427014129478980652976360943285
-0.77381113799619316573341620824067
1.01641751551785897156321425427450
0.76077721843620660369111874388182
1.53546969317405657129427254403709
0.01323790247728412472483228157216
0.03450946089136044947487391709728
0.60331005710656226970201032600016
-1.10857320758313604436295918276301
0.60047453289678209831237154503469
W:
1.65548954941877068947064799431246
-0.29490821833182134792394890610012
1.58265683026917969300484401173890
-2.63121215532170316109272789617535
1.31945300412914923171570080739912
-0.13714966538380474192493352347810
-0.06151396702633500634949115237760
1.66855076996773044051280976418639
-1.30374089963065342701042936823796
-0.09985433239675872707508119674458
0.91791711532030917375379885925213
-1.55996324504102501506963562860619
