mlp_weights
I:6
J:5
K:2
V:
0.55854902830599739704808825990767
-0.13289971451254967149679941940121
0.66780748759564245720099506797851
-1.29503564399775261684055749356048
-0.34198642191955402891423432265583
0.36983306400516813283729788963683
3.10443070431936485320534302445594
2.13415075230642869996700028423220
-0.06949361769907833052961620978749
0.67724178617920860467904731194722
0.82405478477748705934402551065432
0.92050519020330157093923162392457
-2.33685834353623844705793999310117
-0.22430596595576723917275785424863
-0.96379251858960146570609595073620
0.11136224959425893021869313770367
-0.93322365526632122811889757940662
1.04861308684233178745159875688842
1.78723096505173506542973882460501
-2.60091786288881232636072127206717
1.35429647977436395933636958943680
2.03272378398852149317121984495316
1.03049854528563611388847220950993
1.63486494848740204766102124267491
-0.53375482062398516003298709620140
-0.38538493541276525045091716492607
-0.21346477095697335979451736420742
-1.29138226322583160587953443609877
-2.07786221662788239683550273184665
-0.53794313800229243138772972088191
-4.05331830228646161629058042308316
-0.37220564832357755369329765926523
-0.33460091486393017667921867541736
-1.73306568287162909847154423914617
0.75066625297642852743251751235221
W:
1.08687234581509173381164146121591
1.78327821129275809752812165243085
2.72549073700219635085773006721865
2.20098724991284289131954210461117
-1.30109937088376881320073152892292
-3.19260450770186476887602111673914
-0.97340490739619256466141905548284
-1.19152755533097409745835193461971
-2.55026123809964877509059988369700
0.63704911775290207209820891876006
0.23263597681173397990761486653355
-0.82646444170045429977733419946162
