mlp_weights
I:6
J:5
K:2
V:
-3.37718875715460553621483086317312
-1.64784925555483141579315997660160
1.52447257721650730744045176834334
-2.09298920488813688933760204236023
0.73059153746332361478721395542379
-1.22498197303678635350365766498726
1.57727515364321257962387790030334
1.28241087883975635186573072132887
1.61676537156660171667965641972842
-0.63306312441995626905111294036033
-1.23002446689727751305554193095304
-0.39448787094757714610793186693627
0.65894640099176748915255075189634
1.79767532137263796876425203663530
0.14891588758953980264898575569532
0.76875182871900249459429232956609
1.51934536930006047761310128407786
0.66081507199678635178230479141348
0.91945575955990477279300421287189
1.61695334267933410465900578856235
0.19982522000701535835887057146465
-1.40764790326297739575522882660152
-0.60688587326093046403485686823842
-0.45398723717924188703065624395094
0.04558172423245018811677198300458
-0.20319515598345480600350754230021
-2.03311439883189049027123473933898
0.02069766574317022378437513907556
0.06966518539044716518127131621441
-0.08446276110237521672630123248382
-1.28939533779796988710586447268724
1.77736798258544093087607507186476
-2.65037955268084957083374320063740
-0.40253375270716301725926200560934
-1.41998721225210666752047927730018
W:
-0.28084589314741958965271351189585
-0.19309121171726348342723156292777
-1.80165282305335794355016787449131
-4.01472669078634059047772097983398
-1.76512892854512437601499641459668
-1.01928393190734123407992228749208
0.08994039961638079783146082490930
0.75539740557544965415814886000589
-0.77565629066268049207621970708715
0.84338088566699687120831185893621
1.23179483933918887395009278407088
-2.95514116206479648951699346071109
