mlp_weights
I:6
J:5
K:2
V:
0.03760824999102502924630542224804
0.42461368022919765419231907799258
-1.46273182598862305781040049623698
1.27008746527651639190992227668175
0.29207666341871424409148971790273
1.44272337732775790541950300394092
0.51401041494399313247498639611877
-0.84324957948710854704899020362063
2.42099113832967383075356337940320
-0.83897056066825237419237737412914
-2.31812692060554415007800344028510
-0.70202809980844604886840443214169
-1.62841286556335251844984668423422
-1.88162153263316267448601593059720
2.50249172652074935996324711595662
-0.82313869426744346036173283209791
-0.59730510651435753111115900537698
-1.75165968758871137822552555007860
-2.72234683651526987446800376346800
1.30903629683139310913020381121896
1.42126328791041611765422203461640
-2.23257956996011230899057409260422
-0.27108179019566924772277616284555
-1.52814695629226005024747792049311
0.35813142492821414819559322495479
-1.93425408049434377488751124474220
-1.34861662887597222315605449693976
1.25817934714805645946000822732458
-0.38160741853128321565691294381395
-0.57224305288893262400051753502339
3.17440105371723513272286254505161
2.09614194710241630303926285705529
0.10227092937060107413760334793551
-0.34395532507096054919415450967790
-0.38309669534542978297508852847386
W:
-0.46146274482166627084467336317175
0.31826667861081614496754355059238
0.97355981620185205738238209960400
-2.12665638291006375837355335534085
2.58356580133774116347922245040536
-0.27776069626159194392300832987530
-2.00095079041859058577301766490564
0.54712220902005936906675742648076
-0.69782691568409926929916764493100
0.96540579478833921100999759801198
0.20372160168190522888664872880327
-1.95378838999931692121947435225593
