mlp_weights
I:6
J:5
K:2
V:
-1.89148133142038132881168621679535
-0.41620349228426861687424320734863
3.09146349408202292252667575667147
0.01718116633503483786649113085332
0.03727961915629740552446946821874
-0.17189852148540069043392009007221
-0.97546944690518111453769733998342
-1.25039493372352006339554009173298
-0.90566914581055335542458806230570
1.02457289694485176312355179106817
-0.36242085634873288935153823331348
-0.83434660286147244168120096219354
0.78106145012684025097371431911597
-2.64626453214116041934289569326211
2.48516889765385107224915373080876
0.31945374165335754801375856004597
-0.07654059656563935720718916400074
-0.19690056089511992487572911159077
0.22701879955421111478841567077325
2.78948550635655445617544501146767
-0.78102787608448365208602126585902
0.34320959822931590421646319555293
-0.45994846425877267126480774095398
-2.29335781500064506133185204816982
-0.45675629459020855582807030259573
0.57880460925055132737071517112781
-1.67795563619992593729079999320675
-0.91535536129436778640666716455598
-0.42529672920006639236234491363575
1.87788631158702346013456008222420
0.49810475082522276402130501082866
1.62608668946716994341272766178008
0.23109161282222717703760395124846
-1.30593969532852582915438688360155
0.09005165285268226793569112942350
W:
-0.72717431924628028738766261085402
-1.72634206339685269959716151788598
2.77879007003459799207689684408251
0.98612986535468882820509861630853
0.02532500297202958106090875389782
-1.61162183654351620631928199145477
-0.17400914850715809567560654613771
0.52173825857439903863621566415532
-1.53939484061824782834548841492506
0.82207357455321261596736803767271
0.55076222627649584762110634983401
-2.97064535372354487918755694408901
