mlp_weights
I:6
J:5
K:2
V:
1.14295047824944151493298249988584
1.04515200983051381733446305588586
-2.36744673955684259425424897926860
2.77507429907590275064421803108416
2.15995849094484793084802731755190
-0.22295262205813098921325376977620
0.53863706666837518621804292706656
3.53324541046456896964400584693067
0.23161582013379194977531483345956
-0.54950705430547663876694741702522
2.63136769448256213621561983018182
-2.19738477779102403530941955978051
2.07286871727172039570064043800812
0.48070238909123580439697320798587
1.57101624372092052439597864577081
0.97521376355135380720184912206605
0.10235915254121449868840443286899
0.69644462739038148768599967297632
-2.84962383770220517575921803654637
-1.37297019031208056283333007741021
-0.44201909280949780445268970652251
-1.93469935740307752425337639579084
-2.49155498577994238829091955267359
-1.66333599118158437235592828074005
1.07125150634747989819572921987856
-0.13630070226952042955481658736971
2.03659005540920379218050584313460
-0.98242739325545236361847400985425
0.72613340719312047255584730010014
1.99697377525747676862977186829085
2.05479988179708650264387870265637
-0.51021827436177935588546006329125
-1.28663731895962829554491690942086
1.63515268878275366049024341918994
-2.25999031669915062536801997339353
W:
-1.58708558640256836014259533840232
2.46758155400956713521054552984424
0.52765354152009391608402211204520
-2.29938314129750054348733101505786
1.43664301772214364483204462885624
-0.08860097774629865918782911649032
-1.69774096332673551934533406893024
-0.70689739432727372037135182836209
1.66058671304349103614583782473346
0.86637554876582656415706651387154
1.16170551831136736886662674805848
-1.71777847746304734855016249639448
