mlp_weights
I:6
J:5
K:2
V:
0.55669218885507221195041438477347
0.88481770691266703465771570336074
-1.84558555319069461653214148100233
2.73126132834779733471464169269893
1.58217167193859387097631952201482
-0.18721722306043089845140059424011
1.01865689881949461614851770718815
3.61537667103427162729190058598761
-0.10588720397404595419121875465862
-1.35624909327951348458896063675638
2.58108357156025736145465998561122
-1.89351249880119421042934391152812
2.16612892353218811081205785740167
0.30635724585340662340371409300133
1.68322824139857774028428138990421
0.72092625652499819910445921777864
0.49166997087965946811038975283736
0.45813847899671100716290084164939
-3.38402648173308273626957998203579
-1.46660211248664751337855705060065
-0.47354386665637399067563251264801
-2.19203460321184140369155102234799
-1.87540312941853781758538843860151
-1.63924240674757548674733698135242
1.61701691091679755629684223094955
0.25529169398090084674990407620498
2.47852096158498680367188171658199
-0.97181749591556720879736985807540
0.30088435739270824598179387976415
2.10043399217102999543271835136693
1.98574273019047753408017342735548
-0.50500839718473922168584522296442
-1.27238194377668967227634766459232
1.64989085994791850886542761145392
-2.22930793784502512266953999642283
W:
-1.54887731638364911646021937485784
2.39966367893998899774032906861976
0.64703841212844814823057504327153
-2.21108089513901706624210419249721
1.38326210594536380682484377757646
0.77733590952103581717125280192704
-1.46879876724437896662323055352317
-0.66283958923407793051296721387189
1.71954107955985691091882472392172
1.07901810465579650610834505641833
1.41731857028359242711701426742366
-1.78043115265810314440386719070375
