mlp_weights
I:6
J:5
K:2
V:
0.47992375565476125265362838945293
0.32978740298089037619178043314605
0.51682652296762110477601481761667
-1.31461879495483535684741127624875
-0.24689091402307816736083623254672
-0.01959794140250682714654573146618
3.16511791960689325975408792146482
1.96886746633874021306098711647792
-0.06618621951704713179953643020781
1.28475108964173112546802713040961
0.78268610283824879836345189687563
0.75810757838012932108284758214722
-2.02430423800645398202391334052663
-0.34429073401745291516107272400404
-0.55930939923449463080373789125588
0.30550252161465152322961102981935
-1.48583882691084090410527096537407
1.01425302779383041951177801820450
1.63056467193143816984957084059715
-2.27187086249877356891602175892331
1.49545226216105109351417468133150
2.12729785074142752065995409793686
1.37898257695897230590276194561739
1.46709119795447562317747269844403
-0.99761490816254572155941104938393
-0.08681091604163962416329525240144
-0.12642248987483939437481694767484
-0.96514475552789580348189701908268
-2.38450054096005148451808963727672
-1.04353339535331302023735133843729
-4.03232179031881798891845392063260
-0.08718863966136286558494816745224
-0.45184555359774863925181875856651
-1.66264246389534497971851578768110
0.89158843082896255261005080683390
W:
0.76058282408833799426162158852094
1.52924324068680994592739352810895
2.27511504846401235724329126242083
2.30143707867804447886328489403240
-1.67995631450720406263599215890281
-3.69422314810141028118550821091048
-1.02216597685066901135542138945311
-1.31874219290244520941257633239729
-2.48993167387565250692205154336989
1.17352343358306798748458277259488
0.76923749657319517858411472843727
-0.83623904466628695697494322303100
