mlp_weights
I:6
J:5
K:2
V:
-0.72241838956323189968600217980566
-3.44551749447874211540465694270097
-2.07986081609929618352339275588747
-0.19199398499873868151333056175645
-0.05210138034769791481881640038409
-1.13842681603572759563292038365034
0.58134669303543184959437439829344
-0.31682621313388154016266184953565
1.53944142581207055187064725032542
1.25019787454791075909099618002074
1.83678994967391018278135561558884
-0.37059514451457981065729541114706
-2.13015779348295053452488900802564
0.96428772675262641733695545553928
-4.03427756345046528707598554319702
-0.36897389339913011507832152346964
-2.98507588900921705388213922560681
-0.08600244488614545990134985231634
-0.91804081674048254591014028846985
-0.28432062892434850631673270981992
-1.86618404128874870728793666785350
-1.46369512637316212533278303453699
-1.73926588291021322341123322985368
-0.18091843381006642021979757828376
-0.65638405823212209178052489733091
1.66049409334091446766024091630243
-0.84502443144223371440659775544191
-2.49550599953259588659193468629383
-1.02926756646877293199793257372221
0.14296717524616534000792000824731
-0.94870773229531812908987831178820
-0.80110459499200981081656891547027
1.67645240275988571809762106568087
1.18347510742369554925801367062377
-1.34463458757465836868050246266648
W:
2.04381198134014940848146579810418
-1.71004525694022468940147518878803
-2.70610325969684950564442260656506
-3.46653019167080111984091672638897
0.00146316538192666628637184089712
-0.33898616085147076359973539183557
0.49191309230902247051631093199831
-2.41983868265204904446363798342645
-2.73660533102359027068928298831452
-1.43931143688729190621700126939686
-1.06644461719032457303057981334860
-0.98407891870172270465388919546967
