mlp_weights
I:6
J:5
K:2
V:
0.56645413164945013217987934694975
-3.35249184675067901650891144527122
0.11326722961444805892750053999407
-1.25990449917029612159069529297994
-2.05286774936417071302230397122912
-1.58799829139217951734508460504003
-0.11372244621571842015939068915031
0.51926727787460635887839544011513
-2.47574649205715857647192024160177
0.42468907816080087025412126422452
-0.73076146485510329320334221847588
1.66618106786785524775496014626697
-1.44557966521083702815531069063582
-0.25461505702013698115848683301010
-0.63163454774439564687327219871804
0.60145463812126731539819957106374
2.15511379745509890071275549416896
-1.19623079371935880921284933720017
-1.63404160413136012586221568199107
-0.30718793979551439754516195534961
1.96807584316797168355606117984280
2.75271804583323786985715742048342
0.73920243577600930340310014798888
-0.85520176459417307501809091263567
0.02251241172061569512097278789042
0.03778504323929292307848726295560
0.88696678621492064387155096483184
1.00350239703354904285959037224529
1.38736525737424476467651857092278
-0.62332473643210639657752381026512
0.69884090646310426109266700223088
2.64790500423138874808159926033113
-0.13541305664742156467106326545036
-2.23030428715244033455178396252450
-0.46657868216779840864205652906094
W:
1.10813794513492624993489243934164
-0.40675618751022263319683247573266
1.33815756057041035376187210204080
3.12550668040171908401703149138484
0.80076972799056689300556399757625
-0.51115142424573434265511195917497
-2.11125055091424851383408167748712
1.72173989130988069895522585284198
-0.32683348581374888075501417006308
1.07655812453080201862576359417289
1.48585956267381313899988981575007
-0.83727200741977914066893617928145
