mlp_weights
I:6
J:5
K:2
V:
0.08051482480772878536079417699511
0.09576582160429268630874588552615
1.93665989498007573565985239838483
-0.24774560672984249909411857970554
1.44915807744292446379574812453939
-1.21181697720179371025039927189937
1.44140142463133669181729601405095
0.04975466327170822988801290875926
-0.55729058060195302282124885095982
1.33608826901200417047732571518281
0.85608768408071322930652513605310
0.86974079147297156389129213494016
0.67463913872335767862864486232866
-1.36094966616822610205872479127720
0.95671068095467559633249265971244
-0.65215183454183112132795940851793
0.12275432132029079346224875735061
0.18642401969262151206763178379333
-1.76804900491938443707340411492623
0.30777351251381712682331226460519
0.01547762552012011891267029284336
-1.17585207854806239602396544796648
-0.06441326493102905725862683539162
-1.64972244373889220803164334938629
-0.79777547955196836948488225971232
-0.51355063312217130722103775042342
-0.38449370928671788849584345371113
1.40752249727323452965777050849283
1.09312372411866265409230436489452
1.84936720104895435667913261568174
-0.05136557616008208260183209858951
-0.05574009116044102013498573455763
0.63652075128389262737016451865202
-1.20897121881057101333567516121548
0.42331108005670087246485877585656
W:
1.95862582618947622670191321958555
0.12189947051314234394148172668793
1.48375595829166018191358489275444
-2.78233120057930749524643943004776
1.42491122390736868474903076275950
-0.08431860583475998816016527825923
-0.14568054679165692855136171601771
1.70807329893088599703787622274831
-1.47067953231846137995830758882221
0.04293944252726551030763246785682
1.08013560356159232789252655493328
-1.39097831181641184983277526043821
