mlp_weights
I:6
J:5
K:2
V:
-0.10507301805950675088752177543938
0.35588763027963549179233382346865
-1.42591130305327329352849119459279
1.30606931180473351261639436415862
0.47280859926684093430537814128911
2.02298058412917436399425241688732
0.00053016813044237665053515229374
-0.91578970891858046954325800470542
2.38985884096795109243771548790392
-0.63412082159558558203116263030097
-2.53042103281356434152371548407245
-0.35633529883388992409720685827779
-1.03502613592601577785501376638422
-1.84661840305449986843200349539984
2.45311084740168761086920312664006
-0.74813846226840807762670237934799
-0.75445598259387347539473012147937
-1.55116050473574795809383886080468
-2.26942635600906017501188216556329
0.85056527230339473710785114235478
1.88673333937831566586851295141969
-2.24057876286993984393802747945301
-0.43924939493897635633956610945461
-1.38562146879768577356628611596534
-0.23974266601928312381275532061409
-2.29362898645210577797115547582507
-1.54316764001505091208343856123975
2.10175305617946728276024259685073
-0.07357073668829872126195823511807
-0.04315401698485923226433769173127
3.19127836945450571448645860073157
1.97091607003706670298015524167567
-0.22959122003833945524498005852365
0.13382217711636959500687282798026
-0.21547595550174719614133778122778
W:
-0.08569415446599659702542339800857
0.09525301785221843009487940889812
0.90045573854271776514934799706680
-2.50933689011790184153483096451964
3.05678963453690011320418307150248
0.03753131363134186437857664486728
-1.85721220525195440664845136780059
0.54042283897393772473805029221694
-0.63295706696905873478442572377389
1.09714391056849103200931949686492
0.25839262237766869034771843871567
-2.37679936031364968940238213690463
