mlp_weights
I:6
J:5
K:2
V:
-3.46149916853740524658178401296027
-1.48987236445780246718584294285392
1.49502476401767370184359151608078
-1.82155093076683449737629416631535
0.53136690899068328430843166643172
-1.24947034243171040124309456587071
1.79870437867757537730994954472408
1.41003636804538112770046609512065
1.58304434971072427451588282565353
-0.68111928440257407668667610778357
-1.09182156179021938591233720217133
-0.37720235920892569714268915959110
0.66838663805983977717062316514784
1.69330361742110224732016376947286
0.22586343721147633667456489092729
0.75037055570351351985181054260465
1.92880314176661071812191039498430
0.68526720930435713885486848084838
0.89304100479054260297573364368873
1.52793792228201374960860903229332
0.12235627113243011110377267414151
-1.35905410378000301996337384480285
-0.76568655994028578248844496556558
-0.15665860159645370042191814263788
0.17095153307742894099874320090748
-0.45686171721858659378057154754060
-2.08516083902745119615929070278071
0.28849415295769514910872999280400
0.00626082525984469895341533174360
-0.22005312740056054421344811089511
-0.98228913891134739255761587628513
1.76588198356601600025328480114695
-2.68524175719367041992313716036733
-0.60636390580626065016645043215249
-1.40726364275351012445014475815697
W:
-0.28852290580507455874936795225949
-0.05096805379705900140852037338846
-1.83606637439743058948238285665866
-3.86168255628519396793763007735834
-1.81842341801974116677342863113154
-1.26183466503624219789969629346160
0.34010915185747508937552652241720
0.68347084323872620004181044350844
-1.02653922168523248359406352392398
0.88424561141822011212099141630461
1.25261131266605740819386483053677
-2.65454660424102417692893141065724
