mlp_weights
I:6
J:5
K:2
V:
-0.81253392246459510417366800538730
1.44571392328950310002255719155073
2.25021136378701891445075489173178
0.14490449574054523051991338888911
0.78197797364367527261919121883693
-0.57274919298619009211392949509900
0.82202806821063734155075053422479
-1.65315267519720632272139937413158
-0.16203052997551103953099982390995
3.13135198961534033657017062068917
-0.31104048159403457907146162142453
1.34794081261258913428946470958181
0.29700861749767126784860238331021
-1.15445174649517134923826233716682
0.09507249663998926236807562872855
-0.51356373493116558304194541051402
-1.15291161055894697540225024567917
0.20847445602313158241614132748509
1.39629449546191208852974341425579
-0.80093321631825109552238473042962
1.15448899658147463576085556269391
0.11974633107971849321771173890738
1.06970645804149633306678879307583
0.43489294565840996842354115869966
0.40734889091123815951789310929598
-1.00378915180646299809552601800533
-0.98281595159964296737342692722450
-1.11380099696910828122042858012719
-1.38340294297438171078340474196011
-1.13842065296865291301742217910942
0.88723303379755491526736932428321
0.45427666023656382288109512046503
0.38694393011925454217703190806787
1.52527944690977146358079608035041
-0.53912935771901970838371198624372
W:
-0.29825366399952057960831552918535
-2.39212179029204818903053819667548
-0.57829745531186227402997701574350
0.73316991820558408132768590803607
0.76147472649141390022009545646142
1.35891193968988965856681261357153
-2.40230330097171052017301917658187
-2.58653748513218495475030067609623
-0.40207656054865059669367610695190
-0.51256729139143697437930313753895
-2.07671523688541093122239544754848
-1.64806271600391252007966613746248
