mlp_weights
I:6
J:5
K:2
V:
-1.52698643734766603685670816048514
-0.52246794412213282132739777807728
3.01501759335840313624998998420779
0.50986822184036251215388801938388
0.23388883265386903320681710738427
-0.08764458116880692595263013799922
-0.33592990638201103426041527200141
-1.30482292082503215091549009230221
-1.10826005228975588146056452387711
0.86486973218850271560853570917971
-0.32319448050352467260992739284120
-1.26559150053236968425096620194381
0.76609163717885175870492275862489
-2.42687881686118167579024884616956
2.51476989230706715616747715102974
0.58074571611734016052253082307288
0.04118478249384320555304128674834
0.09831527643616719269736847763852
0.15457288467295857148364746080915
2.75165531845401201138656688272022
-1.05454051076343624515629926463589
0.50951373351511586307083234714810
-0.25987278163683402709693837095983
-2.08038444914399489604761583905201
-0.93708049153899153349556172543089
0.72726145593527735666583566853660
-1.47216425982966647723060304997489
-1.32799408167328913954463587288046
-0.85581595310697911038744223333197
2.27499824879084044937371800187975
0.73698426624690105413151286484208
1.40383332470324395657712557294872
0.54140282728889999042110048321774
-1.91831796919376684762426066299668
-0.09831124587768153011424487885961
W:
-0.94101088988604941754090305039426
-1.18469332202958743671672436903464
2.66394789093924888589981492259540
1.04120521627767415040466403297614
0.00757939769881305069887389436190
-1.61558066913154729782320373487892
0.09912576805707309923754166902654
0.49722234980398710701976483505860
-1.91941035049336483631066130328691
0.88119666757057180106471605540719
0.30480567254993895520698288237327
-2.90129047777745574521190974337514
