mlp_weights
I:6
J:5
K:2
V:
-0.02855977260309265630677799663317
0.10277931010567215031059618013387
1.86543484826608674254089237365406
-0.37440878305018948646321064188669
1.32686245708866934478464827407151
-1.00640411064602708357540450379020
1.25762584148241884918206778820604
-0.00214704836936406573411062481682
-0.34864999777956517945654013601597
1.31744919877028521248973902402213
0.64543202873571037248012771669892
0.76253357812324695785832773253787
0.45071020970370156977224951333483
-1.52531142609250691677402755885851
1.01534609438989109619910777837504
-0.65604939189376243469098426430719
0.22468873325884219926962259705761
0.15505883376412027407909022258536
-1.58249670405889419910749893460888
0.13436621834319908974642032717384
-0.02097865140825005969560379526229
-1.18003100803229843407393673260231
-0.08495618522985415310699863766786
-1.55213804892422957415476503229002
-0.68243529508014055817710641349549
-0.72258194084389437694682101209764
-0.59413984796825092260519340925384
1.24862631520490707792703233280918
0.78424675041362124083832441101549
1.61951049225078969051594413031125
0.00236817079982518108316469351848
-0.04548501120163953026498404597078
0.69128871266434988029914165963419
-1.22880112734923985229329446156044
0.58866073619497416569146253095823
W:
1.80067966956422176316721106559271
-0.16413840279670133259770636868780
1.63967753096476154262006730277790
-2.72986519289968043722183210775256
1.39492233911165741666593476111302
-0.13673679082679573992820110106550
-0.00999533911305237887656716111451
1.63151866226797559455974351294572
-1.39762090306903807856997445924208
0.03973977919403749031745931574733
1.00304323450322607769180649484042
-1.47405255746195740229609327798244
