mlp_weights
I:6
J:5
K:2
V:
0.58829405096950282416656818895717
-3.70026356090566244105843907163944
0.50020049181585601871802282403223
-1.27652600227482837524917158589233
-2.03088968270831582429991613025777
-1.55358912880150001889489885797957
-0.37046957140326586266354524923372
0.43429491778077011776559857025859
-1.58631885247403880967453915218357
0.68840435323074711249091706122272
-1.06496467394732552413927351153689
2.05551605191204656009063000965398
-0.91695324616560702768452983946190
-0.60500294420146627505374681277317
-0.76149669999260871655621940590208
0.85285418210316332743303746610763
1.98706585836331495187323525897227
-1.07539669486472577730751254421193
-1.69954179917009717826203996082768
-0.29617116194566667219945088618260
1.56994120926732017018423448462272
2.66517587699596258943302018451504
0.50207155371560319156998275502701
-0.73683279846392113476838403585134
0.16064717543213644090904779204720
0.02920776820142600982421754451934
0.81158413448621680164052349937265
1.82377964403328429732198401325149
0.84221603813561285445388193693361
-0.54989509236835087957473433561972
0.51019903269816935242886302148690
2.32860667187541103828607447212562
-0.24074189980634860819286302557884
-2.47674849356681692214010581665207
-0.58540083615811933093198149435921
W:
0.96006046946025758170861763574067
-0.64371233454063370160724844026845
1.13602798440096797172316200885689
3.03853850818905080188869760604575
0.62357193220709095093923224339960
-0.57936506442290902629821403024835
-2.03459135888954323334587570570875
1.29771110666186006987743439822225
-0.22176981839042894661950811041606
1.12659506115404561832349372707540
1.49138326313601066175351661513560
-0.59298846061350518610311155498493
