mlp_weights
I:6
J:5
K:2
V:
-0.80421009998690817788258300424786
1.19854842577240372492042297380976
2.53422452521680341419596516061574
-0.10106320774638033466175102148554
0.85417117829695710096160610191873
-0.85419396494773658368160340614850
1.01118160951918545364947021880653
-1.70743042281534229687167680822313
-0.04456893961072064258566172156861
3.37122451962459424024132204067428
-0.26534812599216189843431834560761
1.17172095553153665647982961672824
0.35446534949473063047520327017992
-0.97987404310775905180719291820424
-0.10031660374392359358353132847697
-0.65491282504590520030518518979079
-1.10588108005527696597880549234105
0.02727052189091400125064978965383
1.37708967837490892094365335651673
-0.86197298541305111818644490995212
1.07310887858718762011278613499599
0.24905799593443225803390816963656
0.65708864074284711875861830776557
0.52144571871311018451677909979480
0.50245235148116229595416371012107
-0.91255917873690473030023895262275
-1.18372984652801260807564176502638
-1.21100694907294093027871895174030
-1.45743560850310638343785285542253
-1.04942038136504445233754267974291
0.80452203051238235786968289176002
0.34136404798675767935378644324373
0.58989754689850537605622093906277
1.62655686419019507304994931473630
-0.63668403848981514059346409339923
W:
-0.16854281747077573538895478577615
-2.30847732032299912674488950870000
-0.75031702863132310188376550286193
0.50234813779505937958447248092853
0.55204679499157927047292560018832
1.07439473651444727941850487695774
-2.41926329619596991449270717566833
-2.44950902416880911260932407458313
-0.20879999931493040121743831605272
-0.14836217588136937917120405927562
-1.84745535419151618583555318764411
-1.37928505573312443210909350455040
