mlp_weights
I:6
J:5
K:2
V:
-1.43359899104500865263389641768299
-0.35252825718398839160983015972306
2.95506876118852002122139310813509
0.24652149958084318415174607252993
0.26297376765329527614767357590608
-0.13512745181400420690920327615459
-0.58371751691635165304461452251417
-0.90681005547837867375449150131317
-0.96415756958029008583110908148228
0.73144933789105104349204111713334
-0.50962919084213609277611567449640
-0.94153293862165987615497897422756
0.72853568695143944289327464503003
-2.66656465146974275270963516959455
2.36877977741895362484569886873942
0.50770402114856172381962551298784
0.16820588344648707002093601658999
0.01739908069795438605442683410729
0.12127818739076295928569493298710
2.76204955502343896256434163660742
-1.19472819370426464047341141849756
0.53879885284329487316057338830433
-0.26551265920411804000167421691003
-1.74420753940776274149015989678446
-0.98296949668880917450053402717458
0.58895192622039316265869501876296
-1.52966242600260615702723043796141
-1.27073299311042342552013906242792
-0.85768454285301032324895231795381
2.26496853590406788114819391921628
0.59640302254926991221140042398474
1.33894807397979076490912575536640
0.42088652481355603995893943647388
-2.04357854954120465862388300593011
-0.05935671722801441618777573694388
W:
-1.10416829677904715367731114383787
-1.63626438053197142963313126529101
2.78875720678281213693594509095419
1.02886952995898317553269407653715
-0.12287536583848168714183657357353
-2.07030192431732240621045093575958
0.00061162547545218215461204636085
0.69695042786277061619415462700999
-1.90756897617807763545272337069036
0.60856140947913728300733282594592
0.68975624034779503546133128111251
-2.70382739391672899387231154832989
