mlp_weights
I:6
J:5
K:2
V:
-1.52609294382056126515578853286570
-0.59593309875811550924140647111926
2.81123426696237110888887400506064
0.48984611432183133850060130498605
0.36263751724445980606503781018546
-0.12180000443282569533298698161161
-0.49453288916764748250898264814168
-1.00881873735174942829928568244213
-0.83559172805878667578127760862117
1.22331571734244803906221932265908
-0.21062053240444358892524689963466
-1.15863171805681219872496967582265
0.61244789445224689927727013127878
-2.68313800665552726343321410240605
2.46574811311164587834809935884550
0.44239179958617763643857756505895
0.25067714635007409818001633539097
0.17759239789392769481857214941556
0.21245386461823753676547710256273
2.65213206664899026065995712997392
-0.91163866583331698567604917116114
0.30015944692879509281269179155061
-0.16240230568750413375767038814956
-2.04040941083943350164986441086512
-0.78174614995146118889834951914963
0.74950943419263715838951611658558
-1.24964024479218704932748096325668
-1.23890672671620061251473998709116
-0.84754541793404580829474070924334
2.38625087078088826686439460900147
0.68921086463180636361158803993021
1.41205512315299075432051267853240
0.56932852100719333332534688452142
-1.98792041742386582647839077253593
0.04263068155152037463917480408782
W:
-1.14274819643682823411268145719077
-1.01495316722395312325488703208975
3.00437575295653536144868667179253
1.00318588592164736894574161851779
-0.09125919660942745370579842756342
-1.74375259949728356190234990208410
0.10377841964529291307606229111116
0.48781844969671911416142506823235
-1.88701772443862991757157487882068
0.92547656675111100721409229663550
0.41627922388285398813678739315947
-2.61252080370442429924082716752309
