mlp_weights
I:6
J:5
K:2
V:
0.60719835481461470472197561321082
0.65714162656392882677636180233094
-1.81127056254716412020400184701430
2.75146989041229250716469323378988
1.67847079104063756638254290010082
-0.17478436537140390472089279683132
0.98341651400282859007973002007930
3.51831918297138557250036683399230
-0.28131973365224038907683734578313
-1.15798112339492087485837146232370
2.43993403429731081644149526255205
-1.85102359522091153287703946261900
1.88473851122364921550911276426632
0.34427853938674524147955935404752
1.88003570773898420753766913549043
0.92134199212448497640082223369973
0.66375550369233127234736002719728
0.49060997383685878148185111058410
-3.44960318257347386960987023485359
-1.23158064009710055408675088983728
-0.47402304240265691337441467112512
-2.16475868572959750935069678234868
-1.90483164026432860715942751994589
-1.62443677120770124666648825950688
1.35165787247377533475400923634879
0.23571710380565896736371200859139
2.16043736764830018870497951866128
-0.89672393492234925282957647141302
0.21397329360756459082359981493937
2.24307577456784157377001065469813
2.22261799529591774771120071818586
-0.45764679970726979130191125477722
-1.03378272354481826056371573940851
1.63361175979657846646375674026785
-2.20093296316791020572622983308975
W:
-1.80511107176311291766523936530575
2.40031686629705198754436423769221
0.71353869179725493143706671617110
-2.32443032154785500509319717821199
1.65841931379827345338640043337364
0.59327340614827173137513227629825
-1.43271150293824844901280357589712
-0.85365605547815703868508308005403
1.54636129235061137165985201136209
1.22349088176955689277747296728194
1.30750823643252300776396168657811
-1.75906946951940956758164702478098
