mlp_weights
I:6
J:5
K:2
V:
-0.01783362848562990848888532013916
0.36671049298288294071568316212506
-1.39053301079006308427210569789167
1.32157548938577051877985013561556
0.32311609714492456335577230674971
1.48832599424137579369187278643949
0.55012306023129187160236597264884
-0.87993252921173592540071695111692
2.34782101795127529086926188028883
-0.90603118585870245915714349393966
-2.29831663331048074994100716139656
-0.77551595641936688085849027629592
-1.48594355416406109782201383495703
-1.88554101808924556848978681955487
2.55547135999291752384010578680318
-0.69568286959951375347799285009387
-0.64686904016660817795525417750468
-1.74705322213679448140055683325045
-2.81051726099119170143580959120300
1.13978124757432519587041497288737
1.47392520301978136032516886189114
-2.15115038700141747440852668660227
-0.42827273238515350950450510936207
-1.45613076974497124282947879692074
0.52321263016461316830429950641701
-1.86714842795038538092455837613670
-1.42137592459994044347126873617526
1.35786137378199622816055125440471
-0.40698173985976426880739609259763
-0.44651896469828900038123720150907
3.11072104917967973136683212942444
2.13417626736534593590022268472239
-0.11879519386746524578502004487746
-0.36568585726742719455018004737212
-0.38763802878850439626035040419083
W:
-0.35659003116554505163904309483769
0.22907835200193321645301125499827
0.91333756488949480178973772126483
-2.32735931316642830068985858815722
2.57879726345907878126695322862361
-0.21342017826911113820287368980644
-1.73587245362420938832315187028144
0.69388887080342642743602254995494
-0.73886699859105675614046049304307
0.97613383477942461396992257505190
0.20258893533016369969956826935231
-1.93601965306256840193555035511963
