mlp_weights
I:6
J:5
K:2
V:
-0.12630259688395850670161735251895
0.27371772237771935243344501031970
1.86568410886976554508009940036573
-0.05640138510698847196245253599045
1.29994144517551646345054905395955
-0.79135908522670617148975225063623
1.49993698381699003263634040195029
-0.04973171244414407998757354789632
-0.28627457166457809245585508506338
1.34287600862253930777967525500571
0.59412879049169331491242473930470
0.72959191870546225011651131353574
0.57325275578422685285318038950209
-1.34749456921283750077122931543272
0.92870942823507851571207538654562
-0.62203908262910501125730888816179
0.41919109697806239411832507357758
0.20447666797048158482397184343426
-1.36819524906577427714182704221457
0.14300228531926556518882875934651
-0.31009033790935458529958168583107
-0.92608897158966285712011767827789
-0.26107840097252688060791570023866
-1.40309984508206708753164093650412
-0.70550952499040464616086865135003
-0.64869411498796702986169293581042
-0.56894278642968110215605292978580
1.26829368261160491115902004821692
0.74718352580976943322355054988293
1.54314706178292437854793206497561
0.13323639012674265424962527504249
0.10594965712746463870619351155256
0.40988307760094822018714921796345
-1.19682728217223655065026832744479
0.71042043789512432372390549062402
W:
1.55590200784389920407591034745565
-0.41835166275871588092982733542158
1.65164299149794069343499813840026
-2.70281134917518794935631376574747
1.60184807993822375671300051180879
-0.09854117494054465131725351056957
0.05590290198099916174623302822511
1.83606682190060954695809414261021
-1.64657637938027412438657393067842
0.03586527766580658443951179492615
1.06666649930982448957195174443768
-1.26708544984917059750273438112345
