mlp_weights
I:6
J:5
K:2
V:
-0.13933006262589631152337688035914
0.28251504508080549360471422914998
-1.45321879607843773563047307106899
1.43225779622482995989685150561854
0.24694728091362461164237629418494
1.40534138045175471809500322706299
0.62216542117347262141890951170353
-0.95457672396742243581257980622468
2.35384310099938298677102466172073
-0.98815597927378995279923401540145
-2.46858852151072705183310063148383
-0.70145988543900394951435828261310
-1.44018806558924716831882051337743
-1.83216331684204281060601715580560
2.50814869879696500376553558453452
-0.73657643943773010164477454964072
-0.60229677889992117023609807802131
-1.88400273201438017700581895041978
-2.87311980235597719257611970533617
0.93794001857461273274907398445066
1.36833224037324585609098903660197
-2.17175142838965307134913018671796
-0.31385599979715944618519074538199
-1.52569732911615685289064003882231
0.49005084932671855169061814194720
-1.90998228815296200444606711243978
-1.32389045663041171607687829236966
1.41130094144300577418960074282950
-0.37087187180395070340566121558368
-0.40534635775004351776473754398467
3.26786633522256675377093415590934
2.23437597197978998764256175491028
-0.08048345612045437746928655542433
-0.43012639863641954907080844350276
-0.28650459680683576513260391038784
W:
-0.19654507514475313967317049446137
0.11192165089505833053262762177837
0.77430133893212482742995916851214
-2.40496600016125983145798272744287
2.81307722251623992804070439888164
0.02204946759254997057375646818400
-1.78143338487147362414475537661929
0.63989426931035886525478417752311
-0.63337984624458054661033656884683
0.99236642298828747765782054557349
0.14855600293387036248127230919636
-1.94044661706746923712785246607382
