mlp_weights
I:6
J:5
K:2
V:
-0.28036631980566151245426453897380
0.20201107349561420178929438407067
-1.22609333507026407872331219550688
1.19871856567422740980077833228279
0.50374223334284717878972514881752
1.94101415790223996715724297246197
0.13791637080265015113944571112370
-0.83243131019773686229967779581784
2.43266558329023041551408823579550
-0.53208594436531853055782903538784
-2.52478204227811708904027909738943
-0.44054667516352025158354877021338
-1.03945331749131675280750641832128
-1.84944584151301705254866192262853
2.53965202435256065527369173651095
-0.67129549192250392852798768217326
-0.63163177800692960062178826774471
-1.34415121052176367300035053631291
-2.18736726364815803336227872932795
0.87205383840918215820892100964556
1.85726639071092325394829458673485
-2.21287282531961437825884786434472
-0.44752407857370524180140591852251
-1.36036376044349416325474066979950
-0.22100253301462605137750472295011
-2.32538565588265822015046069282107
-1.61450854316388392462044976127800
1.92436687624945879093729672604240
-0.13784044619722662927685519207444
0.07192942935990118136224680256419
3.07845218875478066067330473742913
2.04100275885071624770716880448163
-0.30628578413796092583254448982188
0.19828204520323372550549834159028
-0.29758991377022148139275259381975
W:
-0.08500981990306551161484804879365
0.02186537160739350504901068461550
0.88142529871200292479471727347118
-2.41614801979952664723327870888170
2.99027869934166368182104633888230
-0.09740368926733398990958079366465
-1.82944510710909535866619535227073
0.33863511167563031811766904866090
-0.58432965238881195979558924591402
1.12160435891340481973088571976405
0.09596922045586481209156204386090
-2.31464680593048521828336561156902
