mlp_weights
I:6
J:5
K:2
V:
-3.52126523000327162904454780800734
-1.36493440881742600367942941375077
1.42909656628783943155269753333414
-1.75610251963158670029940822132630
0.62840815563778207319955981802195
-1.25509689953574832266269822866889
1.74666200597036058717037576570874
1.18630513628072975507166120223701
1.50454764815739050476395277655683
-0.62335458760907502817616432366776
-1.07682057112530560338825580402045
-0.41841082200890389319880569019006
0.75248716195300102693721555624506
1.74422180217266831192546305828728
0.04606964457032319826268462747976
0.71920547980675608723544200984179
2.00064905214415400536154265864752
0.81695577518141027084652705525514
0.87418292362725913413612488511717
1.53177044517451865779378294973867
0.14148402046033567436289501983993
-1.26115386679614149834094405377982
-0.72720291573319173483724853213062
-0.16624859983488279868701908981166
0.15153130470211850777673134871293
-0.26709898684829580517430258623790
-2.08316404281391021058311707747635
0.28317703902172625118893733997538
-0.14305037797378389319291613901441
-0.18557011654255778365651963213168
-0.83788257819928979586165951332077
1.73733460470173728396048318245448
-2.63908533017111013307953726325650
-0.61415204890418451100231322925538
-1.34442885913131959796373848803341
W:
-0.28854467428474622758827194957121
-0.01453124101598577549987467705250
-1.96757977008094142590266528713983
-3.88284430592368545731574158708099
-1.82767966561857986285133392811986
-1.27639181142878044283861527219415
0.34324816106881483879220695598633
0.73723694107255965946023934520781
-0.96861198348458288354123624230851
0.88007003922154958264201241036062
1.05941745953431909477160388632910
-2.81102624728017813637848121288698
