mlp_weights
I:6
J:5
K:2
V:
0.13132170962279132719885410551797
-0.30775523768715246086813408510352
0.24901049050391754757782791784848
-0.81795325633995086267447049976909
0.20272920195169710777527427580935
0.78661470814531087025756050934433
1.41126833516594962780743571784114
2.23710651801484639022987721546087
-0.05951722895025388093692697566439
0.47368341377757516852398111950606
2.74453499083330410002190546947531
1.27042918735564880350352723326068
-0.84660228709346752040687533735763
0.39609526801411304441913330265379
-0.82744804979099473296599853711086
-0.35929727827962820718710190703860
-2.77896973047124129507778889092151
-1.91117394718963584665516464156099
-0.37878147555853197703257251305331
-1.12841993184618538670349607855314
0.48893352339763573866093793185428
-3.04538753036935538887064467417076
0.56349923652316369349080105166649
-0.30667348543266181870592390623642
0.83291788978628289452643684853683
-0.66681601179400673551356248935917
-2.36158003647580194694910460384563
-1.58266061939100910471722727379529
-4.47317321291601377453162058372982
-2.04765520637305487028356765222270
0.16692040422736603710873737327347
-0.28300697333397900612439457290748
1.77080667809725822436917042068671
2.08417359380531630463906367367599
-1.20586079234759213640870711969910
W:
2.32680446722456313324300936073996
0.97052712989496914275378003367223
-0.05872848180713514248951767626750
-0.80670250688986966380866761028301
-1.95475397841005649191004067688482
-1.38105269881814951560272675123997
-0.03485580388744619062535434750316
1.20475657598007801496464708179701
-1.27976218976823852280233495548600
-0.71508286372591967072764873591950
-1.42071887934993923430226914206287
0.38322626511260793336077767889947
