mlp_weights
I:6
J:5
K:2
V:
-0.06489242900683402093253704379094
0.19696819155868058870417769412597
1.89147389723241454717594933754299
-0.21675488631561007357717585364298
1.33184871952798555838626270997338
-0.96992694378925203846364411219838
1.34888778127021469188662194937933
-0.04380208949319931710508768674117
-0.48059285119154371290761673662928
1.29146613308935642727703907439718
0.93100736874670708687062870012596
1.04340873758188390496570718823932
0.57649997733540181421574288833654
-1.27669156865971289427363899449119
0.84941703275099333936282164359000
-0.61761364688858688687389530969085
0.55602220006191582779564441807452
-0.09142173724814522950410378143715
-1.56621911981050909723478525847895
0.12187631696378224688270819342506
-0.09091841261189813339083087839754
-1.04419530774444102583231597236590
-0.08269091608126907799736216020392
-1.12809824283646920051182860333938
-0.60885964645396772887409042596119
-0.46993972304858350197420691074512
-0.62372268012993237196184281856404
1.12501843161492720568617187382188
0.82348039957266505606270357020549
1.82676930565913053783333452884108
0.23116502512954562043034911766881
-0.36556633748863631705461330057005
0.86174724394582524755747954259277
-1.41968370058050785686987182998564
0.66999950636431770956136233508005
W:
1.52829349066550101987616017140681
-0.26562558517503648269908467227651
1.69425393501131660300984549394343
-2.71830311951186276431258193042595
1.39802027847254661807596676226240
-0.31398371433759231230453679017955
-0.12334045076364430482129819210968
1.48715609924273861608412516943645
-1.36023813847033325785673696373124
0.10525414981494773947190424223663
1.22375776419488846435967843717663
-1.39301513010814970172646098944824
