mlp_weights
I:6
J:5
K:2
V:
0.88738350265691345875040951796109
-0.46782088339087057882181852619397
-0.13851452517308754375235935185628
-0.57455612120547305821105510403868
-0.27482326089449787831497928891622
1.05331228243186059145841682038736
1.51074283073985982106535175262252
1.72963972992850778531703781482065
-0.16127783435959991420460823974281
0.77030582223940047281729448513943
2.76681855894366268699968713917769
1.15750943315128473898312222445384
-0.49649034234206296245517364695843
0.31141975563038354346545588668960
-0.80146518234179764395008760402561
-0.48369919785993786831568286288530
-2.81065852263518811682274645136204
-2.22860106314090078427625485346653
-0.70540230197792486155350388798979
-1.40631461833591275834010048129130
0.04446409368226089675601997441845
-2.94668364008495586858771275728941
0.20826895713305998425468601453758
-0.66535331840349620780017403376405
0.75080890145995593520922284369590
-0.48233950156052135538331526731781
-2.20933788833887989611071134277154
-1.58660901615553795451774021785241
-3.82272113453422246465152056771331
-1.94472224925916803428549428645056
-0.02288543432020534451609705683950
-0.45632138255368470680650716531090
2.06377243746471128460484578681644
2.08287723816979974955643228895497
-1.26905041346816593872404155263212
W:
2.69198569613128757538333957199939
0.85567143211438667638191191144870
-0.25885416238833108826256079737504
-0.10066743263403789276910771377516
-1.64979467727759887551997053378727
-1.20313654124655178279112988093402
0.48817943917560047140113965724595
0.80590801797524336258504717989126
-1.05872237442292793652143245708430
-0.85837047125795384872048998659011
-1.99958751002051937639691914228024
0.67205941622068410268298066512216
