mlp_weights
I:6
J:5
K:2
V:
0.48757443401328331988864306367759
-3.44880468400831041719811764778569
0.68673528161398034175277871327125
-1.43814334167498381056304879166419
-1.92115291940263732684002206951845
-1.42339856289537181055493419989944
-0.25088764779278233119086394253827
0.00262909256617130382416291922709
-1.87754868300053345819833339191973
0.88696659592960525042570907316986
-1.06256771832980634329146596428473
1.92969472769444738702304675825872
-1.07237257812318498295667268394027
-0.74008198262531421640630924230209
-0.76242819675660333800237822288182
0.84679178069081340041179828403983
1.81319166727728742216640966944396
-1.01826752039637269398042462853482
-1.77512116309209333486762716347585
-0.46931552862699743577934441418620
1.59599639198746601209677464794368
2.66421848946161388127507052558940
0.43451182051631914715628113299317
-0.74899249679319623851370124612004
-0.14026299480625198379257767555828
0.25740168504399141280458707115031
0.72997157410872526295264606233104
1.77115791672127365075084526324645
0.66387142767466855719504792432417
-0.64398659324352403032776237523649
0.25963818503287683370217564515769
2.40676753372359764071575227717403
-0.11445467888745572415665208154678
-2.60143914109721352545534500677604
-0.84019033342012150455957453232259
W:
1.05327946696688368177774464129470
-0.74141180723497901450258495970047
0.81297347143503506661232904662029
3.05503441219629490177567276987247
0.92973286463178217431391203717794
-0.62688996213609216034967630548635
-2.25774517725436085768819793884177
1.20568740435640053831889417779166
-0.24843619267801375638526906186598
1.17294361903786370504576552775688
1.58733711397179533264534256886691
-0.60131108680363298812920902491896
