mlp_weights
I:6
J:5
K:2
V:
-1.06055470815512231652633090561721
1.08859690870813130558758530241903
2.27409311431439764561446281732060
-0.12090672246766248631999474127952
0.67764627218234863015311475464841
-0.84465197858711182909985382138984
0.95397065189070939794646619702689
-1.66682317446677319416892260051100
0.08299997112508553098741970188712
3.48071821531606628852273388474714
-0.55990010394033273843916731493664
1.39976208302064031308020730648423
0.51176028017635533107210221714922
-1.00008788643264900919405135937268
-0.41983954864207112533946997245948
-0.67160948055816915847060499800136
-1.12464505531101477409094968606951
0.33657406793642075104600053236936
1.20672649302088075273786671459675
-0.82625002751062426309403008417576
1.34866793739539470031729706533952
0.21149345107716430169908505831700
0.90698328344434941961083040951053
0.23153789063378524271108460652613
0.28088757203258152284064408377162
-1.00644694504134357693203583039576
-1.16149405549795270431445715075824
-0.96809124801852386443812292782241
-1.16395595059420031702757114544511
-0.99097065575883325205808205282665
0.63864606881650987091347815294284
0.78164320478981241802074464430916
0.67614378510768458063751040754141
1.84617252077638505092238574434305
-0.79754533919337566860718879979686
W:
0.10829666214095037823916811703384
-2.52550588484732951854994098539464
-0.70011118326592414184972312796162
0.38576802079736693951161896620761
0.74876601057128233662751881638542
1.25803759424428385216288006631657
-2.28237606703238027350266747816931
-2.36812391291766521916883903031703
-0.20106816530779925145111519668717
-0.44326368045395903028094153341954
-1.88225402312117351399933795619290
-1.13760901824255045156064625189174
