mlp_weights
I:6
J:5
K:2
V:
0.56641852175656481893639693225850
0.34281500938699127623010554088978
0.46997701969532001964324763321201
-1.37303025833198333316431671846658
-0.24811267700290612348013041810191
0.01899701271141744640669202226491
3.12508466567287346293824157328345
1.91396328665928394663353628857294
-0.11065427399689191367837537427476
1.18503370853700107367956206871895
0.76107386061051496284335371456109
0.96563506241250418593580207016203
-2.23996713548518044945012661628425
-0.24646454911099432982801715752430
-0.50884995505440022700582858306007
0.20803318307470944348303021342872
-1.46758813359510242868566365359584
0.89631063930339771594901776552433
1.78505272201876930004971200105501
-2.46476639084684467917440997553058
1.49938692401081263838591439707670
1.91408608547551262191177556815092
1.26797293074578942828622984961839
1.67101678050218316329278422927018
-0.95534927727453766710397076167283
0.04246772761309347554714577199775
-0.25494028401181090259797201724723
-0.75962560497681530513602865539724
-2.26279300231970781354107202787418
-0.98905671642622938755096129170852
-3.87757499325552545954565175634343
-0.11012501970238128268242405738420
-0.31148939156694888108489749356522
-1.59925723845047818016951168829110
0.73161495800723941318466359007289
W:
0.69466541725999975120942053763429
1.42253738462944578913038640166633
2.31228284884973422919074437231757
2.47147426275364523462485522031784
-1.60830698867438037780175363877788
-3.69997916828627237961768514651340
-1.11451282462857359512042876303894
-1.26063417435900637642021138162818
-2.48165656321975980347360746236518
1.33500165662187941784111444576411
0.77053958035207847920844415057218
-0.84080455282779120729230726283276
