mlp_weights
I:6
J:5
K:2
V:
-1.03053631041106452670419457717799
1.01616749486352064835159580979962
2.24003522145235800522300451120827
0.10892918422015807067282366915606
0.69158343719910408964324233238585
-0.91903975789625536041427267264226
0.96572874195978442024568266788265
-1.52004473483526747479288587783230
0.08283927211648296762280807570278
3.31033442707070912902622694673482
-0.58105640201380714948697914223885
1.46650431185866181316157508263132
0.53241506085452516838785186337191
-0.95112275401933932261755444415030
-0.24408897520898933941602138020244
-0.50760553952336917582499609125080
-1.47514127810073647495414661534596
0.39118090474442090975770724980976
1.07063774593529426049087760475231
-0.60573677070709885938981642539147
1.31299485328820364493651595694246
0.14150343456943181852381030694232
0.93005296614268129218316971673630
0.27653341018126120776088328057085
0.27710525899641530456207760835241
-1.09969357307299375747788872104138
-1.01390923282602885002745551901171
-0.83056818113156860583501384098781
-0.96884540280920006249942844078760
-1.18812643270982087884135580679867
0.67761604342404502254737508337712
0.67106613085790445261125114484457
0.74816423836081791254315476180636
1.96589102208043708941431759740226
-0.69572902654909751785083926733932
W:
0.20088217726722451539345115634205
-2.55880309776995851223091449355707
-0.59901182508681782845627594724647
0.63874653898397659723684682830935
1.00203748918671697865079295297619
1.37150818621210834891144259017892
-2.21677772728269451008031865058001
-2.42918367334111851008060511958320
-0.14738787033993724917557699427562
-0.31054690246275873377612697368022
-1.93680337977335748078644428460393
-0.97647614938882543178522155358223
