mlp_weights
I:6
J:5
K:2
V:
0.12825715814251431590164997942338
-0.19940524933559800047078169882298
0.09805898607912294506760986223526
-0.86152218484023745936895011254819
-0.06360288079987130860359911821433
0.86404640044570113488475726626348
1.51529536017207311360266430710908
2.12749168107669239802248739579227
-0.00040515157891993051897383537607
0.68998864448835528495607150034630
2.77222849245091440550936567888130
1.48971124098853913153561734361574
-0.96341851638718811745576431349036
0.33245615293918723276433979663125
-1.01200962535785499163409895118093
-0.19045079903953662792126522163016
-2.97097210953838697378159849904478
-2.06094880002371549920781035325490
-0.35347231143854268564652443274099
-1.10424018436733817338790686335415
0.39055193606856186683273790549720
-2.98540383534435038725973754480947
0.67131539848066956732708376875962
-0.39698598183737610067822743076249
0.87428057658311975064435728199896
-0.51252455341189129267576163329068
-2.27311200897396759046387160196900
-1.45069924021304008654453809867846
-4.55844512733881224164633749751374
-1.86818143856086860132847959903302
0.02581227117909880297563773865477
-0.18261066672712983338655590159760
1.93816772369056700142664340091869
2.02046478518697769644063555460889
-1.27161390261144635616119558108039
W:
2.20954587648460787363546842243522
0.87066459155362574406922249181662
0.08674437137191245983380838424637
-0.71504746873173696819492306531174
-1.96235754903239811852699858718552
-1.28009224425031176153311207599472
0.12975918332957914191894133182359
1.01813586230809449695300372695783
-1.14125285880021376527793108834885
-0.89449261642962496487996304495027
-1.38992033008262882987082775798626
0.45960280019825816566481080371886
