mlp_weights
I:6
J:5
K:2
V:
-0.83068780977605960469389856370981
1.27286013432270839196291944972472
2.21314295757004719789051705447491
0.18332901666711609589555109778303
0.83253223008093080181879486190155
-0.79129495696985852060123534101876
0.64706069022316248240400682334439
-1.64902014453002077054577512171818
-0.26409481170192422583298252902750
3.39135593438562832346860886900686
-0.18206513632297666172021877173393
1.33116301740966624933548700937536
0.31716530521891811433832231159613
-1.07679847068430745160583228425821
0.01863819387652354553353006849647
-0.52863242246089237053041642866447
-1.20853018116126564862611303396989
0.14385222554282584006557499378687
1.18019489424488055462347801949363
-0.70235682009338751274896139875636
1.16230192604363002928380410594400
0.15087452489874331185149003431434
0.80438845700884142875253246529610
0.19339383045346331124747507601569
0.63650144830597787937165321636712
-0.90842752152529282483328643138520
-1.10014934148313736628210790513549
-0.97940588364481451222331997996662
-1.52545079263689120629976514464943
-1.08406118460993172725181921123294
1.11324175403099379089155718247639
0.41646298760857036747040638147155
0.63118768095486554869921747012995
1.49260138172700229652889447606867
-0.74101507920696341180644139967626
W:
-0.15105656652711788034970652461197
-2.37483716396543398374774369585793
-0.55573934624900933609836783944047
0.61756507267721016951611545664491
0.52524197792928251082855695131002
1.26115836621504251446879152354086
-2.37047046342986567069033299048897
-2.20966292212382819926119736919645
-0.48489865089304989842489135298820
-0.18202342971781981795231786236400
-1.89727908255426847006219759350643
-1.42101491435369164939572783623589
