mlp_weights
I:6
J:5
K:2
V:
1.06977953928054425603022536961362
0.89825299088759813503912710075383
-2.16276381531948747038995861657895
2.56650475922040799403589517169166
2.10686954353541766593593820289243
-0.35451265326216141460236030980013
0.78509451329010404574404446975677
3.54613080065339092428189360362012
0.11527620293034239462581780344408
-0.70063878261828582694192846247461
2.65288129459081023497901696828194
-2.10390161017614873983916368160862
2.02942772526191994586497457930818
0.34778572014373237974993458010431
1.60059128700265196343366369546857
0.93984963779872288114347611553967
0.31206506460292360305430747757782
0.81423579383091548855588825972518
-3.23517336684940959301570728712250
-1.43338760236179929563604673603550
-0.58595396447417746887964540292160
-1.92530598448915668541303602978587
-2.15390475071602605083853632095270
-1.38540399390337887197688360174652
1.03084466494450843754293600795791
-0.03237286212950724051395923197560
2.15800710801323525345196685520932
-0.96050372496287428347727654909249
0.70333881829204236701968966372078
1.95484456349534818642155187262688
1.97439162564392400867063770419918
-0.91755456198822071822718271505437
-1.21611088198487138356540526729077
1.50653904554168716067863442731323
-2.30542575045731279459459983627312
W:
-1.52997387806329121495707568101352
2.56376714978109365716818501823582
0.60834062241128528114586515584961
-2.36722111342507979259153216844425
1.41561274920301882751516586722573
0.12229454460848972197073436518622
-1.55407114019275649496876212651841
-0.63724912709907532981645772451884
1.37498138106309975015051350055728
0.90068476162642230331556447708863
1.20299092484480141251879103947431
-1.75329508150105217723080386349466
