mlp_weights
I:6
J:5
K:2
V:
0.45061640012236786612120909012447
0.24542714841104062983845324197318
0.79985492099508659347151251495234
-1.61667436652485752013319597608643
-0.30073536454625893199477104644757
-0.06802406639649674624514830156841
3.12204464769163347881431036512367
2.28944098515335836552253567788284
0.04416613419755190811377687509776
0.83856222501898836085842958709691
0.55639156871223571787510309150093
1.26315967968507059104865675180918
-2.61124775430035693801755769527517
-0.05069943191372960900054067678866
-0.78389960978161499216554375379928
0.09782908984556451525982367911638
-1.48026571574741772074901291489368
0.79916307102966210873518093649182
1.74687844356818455793245448148809
-2.19173328654662702419386732799467
1.59551550113646434247982597298687
1.97868275091800027709609821613412
1.46315651121215917207507573039038
2.20741040955072742590914458560292
-1.26971948614605811833655479858862
-0.06080710610083965572680853028942
-0.22162419064089966536101883320953
-0.84829813630404005131424582941690
-2.13059305141532906446855122339912
-0.80804204454429584547625609047827
-4.21838625208383000142475793836638
-0.21850799125804609701617664541118
-0.36341027605205211692407374357572
-1.51824635250970052524621678458061
1.01217389044938488318337022064952
W:
0.62998279568025006280862498897477
1.80849984020719656285791643313132
2.19983186028348809415433606773149
2.52297979087484325333434753702022
-1.51342559418499522649881328106858
-3.24090855817953116257967849378474
-1.05499163969199516444064101960976
-0.99053793853186533624466392211616
-2.55802559504234849896420200821012
1.34331171125073867145260919642169
0.53669203713150837042888952055364
-0.93547309396657407631892056087963
