mlp_weights
I:6
J:5
K:2
V:
0.34361475989400336317203255021013
-0.20854406612190704017884002041683
0.00265334386127515954589828339749
-1.00261542896219268961033321829746
-0.55134356070895074175552963424707
0.90688176266955922155688085695147
1.52360075111896264843380777165294
2.31109612086451976509238193102647
0.23559355538247170325227841658489
1.02314034387351915356134668400045
2.60142910579829500505866235471331
1.65008769454755266359313736757031
-0.52160856877417383081763091468019
0.30578153455680695538276836487057
-0.79307557482960655548254180757795
-0.43537400291723504786034482094692
-2.60755191100441319207448032102548
-1.87279486249157733901427036471432
-0.14618720137617957632869547524024
-1.11349274275771481512720129103400
0.07236604468538249124165417924814
-2.44309974294216880608132669294719
0.46195126405830033711197302181972
-0.05856974007259840853123478154885
1.01532214776082296836534624162596
-0.39196232644910711240271439237404
-2.36144593137874370114559496869333
-1.69442253580415846947460067895008
-3.90930905224358893335079301323276
-1.94504211868898901904856302280677
-0.23793930961754125585905228490446
-0.03789420689364875194371506950120
1.98582177031372864028924141166499
2.02185838043085652770969318225980
-1.69610467939603593023889516189229
W:
2.33736601845993385850874801690225
0.80215292640051449879479150695261
0.23958307082997359893639099936991
-0.68292549811873304310694265950588
-1.31881803968182165220923707238398
-1.26021162310679613050012903840980
0.24617841551486224771494448759768
0.76097285981020601486335408480954
-1.71506517475965347685473716410343
-0.68904899111957418345042469809414
-2.00651569232514148666268738452345
0.35990965710734496019185257864592
