mlp_weights
I:6
J:5
K:2
V:
0.65354501838335010699410076995264
-3.33089271296864675164783875516150
0.08957397273121692204966848294134
-1.26170822174942109938911016797647
-2.10063513626156783686838025460020
-1.46596378787131831344936472305562
-0.05482870392385127272794065333983
0.65690803884506987486702200840227
-2.55868454513221710300285849370994
0.45585268510975235356497137217957
-0.60810806024691799187564811290940
1.64842650809295432345891185832443
-1.28862407733749817495549905288499
-0.20781211631190532607149634714006
-0.67034976386315303642504659364931
0.63153836366447990702255310679902
2.26816464199130995993414217082318
-1.31726150822869647605273257795488
-1.56428727827209512746264863380929
-0.37252580589966827195880227918678
1.79980206725052771510320326342480
2.69337627770632614954138261964545
0.67282730525211742467206477158470
-0.93050355752120816887895671243314
0.18996588576761722078067862184980
0.15833127661304638444939030250680
0.64331722061118534750079334116890
1.03880935223991222038364412583178
1.32930735633148455754337646794738
-0.45114221476798765930737999951816
0.74464119751606183683634299086407
2.67636185644820834284018928883597
-0.28392429200151847457078702063882
-2.09664640078949782164841053599957
-0.49009907368168914576500583279994
W:
1.04966274122336655771903224376729
-0.55491790619174308218930491420906
1.24199344933111177624596166424453
3.16331833809260087875259159773123
0.79441465959874679736429925469565
-0.50497245169106896867106115678325
-2.10480244326089716011551900010090
1.70970640460028366902633933932520
-0.34488778419442472911171648775053
1.07259028205991646665040661901003
1.36486163262578852339856894104742
-0.98418358401892158671131483060890
