mlp_weights
I:6
J:5
K:2
V:
0.03119442059677407508289093129861
0.08867068892058241336151525047171
1.86407001511654213388169409881812
-0.21590137111815815851301181282906
1.15345644201432939723872550530359
-0.89117370423688246905413734566537
1.40942198768010795717486871581059
-0.06982886420213918476918024680344
-0.46943742984110914395756708472618
1.46773587223212609309541676338995
1.00764240551088923858458201721078
1.12121407763179981031953502679244
0.48617151164087085701837054330099
-1.26647315599697818377933344891062
0.97219662602808609719318155839574
-0.59864773855416253400818504815106
0.46577539819972918477830603478651
-0.00391240666076536625084258957941
-1.55967817126997720933445634727832
0.16115335345404663280888257759216
0.01768086749485027475703446953048
-1.00690560848763221990509464376373
-0.26747209467277727190648306532239
-1.02751763249488181628521488164552
-0.54986887094629977035253887152066
-0.51759949344562505846312205903814
-0.68565086981842759961125466361409
1.05536456044444149071637184533756
0.98584364370357846496517595369369
1.88102106729651863403773859317880
0.36896694882045966146222326642601
-0.19889852798798796085222306828655
0.95496490108141851571588176739169
-1.34819633649849524026365088502644
0.80866250633538061531879748145002
W:
1.69496239258577996444898872141493
-0.19564151020741168962580047718802
1.65204534053933738135810926905833
-2.73361015306623800213969843753148
1.56055812369440527476172064780258
-0.33270412202110494215290259489848
-0.25003291479515055151239266706398
1.57752278860411743188763011858100
-1.42675631237169153742172511556419
0.03868881230570887785891187604648
1.49816937236284908330219423078233
-1.30916634637052586853656066523399
