mlp_weights
I:6
J:5
K:2
V:
-3.91700569603483117475661856587976
-1.52509464141566075667810764571186
1.57288906729337063516993566736346
-2.22143422079523311651882977457717
0.25292569310670581783639931927610
-1.25972661130296392784089221095201
1.62639739179438547189704422635259
1.85363350011498462244219354033703
1.18461250881280966140707278100308
-0.68962944115324453786541880617733
-1.41138939461778645245715324563207
-0.23515291737155213924737040542823
0.68482668495876652947629281698028
1.36320162794393429095407554996200
0.44727951126917808721827896079049
0.52410877360197360985694103874266
1.75012537365540787881457163166488
0.99245777425151404660397247425863
0.65317737061430780620696623373078
1.59195336451836211288934919139137
0.24932593652774959203100024751620
-1.59216129680749363117797656741459
-0.76808826858906342760491270382772
-0.28377160968111908578848101569747
0.31102696078052571859728914205334
-0.53009194313375029850021746824495
-2.18057925790440387814328460081015
0.21275679865695526493674094581365
-0.00431508543853797998934851420927
0.38640369386743500523806460478227
-0.76812054824113351614300881919917
1.80699664078986255155712115083588
-2.47595546145989731101622055575717
-0.53241491842772459275323626570753
-1.72722222849611339867692549887579
W:
-0.04883802134863349242444030551269
0.15150853029162891782988253908115
-1.27258243443740060030222593923099
-3.51974981881572990261020095204003
-2.22731811096596166166250441165175
-1.34320231277348356435652476648102
0.28570024167180030350010611073230
0.52786497015653421893688346244744
-0.77975543174790828970799339003861
0.97195597821838197738486542220926
1.31070606216070917326987910200842
-2.66475389113582972200333642831538
