mlp_weights
I:6
J:5
K:2
V:
-0.11697308580570256464348233294004
0.32226553784277112146838817352545
1.77862460949713985236542157508666
-0.24604367259134760081984438784275
1.66463793462293341285374026483623
-1.19435599092956623579198094375897
1.37857869879721417483153800276341
-0.13757091643664628999310650669941
-0.69099175022019565517439332325011
1.27568130208360885902152404014487
0.80082215925971589332021949303453
0.91527189648607165661786666532862
0.57940942505079817692603683099151
-1.43665438678783474735212166706333
1.20297891418551206044185164500959
-0.73584734151024311366029451164650
0.15618724189272009672535546087602
0.07551220715762987922836657617154
-1.68249625907341915365122986258939
0.21820901208099585666388975369046
0.16578576788861057456081482541776
-1.37983134711061938837417528702645
-0.12011183882980999704237490277592
-1.61477656237865030419698086916469
-0.78941102372875715520450512485695
-0.49975997147787498686710705442238
-0.12099053194016790024889473897929
1.33765623671416689077773298777174
0.97293256451334308998468713980401
1.74439741728929620379062725987751
-0.06738303556703303942576610552351
-0.07697613569495292962230337252549
0.44421193786117374457944606547244
-1.29092894157671800314801657805219
0.51666338689347035550980535845156
W:
1.83238031935908418645908568578307
-0.09431783007625224590775303568080
1.36511779569749380769394520029891
-2.77445347509679063335852333693765
1.35566761171240579564312156435335
-0.08941973254246468605366260362644
-0.08127005700121771314403673613924
1.53816144615090433234172451193444
-1.58836155034603154767580690531759
-0.00764682805339346460815619366258
0.86650313843479387365675847831881
-1.30321311146552187842928560712608
