mlp_weights
I:6
J:5
K:2
V:
-3.94569504188295994140389666426927
-1.42166491905890857161409712716704
1.55082349134824060143955648527481
-2.20977084992321914924673365021590
0.26831347011706463412394896295154
-1.40509990171476339959610868390882
1.49156032498037460776174611964962
1.51215047745719322058732814184623
1.43086213113086557768838247284293
-0.78283337711941747283361792142387
-1.20647816368493221439450735488208
-0.28306378023782213793069217899756
0.61806889579211765628485863999231
1.55900683204279189020269313914469
0.36507786857082125120399496154278
0.49537701433069791789876035181805
1.86251205414919551728303304116707
1.00794146168027043408699228166370
0.76235555539737553942813974572346
1.59408493041389087707671023963485
0.35556664528167702954419837624300
-1.45702920949268577288648884859867
-0.68602468709892039377962191792903
-0.11176917138469241730369674314716
0.02120597541962576659813066726201
-0.46707793527719443371637453310541
-2.06958261318786451710138862836175
-0.10195312558572683370172740069393
-0.17165908325260961775349244362587
0.07873218145931350220312339160955
-1.11013535023080089914060408773366
2.05176197572749918762724519183394
-2.38519375084641449547007141518407
-0.69455602756469159153596137912245
-1.51827940631248248237739062460605
W:
-0.30064572712717041458319044977543
-0.30990811755031189012044023911585
-1.60420250435530453714250143093523
-3.89480189646588748075828334549442
-1.61732258340110557348623387952102
-1.14801501625176305410036547982600
0.34336187816775814996006488399871
0.61276010856512053148748009334668
-1.11865427475955980796129551890772
0.82320739184062019511145535943797
1.44936050665504079226764133636607
-3.02054539886633177658836757473182
