mlp_weights
I:6
J:5
K:2
V:
-0.04986331448660386023163937352365
0.33345435156671343612799773836741
-1.51231206455535427402026016352465
1.04873850932462264751166003406979
0.59094722468957572303338565689046
1.84173859601273592900838593777735
-0.02051923725329176523279883781470
-0.66158137516029691393981693181559
1.97319821239334469709092445555143
-0.99812591482080981197810842786566
-2.35473786615460145554834525682963
-0.33264304308890663142150856401713
-1.17881182897354541694312501931563
-1.93245188172108006696703341731336
2.23149547927982849770955908752512
-0.69297915495847584033128896408016
-0.64201893436071377774254642645246
-1.30684536305037779513327222957741
-2.24014729588796113191051517787855
0.77607269502718856379885892238235
2.13052326630684074615373901906423
-2.27264000975223146028270093665924
-0.32417007267178571394694586160767
-1.50582576615762109284446523815859
-0.37867970691307989428153746302996
-2.23398576664742432029697738471441
-2.05441053365394799001819592376705
2.14115667083695937478182713675778
0.16149594924549931507229416638438
0.26446501467809152563503971578029
3.23822831760879425999632985622156
1.81311597227147780486689043755177
-0.10901642925435771347419944277135
0.22727587744664889957135756048956
-0.51260220209377826972030334218289
W:
0.37941578173202034074407151820196
0.36050366361766883471773326164111
0.95888623441202935904215109985671
-2.64959960863665777708320092642680
3.01791710409146718419037824787665
-0.18491506709009827846834639331064
-1.64744389903363552818404969002586
0.92603380691466230523190006351797
-0.76865072887700103265729012491647
0.78234145619846517938356100785313
0.23263118790844486416524716787535
-2.45739216538006255419190893007908
