mlp_weights
I:6
J:5
K:2
V:
0.54961511281477926083027796266833
0.70307939358646565075616763351718
-1.80833807710139549129735314636491
2.63129630508196843408086351701058
1.68631241150133104333974642941030
-0.49139870507918897990506934547739
0.94690774129687593774207243768615
3.57836440935513255823252620757557
-0.07627180871343192114508724444022
-0.98527651772739066604600566279260
2.38746282955059374586426201858558
-1.82629304073126053076236985361902
1.94249776566890219875460843468318
0.13109215171989152537435074918903
1.73055515835448181505284992454108
0.76593525257585803878157548751915
0.59528766273264266395415234001121
0.70764406007318192415311841614312
-3.37013673509417310825142521935049
-1.36641076961772656161997474555392
-0.37382325285327200337093245252618
-2.28851797044905280742455033760052
-1.89413947457368569970981297956314
-1.52752927818899886247550057305489
1.47229499931676865998042558203451
0.12831064734014935302397475425096
2.40992048604760755736720057029743
-1.17617923138889723944089382712264
0.37062560858126775142906694782141
1.96466968359451499281931319274008
2.02541169512123975238182538305409
-0.39505938977466270589644636856974
-1.07175500910152243783102221641457
1.67503725615658094483251261408441
-2.32461279036799961517090196139179
W:
-1.73272078366374704394559103093343
2.40283918209536961896333195909392
0.65330980520552539569933969687554
-2.21338955038835560884535880177282
1.66146804598700326138782656926196
0.57045421621214853491466101331753
-1.37085724379224593860726599814370
-0.79630545471175662175511433815700
1.55339935048119048843773271073587
1.15925125818278473843747633509338
1.30631528597849277950615487497998
-1.78455180545367619870944508875255
