mlp_weights
I:6
J:5
K:2
V:
-0.57601324262552722199615118370275
-2.41061124690004424664380167087074
0.42759513867427872968463020697527
0.12738065826723171669598855260119
-1.56574780469404362115426465607015
1.01022942106361890424182092829142
0.74913686638150855934270566649502
0.52434391117225809253454826830421
1.78462151496788479221322631929070
-2.09682780480816077783856599126011
0.87474556011811277489442773003248
-0.70785106878781156591884382578428
0.03112991955307815167275364842681
-1.11434447905362632447179294103989
2.69653249951460871614017378306016
-0.02802334733923755871742855561024
1.52966339547303897816732387582306
-2.50848363148460018479113387002144
-2.71635820664150662295810434443410
0.10952701665662648022880887310748
-2.06980521110045145860567572526634
2.30052757036262711665131064364687
0.41620995045882919205482153302000
-1.97327732800113486710813504032558
-0.64101381084853392700040330964839
-0.39269973603053409672014595344081
1.96344983250872884283921848691534
-2.09494111951211881006429393892176
0.18405566709756215892923592036823
0.81975698250223727470142875972670
1.90086302455668376687469844910083
0.12454440613791328829051963111851
-1.82011905394794304413608188042417
-0.62834587771914285347918394109001
0.24076576037829588994299001569743
W:
-0.71864843640981002081957740301732
-0.10646251957949855182494758309986
2.51242569136052473766085313400254
1.43055857887121096183591362205334
0.48526870060977411736047315571341
2.08272471444669360352008879999630
-0.08701590570440578820132770943019
-0.34677493081098148541840942016279
-2.55388495813993143812581365637016
-1.40765776750072757472764806152554
0.64920645941825305680339397440548
-3.00076283743091432043570421228651
