mlp_weights
I:6
J:5
K:2
V:
0.66187468289571138591043109045131
-3.17203344969432476929682707122993
0.06486199716207620424857083207826
-1.21732001552858859483308151538949
-2.04389845344385712166968005476519
-1.62782479752082331891926969547058
-0.32601743106002467609272343906923
0.68746076537727573985137041745475
-2.34150196354480044647061731666327
0.51303314068490690758039818319958
-0.68777606074952868375760317576351
1.55654631977237656315082858782262
-1.20363873488667461053580609586788
-0.28565033504714631984455763813457
-0.95623478134425154983944139530649
0.63544203637533924755587122490397
2.02257974236414606039602404052857
-1.34859222111556831258383226668229
-1.43489323611881203213158642029157
-0.28065381880793993651934670197079
2.02855961445433319312314779381268
2.86003821022175808153065190708730
0.61335657707319013454139167151880
-1.05039344471761020294309219025308
0.12078436994939287241201952838310
0.11191311832986851337867761913003
1.04334052249099151765676651848480
0.94468864391916218536948690598365
1.54385761007717503545677573129069
-0.58395654381510564423507503306610
0.62858329433811888087291208648821
2.46488624081956375633239986200351
-0.28684557772464874814133395375393
-2.14879193125640455264147021807730
-0.34340069441802995031665091119066
W:
1.16086397250717054951962836639723
-0.42320844661965772992573420197004
1.18966427994205470319855066918535
3.08018487856401312896537092456128
0.72561619749279082647319683019305
-0.29010420343545462174006388522685
-2.09885844695706458296058372070547
1.90993110645954833337611944443779
-0.37838202585792596321923042523849
1.01271567897177350303650200658012
1.43077198443506681257986201671883
-0.73422185290184716066619330376852
