mlp_weights
I:6
J:5
K:2
V:
-0.90758594271796633190518832634552
1.15343007168799971395856118761003
2.07488642643433873757885521627031
-0.00807603698662323621348946289800
0.57233540416681827345257715933258
-0.54612200375278330266581860996666
0.90178699880101320651704099873314
-1.69875702533161998530886194203049
-0.16335973620049748511462439637398
3.22771383657329824501402981695719
-0.42662378057612154735878107203462
1.34148296942911926521446730475873
0.60715755889329481309601987959468
-1.05412543934266222933615608781110
-0.15955305405717284950029011270090
-0.49182853653532909721235455435817
-0.95580537487656747064335149843828
0.39653159981570906822412325709593
1.19112479300474305432544497307390
-0.73558477109678377381385416811099
1.47755950523737800139656428655144
0.37532854231743378869978755574266
0.79034596330994888457865954478621
0.38011633183724019557914175493352
0.36511202739727305344175078971602
-1.30531810401569159374446371657541
-1.30457152555288447004500085313339
-1.01699110276670223740325127437245
-1.17350488087212578847129407222383
-1.16637875725832329543152354744961
0.58654902209793480238886331790127
0.58509625744449977879924063017825
0.82043035452383705763423904500087
1.84379429465452715497519875498256
-0.26709282349725826932740346819628
W:
-0.23470987077480898186365720903268
-2.42294211209083520941476308507845
-0.51721617333430991436671320116147
0.59711713232595342581987551966449
0.70153978053906784762006054734229
1.19608332308309317504324553738115
-2.24968248881467003386092073924374
-2.48334197553872559893761717830785
-0.33048265301077739408697198086884
-0.38870955072033719357449399467441
-1.81331219239726681990987344761379
-1.28536099023585737022301600518404
