mlp_weights
I:6
J:5
K:2
V:
0.59996897603039256452461813751142
0.32362408477690962627093540504575
-0.36331839286178940762184197410534
0.06753127467636277359019914001692
-0.42032311732765442746639905635675
-0.17426743185882778708339913009695
3.06342014320740840815915362327360
-1.41254325270563052541206161549781
0.87982367985545995026086529833265
0.96823000874723708086833084962564
-0.49715518133281477730633923783898
-1.33513303228276414280628614505986
0.29973454912943231498445584293222
-0.52773766463512172819605439144652
-2.53981842101311361403759292443283
-0.37427143667213885747102608547721
0.15815046845809149766992618424410
1.05166372046064560130673726234818
0.41379211735272170002986058534589
1.24926739609664294583524224435678
0.21411537143200434774037432816840
1.22778925544048034268485025677364
0.06406484852561927789693640988844
1.09301729049075957433956318709534
0.20366391270768030574700446777570
0.83099629434207755718233556763153
-1.02916936071137321562218858161941
0.31680400140123521346424695366295
-0.04104542623447425542249078489476
1.10103677216756246082240977557376
-0.29210092480624716415604780195281
-1.00306299204202264974128411267884
0.22462267941139724136689892475260
1.16289721897363773628342187294038
0.32492761386974178261510814991198
W:
-1.45951470630824764462829534750199
-1.13229902366097823218638040998485
-1.43081889000991169247356538107852
-0.28299880247958231205274159947294
0.24402710041421332709532521221263
0.62982705146974360399525494358386
1.82307459186941178685970044170972
1.27738429876844006294334121776046
2.45816829668537639719261278514750
-0.49746440859849211379994926574000
-0.53876175279210580804090113815619
-0.98807361881905353406807535066037
