mlp_weights
I:6
J:5
K:2
V:
0.00397497165505976413069078034823
0.33226660663950779994735285072238
-1.32747245169305672085613423405448
1.20742372882070991835234963218682
0.53275385143430287193666572420625
1.49500827600811203588193620817037
0.56986282960276180009628888001316
-0.87294781153346678870263986027567
2.48743541229201925446545828890521
-0.89173678627823360631765581274522
-2.33899354096179745710060160490684
-0.69616488491684580530716175417183
-1.58163147240597967702058213035343
-1.84185694327005089476756438671146
2.58005324131386482022776363010053
-0.76800665549297209011569975700695
-0.66062876864401098853107896502479
-1.80146138323557236660121816385072
-2.86290374409954173628989337885287
1.16560811992565560579748762393137
1.38141558229457173112564305483829
-1.97371104669747232662757596699521
-0.34527756296762263099608958327735
-1.27678032795908036334253665700089
0.42086349523906296798969606243190
-2.02453040648954862845698698947672
-1.53016041029392635408612477476709
1.32428970242056331940716518147383
-0.43421903122312888179124001908349
-0.69930215734378986525143773178570
3.27700992899353726883759918564465
2.29625907711307286618307443859521
-0.14195603935270034723359344752680
-0.26383472290956666572725453079329
-0.38537526240717734360430313245161
W:
-0.43304815775852278925128757691709
0.24261935381471647077411546433723
1.04601350698774631098331155953929
-2.39957186229457342108162265503779
2.40685236659801127245827956357971
-0.24564388516781404669941935026145
-1.61665530505014021223075815214543
0.75254842354268203230560629890533
-0.70409497965508749395269205706427
0.90592088564044370713190801325254
0.26575076579520184871796573133906
-1.98659394315773685235626544454135
