mlp_weights
I:6
J:5
K:2
V:
0.06903705287462250095309457265103
0.34343122039533302558567129381117
-1.50000696863654803259180425811792
1.06904648090114373637504741054727
0.67738158781907187311333018442383
1.81819976688263329478445484710392
-0.06631686453500640343605709858821
-0.76942742258670915322937844393891
2.12252068224697421072733050095849
-0.84524071518712085016034052387113
-2.52671387712247552670419281639624
-0.32612742415387940830839852424106
-1.08057609839355484027123566193040
-1.79166121725919236240542886662297
2.19889666936007799336039170157164
-0.72089356176676688825466499110917
-0.74486580970116067490494060621131
-1.35603222952459190331353511282941
-2.17769375849979773818176909117028
0.72294712658909487945635419237078
2.12655146747844581156527965504210
-2.13645902151351041453608559095301
-0.30841959124708451245311380262137
-1.42157731093626060747681094653672
-0.36309414198210182567194692637713
-2.23854462330814341086693275428843
-1.96763837354564441461945989431115
2.00364835119411877073503092105966
0.00712451235872893495759683446522
-0.00185926173187483771698236267866
3.28645954672759943449023012362886
1.77872153959765477715393444668734
-0.19011661948656827236803223968309
0.11591727802351603493491438712226
-0.44920860645948862410747892681684
W:
0.35384757357554103007757362320262
0.25434334523868684652114779964904
0.86839902014589620549145365657751
-2.67464532084423156632624341000337
3.08989457614896734227727392863017
-0.19113648902419663744289834994561
-1.63854205022884191755849769833731
0.83612544426313650802740085055120
-0.83684044998179474283972467674175
0.95684265621682285107851839711657
0.19612750907531983912690520810429
-2.47280160889181832573058272828348
