mlp_weights
I:6
J:5
K:2
V:
-0.73406742858007345553517097869189
-3.17536647643673886065585065807682
-1.98946236258619713055395550327376
-0.15160834367814046697020557985525
0.10509558456526278680254193886867
-1.06811888698180479373434081935557
0.74886935163860557373993742658058
-0.11529532482791149394785179538303
1.37293623962234279112237800291041
1.27612463680590249026636229245923
1.63780804386193468147325802419800
-0.10303798725619456311264343639778
-2.13536078437423393339145150093827
0.97053719359074419603672367884428
-4.23678928824431455524290868197568
-0.24613201864743011748615231226722
-2.85395266006966163985225648502819
0.02240631714208130009780006730580
-0.93101645592791248962072359063313
-0.44141399385517998688044372102013
-1.78872249182611975371059997996781
-1.60507370808825511332429414323997
-1.57574869238219039679904653894482
-0.37888355830368924959117293838062
-0.40505771898214570914120713496231
1.45765988134447832536011446791235
-0.69655879043935597927372782578459
-2.50806181510293324521398972137831
-1.01729730609367008398180587391835
0.31510586546398799967505510721821
-1.00765565044134208783077610860346
-0.74166559651289543086960520668072
1.65563566542184181784591601171996
1.10730566029738897171341704961378
-1.48070860466586995407567428628681
W:
2.07860973646572366746454463282134
-1.67579259099149546763385387748713
-2.68829650966064237493924338195939
-3.18954436692203691094960049667861
0.12871648092377063754554455954349
-0.42000947338640887140925883613818
0.50612955481327071005637208145345
-2.40178232152675397159669046232011
-2.45498518216261452096205175621435
-1.38392792992981394917251236620359
-1.33696595918315974671486401348375
-1.29436505194579476452076960413251
