mlp_weights
I:6
J:5
K:2
V:
-0.74003425314180981686718041601125
-2.27759497873675753609745697758626
0.42895482259968720217813142880914
0.08472497040063470263859812803275
-1.61199655209102776787233324284898
1.35364304741518304275871287245536
0.60579514366033371253195127792424
0.12820179966885281164223897576449
2.12924343307540420155987703765277
-2.00853631568545543117920715303626
0.73659138899377574194460294165765
-0.67508629372323059048000004622736
-0.33690440244804042979609448593692
-1.16484918698588080232525499013718
2.41177188598050484813484217738733
0.09012108649765274148712990154308
1.58530589194454507584453040180961
-2.01236208468946564664747711503878
-2.04158583263783288685999650624581
-0.13463821804193440434538331373915
-1.96509134904518645292625933507225
1.96363889394706991886607738706516
0.42383075803595110508936727455875
-2.09385988291770530622670776210725
-0.52536810860696525615765040129190
0.10820016918657099358469508842973
2.13706492109022461178824414673727
-2.22464824371645253364704331033863
0.10845595264183252592893325072509
0.76248137214026090457963391600060
1.86024629021049570098966796649620
0.30014604399898398012780376120645
-1.51035705406465625699752308719326
-0.41667411617133554013747698263614
0.26606002041590104401080907337018
W:
-0.34095916421072980373452310232096
-0.34375088248976043425741977443977
2.59675735185325295972802450705785
1.37038115210172128932697432901477
0.43658024284064789188875010950142
1.88150908096029789717817948258016
-0.14725263478008185358270054621244
-0.67320280268408705381943946122192
-2.32160351081783922211343451635912
-1.42142670224134604062271591828903
0.46801138721706880829742658534087
-2.88689140901054974719386336801108
