mlp_weights
I:6
J:5
K:2
V:
-3.86970427844418063401121798960958
-1.66040909283980342436848331999499
1.38761786152068089528199834603583
-2.16767357370429980534254355006851
0.43715070138115952325108537479537
-1.28821560850161942468616871337872
1.64234533709127927814108716120245
1.34928570450812856940103756642202
1.40626470352140064967727539624320
-0.81669127567799704170425911797793
-1.09387688556593110078551944752689
-0.11885652756458217615964656488359
0.78917589773560092858417647221358
1.70849356543253683149430344201392
-0.01399135236716811392376769163093
0.55749498175098866070698022667784
1.58975150746870652618270014500013
0.84485133331782913401752921345178
0.80121032456528351595181902666809
1.58853226944623537875145302677993
0.54721412433880300962840692591271
-1.24408569928992407405132780695567
-0.86526665678459979691439230009564
-0.27303080741722585145225821179338
0.11325333410796345479099045405746
-0.19166242465238325642928884917637
-2.15425333165080212793895952927414
0.07605664238038731261859481946885
-0.13624023351032993334186471656722
0.06667990548539025341678865288486
-0.85962244474549964756704412138788
2.13265701273273000637686891423073
-2.28219835451839125894935023097787
-0.53774716320536408709074294165475
-1.48168780403157240854739029600751
W:
-0.32685318273252561560582307720324
-0.32483261493550413812059218798822
-1.55520879872117689934896134218434
-3.68844878853760915760062744084280
-1.89442287070244463897950026876060
-1.25469265990931311272049697436159
0.39351816472112832734353560226737
0.58675141116832330023811437058612
-0.87961980620128055186057736136718
0.75649370333706933422490692464635
1.31204030046497233108482305397047
-2.92015013789797350796106911730021
