mlp_weights
I:6
J:5
K:2
V:
-1.10307699896326361077569799817866
-2.72610674084939930139626085292548
-2.27370882236707938517383809085004
-0.20138643761864566394947928529291
-0.50469297347067565429057367509813
-0.50583971474099842513538760613301
0.82960670232913891197767952689901
-0.21262352261127481778402170675690
2.14898648895399135838601978321094
1.28811673588367425757894579874119
1.39470568000596473190455526491860
-0.56241388574074868689223194451188
-2.46767195769440172981035175325815
1.13046674616445930183772361488082
-4.93280248366928120162810955662280
-0.39091010667532388733746984144091
-2.82961608242976225824349967297167
-0.28324872679380797002579583931947
-0.73895354222677689381981736005400
-0.44353001337611241972069819894386
-1.75212284448852284590714134537848
-1.72836111708223971739073476783233
-2.09290110321390843139965909358580
-0.17083959379312346760215746144240
-0.92272634031443556690277318921289
1.76499958767403675174989530205494
-1.14161520948138450748388095234986
-2.98682233832379973037518539058510
-1.17470859421852202864045011665439
0.20740041361910035999649437599146
-0.88802466193334117505742142384406
-0.96130455000957171218800567658036
2.10044462399101972138737437489908
0.55961842705614950332915213948581
-1.51200713142427733970407643937506
W:
1.89999828179977514608367528126109
-1.60673411480574990228831211425131
-2.43385308612126438632117242377717
-3.30866764216851372282235388411209
0.10378966593432500942206786476163
-0.24180866611617504724485172573623
0.44293391120894609613856118812691
-3.00227379371145541853138638543896
-2.70178535144326747996501580928452
-2.19562107485746471624565856473055
-0.92876697422541854010091810778249
-0.99345172505345669122789331595413
