mlp_weights
I:6
J:5
K:2
V:
-0.66973148142906169244525926842471
-3.23663849170523976184199455019552
-1.94986253845835699749500236066524
0.07157588823953336953920256746642
0.06822596145061396444297940888646
-0.95749497708290198794145453575766
0.83891939973631279858778952984721
-0.37996535223285082816246926995518
1.45297575326437722331718305213144
1.02338671642514045245775378134567
1.46516975925142900472053497651359
-0.17998440705389165406025142601720
-2.48584179271615690609564808255527
0.79667023321884955500138403294841
-4.25485426024387525245629149139859
-0.41711416944584811528073942099581
-3.04906175437132187511224401532672
0.07261883840329334816043882483427
-0.67682633761746158196359601788572
-0.49115333986548520561754571644997
-2.18041049879414661205601078108884
-1.53394188131067665814555311953882
-1.80976689633576848237339618208352
-0.07701590052046689005571522557148
-0.77980290859651613111225287866546
1.52530421210054800695843368885107
-0.82502092948324812216043255830300
-2.37117264254551285418415318417829
-0.98792092477177484433070731029147
0.17843502750043976901039854965347
-1.05148871159058066027114364260342
-0.82610928961549678906095550701139
1.93166235624443305418651561922161
1.09162714935281313088921706366818
-1.42735379279739249547276358498493
W:
2.02109877823726780121660340228118
-1.62330227692597328648105303727789
-2.49289025134463626542924430395942
-3.39320280286990216822573529498186
0.17471861365330462745326656204270
-0.28927990423755145510398278929642
0.60948073933762025866656131256605
-2.70135187414413913131738809170201
-2.68313685411795654900402041675989
-1.39967687476994528950058338523377
-1.21596894974261315880426082003396
-0.98568491944394087678205096381134
