mlp_weights
I:6
J:5
K:2
V:
0.73476806907923908340762864099815
-3.25537532497296577815859563997947
0.17886026298910437382083671309374
-1.25225529431679971636981463234406
-2.02435116704359252537415159167722
-1.66725505218224179238006854575360
-0.29919905769027743680510411650175
0.72574397931157141883318217878696
-2.40413501392254547184279545035679
0.35057709643974788171760792465648
-0.71871680381733271669730811481713
1.56751534180294438414193791686557
-1.35615386085900935242420928261708
-0.30891279215198796936903136156616
-0.73686745781350415640531537064817
0.54777531571793858233831997495145
2.06528894592304768096369116392452
-1.21710766704302830731876383651979
-1.57305720098063339662530779605731
-0.41986141351809935784444860473741
1.96915699682690026328657495469088
2.78401312697297154130637864000164
0.74595436341539977931347493722569
-0.98175892870583170157772201491753
0.05767321275828717064282358251148
-0.12492623108642463003459255332928
0.95238175942445613131326354050543
0.97478960653105595213219203287736
1.45967424802231215963388422096614
-0.56217344971831051392285871770582
0.58410589869444973221135342100752
2.67594205159215547951134794857353
-0.21138691811041565582485191043816
-2.29691096562430985272840189281851
-0.42593975743291712099392043455737
W:
1.16919855437600239689288628142094
-0.33474114472273985843031596232322
1.23036176635828464753785738139413
3.04755954682154728274667832010891
0.64634548139052416804162248809007
-0.43796303507059630710784858820261
-2.15020751127551257297909614862874
1.90803104886383834148944060871145
-0.33253107669579018423888783217990
0.93790308441789405069499707678915
1.40231815654927638448157267703209
-0.83367668506290060204122482900857
