mlp_weights
I:6
J:5
K:2
V:
-0.77112002335155860333060218181345
1.30428689775101647185806541529018
2.48695441265724381807444842706900
0.13993201695850895904804644942487
0.95390232132979069223921442244318
-0.65978903851482517683990636214730
0.82726808888153191556824594954378
-1.80911287371817297575660177244572
0.02183540630507595226017514278283
3.59924450992937261517568003910128
-0.44115104835658613957605211908231
1.29857707844303194022472780488897
0.26901809833559420237492076921626
-1.09839142334090755781517145805992
-0.03904435983807848925541961193630
-0.76689316171950350220498648923240
-1.26603908428676148467673101549735
0.12597096932241289013454377254675
1.34997943166250911062320483324584
-0.69511709995718373722439764605951
1.20363300846527154774889822874684
0.21930105925752108042559029854601
0.83331002838056245085596174249076
0.42565867422612402304338274916518
0.47249919579482602127740165087744
-0.92681850625027428769442394695943
-1.10588016009516509896570823912043
-1.00889826169556418022921207011677
-1.57165429002534784430622494255658
-0.79131731182572973004596406099154
0.91907890951571757920390837170999
0.37561542174976164654154331401514
0.57796382818596436781177771990770
1.53305187124755781802321052964544
-0.43198959301872769112051742013136
W:
-0.29445569454614395343838850749307
-2.38534948324869278124538141128141
-0.52232857768616158811170180342742
0.46089565292308631860862533358159
0.68282617235329901017593101641978
1.18887738396368058957364155503456
-2.35701052114140097160088771488518
-2.33847460466351364516413013916463
-0.36481940135767032540314858124475
-0.22097008645192139919544160875375
-2.04566481761977891906667537114117
-1.41451050643146380991765909129754
