mlp_weights
I:6
J:5
K:2
V:
0.84726733241225626880321897260728
0.49653500473119405178579199855449
-0.28519090178702910520769364666194
-0.20631888617419111286999111598561
-0.44943913096837767584545986210287
-0.21104647327933168110547512696940
2.89243520284535415854065831808839
-1.34329065928376056859860909753479
0.97704717539698759942723427229794
1.03537857092680130044470843131421
-0.66318617139164071083712315157754
-1.34611563960658653371638138196431
0.12978422393947919299961313299718
-0.35256061320433929040518705733120
-2.59186952499545286698889867693651
-0.18712750160989291559054947811092
0.07081349617462728840422414577915
0.94285051467092173549389144682209
0.55876825910698513233398898591986
1.16533563338061085801200533751398
0.29271513401236437523778022296028
1.47122905301762174623547707597027
0.13113810943237902417735085691675
1.05975897967300181079508547554724
-0.06792625275107044835465330834268
0.62780556019553035440594612737186
-1.02263973827584742082308366661891
0.46758364466764185118918817352096
-0.19449943945734213257559019893961
1.23370327611621632968308404088020
-0.14923239765925100375199008340132
-0.95644631911129274204341754739289
0.08885321708140872520864661510132
1.18511524528517964149898489267798
0.41619299761523742553492866136367
W:
-1.39717513971410411954821029212326
-1.28346909073537873702264278108487
-1.45700362508507774705890369659755
-0.17894396754848695962891724775545
0.12375580292358090428450623221579
0.79169686785899828773693798211752
1.93246807099041761901503377885092
1.10124170117579622818482221191516
2.51057812379153677539989075739868
-0.49241750301910058862375763055752
-0.50406589144422797588163120963145
-1.02977660610411825281573783286149
