mlp_weights
I:6
J:5
K:2
V:
-1.43170788607034560335762307659024
-0.49120459209019329271939113823464
3.09459896850071736196241545258090
0.32511906719874089644051196046348
0.38322521699230066571928432495042
-0.11583885976285930585749639476489
-0.54616254854299883803037118923385
-1.07017556744577180261046578380046
-0.81933262846727139550040419635479
0.76058409913402846846963711868739
-0.48067112889364355110544124727312
-0.86001754983032119294961148625589
0.82733269602425885125285276444629
-2.66446969475961870088553951063659
2.22060634037163673326631396776065
0.56047885551769394130161572320503
0.27257980483667665350111519728671
0.12845488884227665438153564991808
0.30448802481551368037671068123018
2.80994741151628346642610267736018
-0.92093652635931833039251159789274
0.26694853600362067336249083382427
-0.37780583668756534398980306832527
-1.81974458134706718048789753083838
-1.09705734297163437496180904417997
0.92931690774090824902486929204315
-1.57758201498255834493988913891371
-1.45174710792304617612558104156051
-0.98522371236210237732677796884673
2.37489915390188954802397347521037
0.67033063429776373887136742268922
1.34620474620479591010280273621902
0.52818958916312053197827935946407
-2.34731865906193304383009490265977
0.26162510935545502110954885210958
W:
-1.07807611494992028333683720120462
-1.49661026746542713539156466140412
2.72518934960083081264770044072066
0.98879189439837233965846507999231
0.01558157349057551904758511795990
-1.72863680813843845207600224966882
0.06427734408227558926540723405196
0.85821407966620788521083795785671
-1.96805320973523834027218981646001
0.78803587781306860815533354980289
0.52269036485976505534978286959813
-2.71609221966191549668678817397449
