mlp_weights
I:6
J:5
K:2
V:
-0.69201814265868832887207418025355
-2.37649891204446239711955968232360
0.27555416711924907158248743144213
0.28726507323547550987186127713358
-1.49744739516102542964404165104497
1.11224447729373165927313493739348
0.63214086368118604930543824593769
-0.01219522307176342662549117790149
1.88438521334044284394337864796398
-1.93534820165020216009565956483129
0.78643714123456887055141351083876
-0.37487380386161672785050313905231
-0.12124698889362017784065983505570
-1.12906162084614147822492213890655
2.54282155904037487914592929882929
0.29864594019648349476625526222051
1.36825347314793011044287140975939
-2.11005343325601035786576176178642
-2.41649213937698048582092269498389
-0.17824531690974623754364358774183
-1.94549225611956488890541550063062
2.41386941868008575440285312652122
0.40548520024047784993115328688873
-2.02506828328640064995624925359152
-0.71654720503295865619008964131353
0.14149671541014388620460806578194
2.10836219934899071759559774363879
-2.14964215539299763335634452232625
0.33225079651316519191439624592022
0.83340041179529589232544140031678
1.85517650237780817867871974158334
0.31757375277972726967945504839008
-1.57146891510719943774176954320865
-0.44076845322431779106153726388584
0.16933603376368080994929243843217
W:
-0.36207451056479239559493521483091
-0.60866333143274098382846659660572
2.33935680431784032151654173503630
1.43917020463687306275346600159537
0.32235079770401076082464442151831
2.04037000598674422846556808508467
-0.09225670518639889072787241275364
-0.52675324617739227583967931423103
-2.05479249251026674372155866876710
-1.39136612197817344238615078211296
0.67040552581013834743117740799789
-2.85170605476415417456337308976799
