mlp_weights
I:6
J:5
K:2
V:
0.52409327558091556298336399777327
0.42776518249706019236811016526190
0.49727797314418742402608586417045
-1.32187950811547083596053653309355
-0.42154465645522537498024462365720
-0.00160884158001593086106950636349
3.12121510467358609375310152245220
1.99415846485258585474298342887778
-0.02194287744075920643105348517565
1.25815936072817491364617126237135
0.82700780941411200508639467443572
1.09012292489368212144995595735963
-2.30603966784768221742751848069020
-0.17661143593895695103057619235187
-0.40957806705569443916914451619959
0.14353988510440723880279279001115
-1.37211877677921778584391176991630
0.81074323129811531885025033261627
1.93736335560988925941217075887835
-2.54119070092685683803779284062330
1.48853380565407777957886992226122
1.79995994250606416997584346972872
1.32451641062120706315852203260874
1.72398886601963208242693781357957
-1.07782866991108261522924749442609
0.01188316428711057304301590420437
-0.28743848392682880277249068967649
-0.76961451177624395914023125442327
-2.43074319073388345202602067729458
-0.97772894138660149110364727675915
-3.92498792238104909912976836494636
-0.33505470464754794068795717976172
-0.43095680846025563592860407879925
-1.60956284847428210404984838532982
0.64415490284238408058570257708197
W:
0.73983913583082161480319882684853
1.45732604600474924261277465120656
2.30323619754218977817572522326373
2.48474684485331209771175053901970
-1.73993066328919954166565275954781
-3.86309609094398842543682803807314
-1.08170255206041088236190716997953
-1.27961905434816336502024114452070
-2.59348143263433739136303302075248
1.35993429091625239735208197089378
0.85065867582936971480478405283066
-0.92804789413482891013984499295475
