mlp_weights
I:6
J:5
K:2
V:
-0.83638335948802711161675915718661
1.28048171914100139545666934282053
2.11892994998446848597950520343147
-0.05690851945334798878128879096039
0.62235528130299511140322010760428
-0.69610267265150715942922943213489
0.73159960675727264689527373775491
-1.59523654509373602472521724848775
-0.06461923569845706705194743335596
3.26878147226485848975130465987604
-0.32927646272861821330479870084673
1.26724941281320280239697240176611
0.17455785067891288475649957945279
-1.06723991096087655883195566275390
-0.00375795218138279783770538955423
-0.35433161573105559360996608120331
-1.07021110154183407559003171627410
0.34174683107964071160367325319385
1.60436476433257868556836456264136
-0.99895545155077603016735565688577
1.28055164760755313402285082702292
0.42925027896895684431655126900296
0.88155298195704434593977794065722
0.30753601179490969164120883760916
0.28572791507397843346893751004245
-1.01629206744521338734443816065323
-0.87907207311899249191355920629576
-0.98785446521540865028043754136888
-0.97689779570402179853516599905561
-0.97690331321431222999507326676394
0.97048898370140190827726200950565
0.46283203667812122805713670459227
0.47072597325182802263654480157129
1.58297545942008111019561056309612
-0.50618995968665125850804997753585
W:
-0.21095819814550570425737419100187
-2.43816433094442386320110927044880
-0.50185227425471945483792524100863
0.90093894072299729458563888329081
0.57908651518004772285053149971645
1.17261597539953754676389507949352
-2.63752016380104947756990441121161
-2.32916885460201150692682858789340
-0.09902130591881591614722424310457
-0.19042404851975786028717152476020
-1.88938212070148892074428204068681
-1.39656876188411982475656714086654
