mlp_weights
I:6
J:5
K:2
V:
0.40622921810206447101876392480335
0.17196898500543467136481012857985
-0.61919475827223779962338312543579
0.30227505535501153488553427450825
-0.28877468936192113302396933249838
0.27740520059045520318008470894711
3.63938773305149032566419009526726
-1.45495489009411271830174428032478
1.17834253394365484624017881287728
0.64896111799497346872556136077037
-0.42860252610177718146644565422321
-1.25275269067699945857441434782231
1.21197849202505847365785029978724
-0.71855669409002942416009318549186
-1.76388314329156914439522552129347
-0.17147747811018623775858316093945
0.42949201937286674013449783160468
1.25474373153035689831824583961861
1.29750879106025496234622096380917
1.16997371523704485340999781328719
0.82708385715442256369556162098888
0.73658718243537601999548769526882
-0.38042377695404683279889468394686
1.63707129362623704516011002851883
0.85407304805843842210322236496722
0.62346668805864080553646999760531
-0.28341537926259979807142030949763
0.73796696712260401174177104621776
-0.85436542206554100253868000436341
0.51807140536307483280609176290454
-0.20967702462421958231608698497439
-2.11351517970007662938769499305636
-0.10298211350584562939758370703203
0.11231178750656803377871995053283
1.27191817870886070274139001412550
W:
-1.36172978511284914482359909015941
-0.96772115168485728364800024792203
-1.09668567799473093415940638806205
0.30235460709226652520342781826912
0.75604534001855416835979895040509
0.61769015903292490143883242126321
1.77205449284796712206002666789573
0.97137193144685163304075103951618
2.51532752152931315947625989792868
-1.20968446372178872749714173551183
-0.04502103152189494000845471077810
-0.93961108365311329926328198780539
