mlp_weights
I:6
J:5
K:2
V:
-0.02509772326637733919074690902562
0.14546794238485261097082457126817
1.95049179190595078914327586971922
-0.35754511932165627952073805317923
1.30313897147483981342475090059452
-0.64413504222340400851010144833708
1.23245461999378869144550208147848
0.04138262755492322364503365861310
-0.55583556103954290250612757517956
1.21250576768635465185752764227800
0.57332394973257694292811947889277
0.78470790074220708731900231214240
0.25331287021452403296351008066267
-1.38137047232715648448220235877670
0.98628672995891453201267040640232
-0.55405038896633440614891696895938
0.23052838612317799737994050701673
0.10232779737232662597978816165778
-1.55327613397244523874007882113801
0.05348015355580658380940661800196
-0.25129451116699025314815685305803
-1.16693067883419820951473866443848
-0.40624954981493455186125629552407
-1.48437181997808997913068651541835
-0.72431024041822600345597038540291
-0.65034234523697709295930735606817
-0.58050331147693723377045671441010
1.09070983283838218724781654600520
0.90075748491519558314166715717874
1.40754886422178770999380503781140
0.17525754052365133395241514335794
0.04588876377742089063271890836404
0.52029061032513790330256142624421
-1.16119185094694832294237585301744
0.98740648010087972430426361825084
W:
1.65893963212685235930621274746954
-0.16777555863087587062487671119015
1.57006033415643075912271342531312
-2.47779309826562510465919331181794
1.56943148491523931653546242159791
-0.16264921560206330175546440841572
0.00416503059913747586406884693133
1.79024449956742848222290831472492
-1.50617525567586074686232677777298
-0.14657715803144444333128149082768
0.97905842431236367318092561617959
-1.44120177170312913084160300059011
