mlp_weights
I:6
J:5
K:2
V:
0.25388989553994262271530146790610
-0.32276528885698629878220344835427
0.23464063093198433973540772967681
-0.80274757262846463401473329213331
0.06079928001118473090969018812757
0.85677813744923581040779936301988
1.41047505444818011000052138115279
2.13943693041194293869011744391173
0.00784184891321701438293700903159
0.57368040980545509377463986311341
2.70415647790195645683297698269598
1.43778152035756501270213902898831
-0.81996595270985650483197559879045
0.35755220242177854217402455105912
-0.83434213251883559969712678139331
-0.23916588029404775572750452283799
-2.98958611654651829070417079492472
-2.00153286494023863184565925621428
-0.42375297854049498447182031668490
-1.18534278480641974695686258201022
0.35988738016400645403081171025406
-2.97514468712634583269505128555465
0.47442674270804008340718382896739
-0.39741156674416411309636032456183
0.85112458949820646303408011590363
-0.53925729380851450400768953841180
-2.31990023391115895989855744119268
-1.46783714826453159929542380268686
-4.27293004782570751132197983679362
-2.01110284490685575775614779558964
0.07656506289531282705151937761912
-0.32078547646305255458543115310022
1.89850071172123824325694840808865
2.10182392874219603484675644722302
-1.24506289528276958833430398954079
W:
2.32580683868602156039173678436782
0.87127811384366760094621895404998
-0.00671061745026151762472110817725
-0.71720488344252142365320423778030
-1.87716660637305432501875657180790
-1.42999879506558058572807112795999
0.19187524615074125211577893423964
1.10672455437507677444841647229623
-1.40891841122144634290691556088859
-0.92813328025972341439597812495776
-1.42564066491126473223971515835728
0.41951712843094318694525668433926
