mlp_weights
I:6
J:5
K:2
V:
0.54717220571915059501577616174472
0.24686939581513767105747092500678
0.22337931299614949276488573559618
-1.33740568087151401321932553400984
-0.16187215734917861920116877172404
-0.12393041337998712825285707594958
2.97492611137598927939507120754570
2.07103487119624407597484605503269
-0.15861314349504168630389244754042
1.11382754502695391352062870282680
0.98054923160186135966398524033139
0.89697313312400994700368528356194
-2.22952691150736503900020579749253
-0.22598863123807766406514474510914
-0.68622190601207133653360870084725
0.14369812263229053694857384471106
-1.50002006643047280931568820960820
1.06419045914542187425411157164490
1.85497959560433356429598461545538
-2.28285120750187209281989453302231
1.48175059819727006349410203256411
1.84068816380521349529431063274387
1.13548070516606047775098886631895
1.86481471138676946353029961755965
-0.85487603903764397550446574314265
-0.05225799166123760997049174648055
-0.36390161060223702449434313166421
-0.62533698156296901871087356994394
-2.19900279340577897713160382409114
-1.02143586296004373892287730996031
-3.82696147563245325784464512253180
-0.16600276479381978478322423598001
-0.56341071874529369267747824778780
-1.63955511840329015704753601312404
0.81493505342279426439944245430524
W:
0.69557192917763210893156156089390
1.38491925431474016683353056578198
2.24615075755371895738221610372420
2.47505830562560369401126081356779
-1.67758141102207014583314048650209
-3.58525636108531564616441755788401
-0.95149268762908367769171036343323
-1.41401933714278693621224647358758
-2.38469319839747795342077552049886
1.39164390106948987479995594185311
0.94112282822025294937162698261091
-0.92794278523418538551226220079116
