mlp_weights
I:6
J:5
K:2
V:
-0.58351185361420587760505895857932
-2.36161070300917730335754640691448
0.40055497483224211663355163182132
0.01621676806437121268200662882464
-1.59129101986663301637747736094752
1.06636456372641541534562747983728
0.57279724055445224717431074168417
0.40732897213994401219849805784179
1.87782905650453035839575477439212
-2.26773988328129938452093483647332
0.88594829255844276261200320732314
-0.68456884275583329557690603905939
-0.04981813479258607318955753839873
-1.08513691026032255138034088304266
2.57096172524593402641812645015307
-0.09235053156517659955770938040587
1.51178316874541307512913590471726
-2.53138107051581773276893727597781
-2.72841177045841032366979561629705
0.17117223199416317647170160398673
-2.10392660551512689082187534950208
2.27165146023229569394175086927135
0.42446898144662797980330992686504
-1.90639707459661522648275422398001
-0.64451813016433856518005995894782
-0.35430165605529673200635443208739
2.05514418442501245465336978668347
-2.08245295273023245385957125108689
0.10994770403446676998449049733608
0.77406079859053822378456288788584
1.91879283822302704187734434526647
-0.00331487592038828826623841905530
-1.95043274130982791092492334428243
-0.47655988961529355263380125506956
0.31895878193876853190502629331604
W:
-0.75266699754975296965398001702852
-0.22791036905723444094817864424840
2.52253775788608125552059391338844
1.36963296632795250573622070078272
0.45956276563542497459735614029341
1.97611705590882880123615450429497
-0.10454722741202107649804986522213
-0.45614715238337444347394011856522
-2.46750914146423516726258640119340
-1.50634122209055254515419619565364
0.64055481478892750679676737490809
-2.97544599262019993091143987840042
