mlp_weights
I:6
J:5
K:2
V:
-3.84582903346251647747067181626335
-1.50682137689269879388120898511261
1.60227343674070299428535690822173
-2.18948983631500304625205899355933
0.22850023049244527761914014263311
-1.34654211352328201378725225367816
1.57291310520404992168153057718882
1.78941352380665730237296884297393
1.26528218383911128519514477375196
-0.76862057705242570193604478845373
-1.35634593845904483089270797790959
-0.26882924808003622052510195317154
0.84792276874721139723334317750414
1.57738336821916091956552463670960
0.20776654458720103524349553936190
0.31756869234660445311391185896355
1.72481905485406672440262809686828
1.02769058666962487258444980398053
0.59041899224157035064308729488403
1.55156451367203462865518304170109
0.30431827132206035191330784073216
-1.55740631683989638744947114901152
-0.77037882012391478703250413673231
-0.41560653513819167947929145157104
0.12888082645814147308982455797377
-0.44904193885544591013925241895777
-2.18506932044867152598044413025491
0.22381684617425631755871506811673
-0.16873590062108223541770257725148
0.31549544535365803277215945854550
-0.83889910481463769720278378372313
1.90203856915626623447224119445309
-2.44954132464044027628347066638526
-0.77097910207988373798571046791039
-1.51794032750203733428406849270687
W:
-0.26158150229485438442722511354077
0.06066662329661670627345415596210
-1.43152432157051756611565451748902
-3.67607060666035234675064202747308
-2.05615809904204693836504702630918
-1.34402840441197524157246334652882
0.31890672083304982820095574425068
0.50336958402513776178466287092306
-0.98008673309738014722825028002262
0.85402003490561906318134788307361
1.32787297646041002607830705528613
-2.67165197269632193055599600484129
