mlp_weights
I:6
J:5
K:2
V:
0.82206107032941477807952423972893
-0.42914179239596417225754976243479
-0.12183654695250259458738639750663
-0.81608364208585848498245240989490
-0.27185916164719664545046384773741
0.90153448051108953098520260027726
1.50516078573981371135914741898887
1.69103056741055945977336705254856
-0.19860538090381929521299753105268
0.78675537648927496015005544904852
2.83094319139669403639913980441634
1.15298599154579850534219076507725
-0.40749427106629126926762296534434
0.24441614160004132560999323686701
-0.87988499959115762383277115077362
-0.35704069499384799568630910471256
-2.90015354436089500822504305688199
-2.22742174997091657573378142842557
-0.57976882943483498689118960101041
-1.27921357234162602622973281540908
0.01240587366376100231235568571719
-3.02216091537154740720438894641120
0.36153038895920652784354842879111
-0.55269766047957191723583036946366
0.61288884434919777000061458238633
-0.46535364575795062913599053899816
-2.18365450368875135822577249200549
-1.60026374075810151609289277985226
-3.88979354831824197802347953256685
-1.88454979661242982835744896874530
-0.05668330237770075746839282260225
-0.46618275046070878353532407345483
2.13340885684200776140073685382959
1.99067582376066254390423182485392
-1.30183385853515454222417702112580
W:
2.71579639143171647219787701033056
0.82664832696056755878544208826497
-0.16387647987733655607911487095407
-0.04889667812442401173544936909821
-1.62339666455398856648173477879027
-1.24924508010866519569503907405306
0.42467759652512626633580339330365
0.93498939453749407846316898940131
-1.08770198252448824227656132279662
-0.72434435705483957157468921650434
-1.98784000670633953511412528314395
0.60356894820014106439742818110972
