mlp_weights
I:6
J:5
K:2
V:
-0.93417652011686513890964533857186
1.27722064914503663501932351209689
2.61176399765997846458276399062015
0.03437889143401573477376587106846
0.72069530120365754566336136122118
-0.87136298843255288737452701752773
0.86984619717996403132076466135914
-1.69678853138887619778074622445274
-0.02696794890475384676165049313568
3.17838551463740426328286048374139
-0.31712890200237420224027573567582
1.26053335929164300743821058858884
0.21431764219006363414443683268473
-1.15092846597771369943075114861131
0.03089082371582427960499117602922
-0.33901241152589733918176762017538
-1.19614330142586711147600908589084
0.29486711908883306287876280293858
1.43431975656395982454682780371513
-1.00518710458414739505883517267648
1.29937761014293884365145004267106
0.52945202985306405452092803898267
0.90435443054152730990580266734469
0.30217579111058312513193868653616
0.15784927994117209371083276892023
-1.10986274163400122638734046631726
-0.98636266683139461886042909100070
-1.25143602670086528938497849594569
-1.20275584026134496617999047884950
-1.17426055514349259034645456267754
0.93867115407595203002699690841837
0.50883902073909281771335599842132
0.61482255588075773733436335533042
1.33472932367384067298132777068531
-0.58652635756838944480762165767374
W:
-0.32538746727114031820349282497773
-2.59646144212545904039757260761689
-0.58304412580406850263869955597329
1.05790297212503037194153421296505
0.63593313290750319577426807882148
1.41155155795827025322353165392997
-2.46780097114795449186885889503174
-2.34527815753138879628636459528934
-0.31574884330220420736168307485059
-0.37520556164498886086988704846590
-1.69487457808378083612410591740627
-1.32712764598184529418745114526246
