mlp_weights
I:6
J:5
K:2
V:
0.39194056341009597677071951693506
-0.18387423149674111955143018803938
-0.06539025901225134496108637449652
-0.95882084906396736201372732466552
-0.38729245507819892724299393194087
1.00648055694214821897958245244808
1.25190311825928990430156773072667
2.29885896627917940548968545044772
-0.08034297818758451281695442958153
0.89771429367983501812489066651324
2.59183333267559490309395187068731
1.56930278433918535263558169390308
-0.61578788002923923183828947003349
0.09971667935923961278987803780183
-0.72578051787818631535031954626902
-0.57316741359194012250810601472040
-3.06090858955756139891946077113971
-1.84169046345739428893750755378278
-0.14792159099336854577444455571822
-1.26496216327210397878388903336599
0.15902296026692902541910257241398
-2.68913609728743008275841930299066
0.49128274258006854324776213616133
-0.24518319089967732793411414604634
0.47264380446023929183141376597632
-0.26291619967075491315355861843273
-2.15226972689784945558244544372428
-1.94367757172361543815952700242633
-3.98161615612489105942017886263784
-1.93948049693739843490902785561047
-0.09712157836575685543323288584361
-0.22101276123373614357348060366348
2.11979145458171869265129316772800
1.76615883272479301524526817956939
-1.47681952326959242682846706884447
W:
2.44476123654930432849141652695835
0.68568484611249447269187839992810
-0.00383225836217750137624449280338
-0.79646938521219046158705623383867
-1.63083815074076565743155242671492
-1.35779414357918892797272292227717
-0.07041026564305008506039484927896
0.88999954083078136601869800870190
-1.60015657242201791987668002548162
-0.65631282786563160946968764619669
-1.94802024010679053489525358600076
0.31731580568870776382084386568749
