mlp_weights
I:6
J:5
K:2
V:
-1.07252238683880829483996421913616
-2.76037576880401180901003499457147
-2.32293590292556073606533573183697
0.03021211961583308847067996794067
-0.41955567963674494924575242293940
-0.57764120471472113482747090529301
1.02930200222144541122304417513078
-0.17552928274964568755578397940553
2.08563115189002168392562452936545
1.24407810061462376083341041521635
1.41975071889086268406288127152948
-0.59791207611508467856253901118180
-2.55585375895338184903948786086403
0.84572672469162790687136066480889
-4.75730514968278850318483819137327
-0.44230160723653993981585585970606
-2.64251859390852450459874489752110
-0.34835872880711193921854373911628
-0.56191389369022903821360159781761
-0.44355986753036946712569488227018
-1.90080508172110995701586944051087
-1.66787728718082695067437271063682
-2.06047704216127591791973827639595
-0.02226680275601303216070903090440
-0.85341520946672566605428755792673
1.71339069082073836014501466706861
-1.30085860692924071280174302955857
-2.96971084446527555655848118476570
-0.96548152659594776991980324964970
0.40342302156631926202123850089265
-1.00593594801074770472837371926289
-0.96597822865578275575160205335123
2.14584314269643128270104170951527
0.82069790324397950964652181937709
-1.51921842846503474255825949512655
W:
2.18807399516146583451359219907317
-1.54890461613459073930698650656268
-1.96906984149181663035221845348133
-3.44907249178980634951585670933127
0.12760207607827528386579274410906
-0.06942300513882064538773164485974
0.33511240606597797464516474974516
-3.08328837321526094683576957322657
-2.82407284272945613423644317663275
-2.07917521966200213867637103248853
-1.05148466607225699043226541107288
-1.04032510722214954768105599214323
