mlp_weights
I:6
J:5
K:2
V:
-0.62965989349421480625323965796269
-3.14614015833288007684132026042789
-2.09410970771235938059362524654716
-0.11028011029771965512136233655838
-0.13043869010205086378384464751434
-1.11908659404795263192511356464820
0.75462890985198494142593972355826
-0.51570021634533369514485912077362
1.58528609747407411845188107690774
1.11772591419263056522481747379061
1.45667976555475986444321279122960
-0.27078736685149962237773024753551
-2.38812018997563102473691287741531
0.70898128155350603751827520682127
-4.29771786009302037001589269493707
-0.25454490949970487445597200348857
-3.09987392814447115796383513952605
0.01488172852964643466666672111387
-1.03090870705020831721299146011006
-0.60598354121724828935668938356685
-2.10348379063380441778008389519528
-1.48887920112217719825764561392134
-1.77030404564624266328110024915077
-0.10251320660636144277422232562458
-0.54216620507532020667440519900993
1.31525364294842272983032671618275
-0.96676042301585007887609890531166
-2.39433974888460188168437525746413
-0.95829975690314228575772403928568
0.48794002916544054748726466641529
-1.05142802340697150143000726529863
-0.92018886808332212012828676961362
1.82588293636763521199384285864653
0.93610932400528013008766947677941
-1.56530581196745988137308813747950
W:
1.76124447564388475484520313329995
-1.77676567961835574216422628524015
-2.67335328536797467435803810076322
-3.46172226487054324195469234837219
0.12793643060504969466428804025782
-0.22785291908718330322614065153175
0.63025744909975311980332435268792
-2.57292279786387423357041370763909
-2.55407337945630441566891022375785
-1.58084704380719220928597223974066
-1.10022772994154749426343187224120
-1.12694091040317356799960180069320
