mlp_weights
I:6
J:5
K:2
V:
-0.94471555351821978607773644398549
0.98921210907786683019793372295680
2.12530560776306742809538263827562
0.03233983600149218512465054686800
0.72959063014068492591945869207848
-0.81878204701439927237771598811378
0.93528397078254721375145663841977
-1.48922292523234256478303905169014
0.02809115075364498892440678901039
3.35860901377080267593555618077517
-0.52017557601234332143036453999230
1.40803767135353430361988102959003
0.48135339208160293766880499788385
-1.09541827665944224712291088508209
-0.32923723393327553043974376123515
-0.62081718576849820312446581738186
-1.16737372449829734932791325263679
0.34505465714715033431758683946100
1.15703979190533723375722274795407
-0.60504012939696916184573183272732
1.28746017613424612591188633814454
0.18872649158635393384919609616190
0.89267983126985039898926288515213
0.38181311953271263037734684075986
0.24622987341789867588026652356348
-1.09710757471333431034565819572890
-1.10185061738324496793950402206974
-0.96748478868007292685859965786221
-1.10427917100777839287673032231396
-1.09689318477752362213095693732612
0.66358381947622291363586555235088
0.74003925932192826664390850055497
0.77682753240626822854864030887256
1.97475004724442193548838986316696
-0.56967749077728313533697246384691
W:
0.07388441111637436553571944841678
-2.37604962875462799587467088713311
-0.54896258241172202207991404065979
0.53074627344380864713002665666863
0.77835913179058424660183845844585
1.35095100519889466106349118490471
-2.28002772699341083040280864224769
-2.46418082812192684727392588683870
-0.05791208346821033470241957274993
-0.43270840870978177772343542528688
-1.82470939377251917257183322362835
-1.10384219937604055594704277609708
