mlp_weights
I:6
J:5
K:2
V:
0.34472956760344558579944873599743
-3.53159153966919925338174834905658
0.46357175745446832504370604510768
-1.36696712461953229222899608430453
-2.15918501461438916422252987104002
-1.62938499441508621856655736337416
-0.27996546502856894944599730479240
0.11334080945918209581968483234959
-2.10579123527562872553176021028776
0.87916809609281798554292208791594
-1.13842667393594165758941016974859
1.92467363557120818562395925255259
-0.87093075971423450365449525634176
-0.44158569479967424431521294536651
-0.53574940935508474915138776850654
0.66583374683006602001711371485726
2.08677686115246618925311850034632
-0.72205123751916666652306275864248
-1.94671712961781584461107286188053
-0.51544904129367408174289266753476
2.07748927885333944942658490617760
2.86708815607618339171835941669997
0.25749498557324174141669459459081
-0.74210755379855763980145866298699
0.03301703113047062265739128861242
0.05558850620725744318129102339299
0.72844022881464509655558003942133
1.51624442490388111615118305053329
0.32194995756197147818156167886627
-0.91651490234299060055889185605338
0.51995570462130935585065572013264
2.13998717091405810108994955953676
-0.09277625932431789179677394940882
-2.44591410854879498515401792246848
-1.11650212073528520839715838519624
W:
1.10759284697783599860088088462362
-0.91992339603324058128208662310499
1.20107294516185558741483418998541
3.00686690653094235159414893132634
0.66560975486782547605457693862263
-0.34772313071323585065286465578538
-2.29294561277873043536601471714675
1.38757283760751537471378469490446
-0.33167513881277588261298205907224
1.25843920168392209291141625726596
1.88366613110245673112785880221054
-0.54887133144223776426429139974061
