mlp_weights
I:6
J:5
K:2
V:
-1.38060284017367562725553398195188
-0.52584949350538423562539946942707
2.99354113352728745667263865470886
0.37108266385148513943903481049347
0.32788723694618149284707442348008
-0.18115552195185802286658827142674
-0.51173308117822935425778041462763
-1.01566439892234705588691667799139
-0.90904030943454472435405477881432
0.87804116685178901224873015962658
-0.48412755722322220464093334157951
-0.91552414503649437449439574265853
0.63839536881899294762376939615933
-2.70906442820241810665038428851403
2.30247412530379103046129785070661
0.59297898013893490798409402486868
0.17302041333093576280788283838774
0.06939202180363658600814602550599
0.15630654199883120547553971846355
2.75272509361801809291137033142149
-0.98321888363702758528717140507069
0.42555537939788151691189455050335
-0.31463042834830790006606093811570
-1.93551500161760436924396344693378
-0.98388368247165058910752577503445
0.73799275934627384110342518397374
-1.54239788566229485411440691677853
-1.40308843726842602528392944805091
-0.97130726229779762448401925212238
2.40071006878374726412062045710627
0.55508744232391604711551735817920
1.45635025963469466603328328346834
0.55026682461015519187697009328986
-2.22200943003664219688175762712490
0.01881648286188623842019040921514
W:
-1.09790032262271841645429049094673
-1.53327168004698388692474964045687
2.77760680628316247720022147404961
1.14259220145315287808784887602087
-0.05295978855160803772106348219495
-1.70289903509836970663116062496556
0.15831943043113322344694893217820
0.66391386932638218887348102725809
-1.91054358975900595574159979150863
0.64009867182187185630226622379269
0.62703338921605156208727294142591
-2.69865240986410848123000505438540
