mlp_weights
I:6
J:5
K:2
V:
0.01798545421016367606981134485977
0.29609145245373336141625486561679
-1.18955232235991847922207398369210
1.32681432275896860062402993207797
0.40031591365750429645231633912772
2.15837941381651399197494356485549
0.06392596021319472965327435076688
-0.84674753673869795900230883489712
2.41128666476926500905619832337834
-0.59834757479196853946490364251076
-2.43247546318020368971701827831566
-0.41782904885959865071143326531455
-0.84926599041760553188140647762339
-1.80798024665267820232372741884319
2.51250998040104356334722979227081
-0.57890157490237359461104915681062
-0.78424423990416081142740267750924
-1.49692624676504815184330254851375
-2.38016101772606303299539831641596
0.92921628051466065301156049827114
1.87089367154672392423719884391176
-2.17254387750546751334468353888951
-0.44863207047574937824663265928393
-1.29829560580298841721003100246890
-0.22535558899324814596809574140934
-2.21646131978782223725943367753644
-1.59391749924169667806950201338623
2.00473882569224892691295281110797
-0.06582691738640084055944612373423
-0.11410245442254271508453200567601
3.36971691354568747556186281144619
1.85526302253137664877158385934308
-0.27433924664463471554398665830377
0.34976800679621777856453945787507
-0.30266587758935520335867863650492
W:
-0.15717127538603134495609481291467
0.17984109321563407357658093133068
0.98354480336416427732615375134628
-2.57313680131836397535494143085089
2.95916747841657734596765294554643
-0.01798454003218967478527900993868
-2.08898893309325561773448498570360
0.45139574728169812312117414876411
-0.85778449001331968926109539097524
1.11179057928262658982987431954825
0.15334867917030908790465559832228
-2.47872247570265180627302470384166
