mlp_weights
I:6
J:5
K:2
V:
-1.30825366572534185216625246539479
-0.64655932524387338400373437252711
3.02010865292429775408322711882647
0.49733830201397771775262413029850
0.30921959819636718469482161708584
-0.14900642937956154465695135513670
-0.52227237470817733377970171204652
-1.01247267432868492953446093451930
-1.00130327342932257117524841305567
0.68113252041028804484312786371447
-0.44123090527030484064852089431952
-0.94035000493739651084013075887924
0.83564920261029462800195233285194
-2.73591564742936865783917710359674
2.37330250049308233428746461868286
0.66870981413651420233179578644922
0.11548876435697683073833275102515
0.07517320274748577613177502598774
0.07408413592565775418474771640831
2.71678441763299094446892922860570
-1.05818835161129687350012318347581
0.44036124023137901417612738441676
-0.50320100416708357649042682169238
-1.97452009568827491214904057414969
-1.07501555487034528013623457809445
0.71497265635957929497124041517964
-1.51079236963909480095935577992350
-1.41682417194880216904095959762344
-0.95115417600793550345628091235994
2.48492542425439477682402866776101
0.51013670058637061721640293399105
1.50325036947255186170480101282010
0.58100891557395539788188898455701
-2.24396858843575186526209108706098
-0.08615203276519595165794385138724
W:
-1.01278879140984923168389286729507
-1.44955354260564206470007775351405
2.86230133365690475599762976344209
1.16545227044245836012237305112649
0.06909566318679724594709057328146
-1.55730811867018248406679958861787
0.19484113978860478910704046029423
0.69763944183620130168321793462383
-2.02097144411056062196507809858304
0.52209184725225998846553920884617
0.56780661018425893082905986375408
-2.86686803874236506572970029083081
