mlp_weights
I:6
J:5
K:2
V:
-1.08954761773090003096342570643174
-2.56053207867433663125211751321331
-2.17423602809551974601731672009919
-0.20328525668922406421934567788412
-0.35251698700278988329870344387018
-0.52191136131948179244233188001090
0.88964931947731840100601630183519
-0.50856091432165595467296270726365
2.20790197429519707839062903076410
1.39458567990265391856041787832510
1.35616413921550882371036550466670
-0.45577917503522547004735088194138
-2.35380062008325463551727807498537
1.07497646507836908114086327259429
-4.95014783264487689962152217049152
-0.28358902778838379621362264515483
-2.99803586874215000079857418313622
-0.44118091514617374659934512237669
-0.71346305572833901287310709449230
-0.49469585335533289294218661780178
-1.59727701110346020918484555295436
-1.69071474305686964001438354898710
-2.14554727566005576377961006073747
-0.15378534043674652043165451686946
-0.97237816237808383235119435994420
1.76587203381987434269717596180271
-0.91260712758439921366004909941694
-3.08266076830837354449954545998480
-1.24728782934623683154029549768893
0.10496476611258509503699087872519
-0.77583386450460933847494970905245
-1.10929751579754287682533231418347
2.23071975692700030791115750616882
0.62878538602017608472039000844234
-1.47308854460240201689202876877971
W:
1.76259575963455006331059848889709
-1.66166889232674841458958781004185
-2.58204460412267833291366514458787
-3.43611489336013065098995866719633
0.07635613284905408415514926900869
-0.22649252635669117617034373779461
0.29552136829067587875385925144656
-3.12978159455850057923953499994241
-2.64954356660379186649834082345478
-2.15317043473125879771146173879970
-1.02038606796192565795422524388414
-0.98491776791411123070929534151219
