mlp_weights
I:6
J:5
K:2
V:
0.49740995254799208469265181520313
-0.01909673205511111526710976704635
0.67014941280244444410385540322750
-1.25145938159095404529352890676819
-0.17167908601419795688869385230646
0.07493500048692554316165370664748
3.05779712686097671081597582087852
2.02604753112373447976324314367957
0.17554215117241081522969636807829
0.73562727716453468751467426045565
0.63940725420226318664873588204500
0.89177102970464838804787177650724
-2.37664088306929555116653318691533
-0.13385996397313768002668155077117
-0.75410506954970280002470417457516
0.28198689465862236680493424501037
-1.31796902550497141426433245214866
0.82445526151058035058127870797762
1.65087338083849077818854311772157
-2.33759359840411429232176487857942
1.55226990229388062125792657752754
2.10953544485066135649731222656555
1.18120002902754750451208565209527
2.02742230762979458447148317645770
-1.18780464718591871609021382028004
-0.27456194231043817843840315617854
-0.18795437552725449692481163310731
-0.97882007834544904056883751763962
-2.31323022742670181273183516168501
-0.62027839648806359917898589628749
-3.96628608636550028521128297143150
-0.19863783480051289132006786530837
-0.63494853179516197450027448212495
-1.68589371864034798242926171951694
0.92788079815124735461040472728200
W:
0.46661749166323640558573515590979
1.63644864527885491867209566407837
2.44913087646051286228043863957282
2.45945354427314644141233657137491
-1.60681765014229305243986800633138
-3.18764928899260313599484106816817
-1.02953433407399352894628918875242
-1.16268718805696269491534167173086
-2.41128920871317831142732757143676
1.24363414503153979495664316345938
0.77432842298274484615916435359395
-0.77551312125166538269382954240427
