mlp_weights
I:6
J:5
K:2
V:
-0.17999606102972587340360632879310
0.26803919511234552963685473514488
-1.44260081241506843419131200789707
1.39626081791312883773059638770064
0.63111259969891653209828064063913
1.94650263596296624335479918954661
0.15800037831886468153719249585265
-1.11912175604339880763404835306574
2.21800067320193683428897202247754
-0.62379791739930445793049784697359
-2.52478287725235039928861624503043
-0.38312745724937763425188563815027
-1.27283204992854948045533092226833
-1.98741057999676651313336606108351
2.26472453216838554013179418689106
-0.47093009208528657794090577226598
-0.44772308897656548642984830621572
-1.52117885185260504066206976858666
-2.20634238545536653930412285262719
0.95018780990949380793608725070953
1.83046471533669019571277658542385
-2.48638071225113277407103851146530
-0.48396238760858739658132776639832
-1.41466042384260437536624976928579
-0.11849420854674247438609313576308
-2.17763381858717597339136773371138
-1.67355759820735450205120287137106
2.25908532863957534075893818226177
0.00539212081869288456514865970348
-0.06681356814214434169940659558051
3.29911446511349915056143800029531
1.89230400263523979020874321577139
-0.51175621298290574490152948783361
0.24035338121937149802320732305816
-0.08804231194345846223114904205431
W:
-0.15424408611205639441088521834899
0.07154934407856126943325847378219
1.13867969858559647811091508629033
-2.53667768726089093433984089642763
3.00860600324790716797451750608161
0.28504992703666348630164861788217
-1.93229898126701926663884023582796
0.56814744282126639074448348765145
-0.91467829384918464263876103359507
1.22642921661219195250680513709085
0.04193466151188440793617928648018
-2.28371185516800956349925399990752
