mlp_weights
I:6
J:5
K:2
V:
0.65824573371555206158234341273783
-3.08331899260281749874934575927909
0.12948744333211403834127395384712
-1.24297918382546268567523384263040
-2.12116166884981227624962230038363
-1.71901696743722975924129059421830
-0.25224695349210424222263782212394
0.75642833935297071334957763610873
-2.33980573235077171645457383419853
0.55987311222557556433798708894756
-0.80958709446134657916616106376750
1.55334496385153730813044603564776
-1.23729279284354065637785424769390
-0.26296546889696592597118751655216
-1.14711019758760168762989906099392
0.53557356278458123632901788369054
2.12983016337831365660804294748232
-1.32144573485830352232994755468098
-1.35372290375981396692850466934033
-0.24897375847490796352268205282599
1.95547699757985626867196060629794
2.88548132653332345398666802793741
0.56537932788339206879868470423389
-1.02781582651718172982668875192758
0.01579495628013999342087458899186
0.07987593925674119077484647277743
0.87100468878984671494691838233848
0.76416583750967548294141806763946
1.73120794345097950284184662450571
-0.65874018506746490064784893547767
0.81087628020071411683034057205077
2.58900403940708789818359036871698
-0.39964314274307777274941599898739
-1.97447735966899706738786335336044
-0.52887475219883539612197864698828
W:
1.09570709712249714229415076260921
-0.55382681956630941400021583831403
1.15758960546515043965598579234211
3.36127812985476648321991888224147
0.74733242038166991516590087485383
-0.45237069018241515827583043574123
-2.27890757572511626349864855001215
1.91172227352461354676904647931224
-0.48959725326794134581120943039423
0.93943371593650837336753056661109
1.47299365902360301916473872552160
-0.50124104338679864589778389927233
