mlp_weights
I:6
J:5
K:2
V:
0.32541621972029477483090431633173
0.89934562648470817158852241846034
-2.03629096441342127832285768818110
2.65633086080009128693291131639853
1.74599784198261898104931333364220
-0.17089573385920514558833360752033
1.07743280684218767362381186103448
3.08376255727039172427339508431032
-0.23581227791913889069164156353509
-0.78133004834414665484842998921522
2.50561306567040320558703569986392
-1.88333120437135570490738700755173
1.71365203132944898811729217413813
0.86041758695144410218347275076667
1.61846164369125156134998633206123
0.83403098631587413436250244558323
0.43459144139895766745240734962863
0.64358108452631546114730554108974
-3.46378148765795979002746207697783
-1.33789272196211506127383472630754
-0.44688298793739822389881055642036
-1.86474784711332142173034753795946
-2.15836263227275804155169680598192
-1.46046875835209877259046606923221
1.05182818142794776150594771024771
0.45929171484667574709703785629245
2.19347512535045341408590502396692
-1.26556279082653233558630745392293
0.64991031588193703960598668345483
1.45870757915968241036352992523462
2.01176884792318988459669526491780
-0.78783255781974914633281059650471
-1.01854888909133767249670654564397
1.87424432902472326567533400520915
-2.24143887553049481198286230210215
W:
-1.63512895865470953005171850236366
2.20223889724535837331131915561855
0.68407982217315632667009595024865
-2.36989946063755141381079738494009
1.51180061428033374326673765608575
0.32380959779110224383558147565054
-1.44918401630137028135436594311614
-0.90043642540637092164246269021532
1.63421866420202133163286362105282
1.12546149707838627485045890352922
1.45985489126538614534922544407891
-1.59702077331950120786530078476062
