mlp_weights
I:6
J:5
K:2
V:
0.45850303711683204621607501394465
-3.49382608113813963868210521468427
0.46546412913664148014447619061684
-1.22270907150278418384914402849972
-2.16127558675191622228339838329703
-1.70966297015232249201233116764342
-0.24985345618342222340224623167160
0.06213542304405002270062396974026
-2.11159524010772248203693379764445
0.86835656026633623039145959410234
-1.13675865585576252314581324753817
1.94280176696310413753110424295301
-0.85921591808270780799006161032594
-0.52545609443714114128454184537986
-0.53635718250838293474913598402054
0.67223545628882463986997208849061
2.14469139828377208800702646840364
-0.66394577536676635531875945162028
-1.91592584107669727799816428159829
-0.40910811039577998915461876094923
2.12270431516749003009181251400150
2.87122095638823182639498554635793
0.26366084258224564695893832322326
-0.88337573182434181440214615577133
-0.11701318046619378632211549984277
0.04006141641537099701286805952805
0.78225707379645337269380434008781
1.60643859201907757139338173146825
0.26321651163428794184540038259001
-0.78536709150600036988265628679073
0.52100317719594813059558191525866
2.11763580611746560222741209145170
-0.10050140681589073143875623372878
-2.38301771047181354390431806677952
-1.05636745495226014313061568827834
W:
1.03709805946936128862034820485860
-0.98649074216688381611106706259307
1.16529564015095910001207357709063
3.09452011007387284280412131920457
0.80099606988652138905848687500111
-0.39011770321458455468288661904808
-2.31000042061922794545125725562684
1.35652140392076270281052075006301
-0.42658531698469986936927966780786
1.14859692121221490523907959868666
1.71704740796557264737032255652593
-0.59295351841999177633368844908546
