mlp_weights
I:6
J:5
K:2
V:
-1.49864151365990760922386471065693
-0.41228925215733586151500844607654
2.92422145311502479358978234813549
0.37144183133528452245286644028965
0.39639465183678229687203042885812
-0.19971502448781072724948160157510
-0.45232273153804669618693878874183
-1.06233419055195477120889790967340
-0.98327617881125384258211852284148
0.93857060410556258922554206947098
-0.36607952059920156884231801086571
-1.06298892858011795325978710025083
0.74151657755749389444588359765476
-2.71522746835414796606755771790631
2.36897205229555707362010252836626
0.49170964646081938287380808105809
0.04927584421867857444876648287391
0.06662721662308654368978011461877
0.12271267012734152213049299007253
2.79479759489122825399931571155321
-0.94258111946262557179210261892877
0.53278400468752895591251217410900
-0.43118645441876835011640878292383
-2.15911595722911231476359716907609
-0.88002867004012064189311104200897
0.74139165707223708690065677728853
-1.43815044847009643191881878010463
-1.32260196043225519701991288457066
-0.84054654899299197090556390321581
2.42119725711706212933904680539854
0.56769565539774158313690577415400
1.56850661323609741337747891520848
0.57733515616259822866851436629076
-2.04247665681016554728444134525489
0.07301600353029985557284931019240
W:
-1.01969334805701450363812909927219
-1.31299727237673025115327618550509
2.75296867377035736623724915261846
1.00443139453610430500418715382693
-0.06069598218726277027990079204756
-1.62724158847798761051706151192775
0.04113301378010957715103401710621
0.47643675776353927586725944820500
-1.85881261224549598765065638872329
0.78266798177978413875166552315932
0.44781704986401116297400903931702
-2.76794792773161324461739241087344
