mlp_weights
I:6
J:5
K:2
V:
-0.70417684207932151885245275479974
-2.63449410304316300468485678720754
0.33368542075715201811192400782602
0.06519109405471808227350294373537
-1.50559128360242100441723778203595
1.23609709299988157482630413142033
0.35311657551364150631201255237102
0.55841497836772147067563309974503
1.50586861106851754854574210185092
-2.36213294242427096492065174970776
1.05653454246266065297277236822993
-0.47953727125395595454193653495167
-0.17405330860913800772316051279631
-1.01909113529847616952395128464559
2.47142279871807213353918086795602
-0.04818529953659364539753084955009
1.55204080409024469666690038138768
-2.48317650276199497483275990816765
-3.03180117541081095566823933040723
0.34857693141040119177986866816354
-1.94330467191580269492590105073759
2.28932259378325397847220301628113
0.43300471051499245245253177927225
-2.04864731032110780617472300946247
-0.54316734901287533343605673508137
-0.35948813510989346964308310816705
2.18662638776326279099748717271723
-2.20464252634609003678178851259872
0.31365421217115690977195185951132
0.56011703564216508421935714068240
1.88027947906617742823698335996596
0.10440905277099883641245270382569
-1.93492143691697715546240488038165
-0.52481249880032132537621691881213
0.35287350544491336012953297540662
W:
-0.88595675279991203954210732263164
-0.18144141162666616029497390627512
2.51742819472704182359734659257811
1.31798432527387143764485699648503
0.47061137252138862674399888419430
1.98348444401579615536945766507415
-0.36860504769050039808320207157522
-0.42931849927170084857408483003383
-2.37757884492048088276305861654691
-1.41601299821539106105205974017736
0.45048380985693015077231393661350
-2.87378300139379394551042423699982
