mlp_weights
I:6
J:5
K:2
V:
-1.73035604504210027698718477040529
-0.67323195298712912304495148418937
2.73384524803636219658642403373960
0.54296510700238143076745700454921
0.28246670155470593455149241890467
-0.13109070708711897945697444356483
-0.60999722343875373287147567680222
-0.99760111921721239536253733604099
-0.72175925195019607905067005049204
1.23394536414085176367905205552233
-0.20015704774597478654563076361228
-1.04890091284923947512197628384456
0.71280920929998126123194879255607
-2.77096733574738207650511867541354
2.37016377333654215675551313324831
0.36294017884400353590734766839887
0.31425988218136269303215613035718
0.34765489658462161992602545979025
0.25145641561211962144994913614937
2.85983374785047184118980112543795
-0.95245436763637181254438246469363
0.44223235669248006640685844104155
-0.01646681137273345307825422878523
-2.09330281803354001368688841466792
-0.68582782282795040629252980579622
0.66067027371269504421036344865570
-1.27310021264058503831506641290616
-1.36989078533737629328470575273968
-0.97275432211097156987023026886163
2.41622167929868059133013957762159
0.77898563231167683440503424208146
1.44832829053773104455160591896856
0.59676785502247864378944086638512
-1.98344098626750908742621959390817
0.03245297366190429827481622737650
W:
-1.10155912244191722670905164704891
-0.96838882251440161486044644334470
2.93423505520856009454178092710208
1.11451583389430330939262603351381
-0.05362097103780828072361330782769
-1.90435810237519587140297971927794
-0.08148041469125918978555489502469
0.44541009310973156409829698532121
-1.82353167275476257813693337084260
0.74140474235633557764657552979770
0.22298465451714946650163540198264
-2.56096198492525051193524632253684
