mlp_weights
I:6
J:5
K:2
V:
-1.39337447825039983939632293186150
-0.59549336793693874447797043103492
2.65839176721093162214515359664802
0.31674810465829722483377395292337
0.22475875914911966346743099620653
-0.07713924362790895716823769134862
-0.65574063429397733138159765076125
-1.05301018956423475536610112612834
-0.77277954034278395489820923103252
1.17630740699047930952758633793565
-0.22964035070369845370485961666418
-1.09912786890724056831913912901655
0.62169509966814018309122502614628
-2.69448394529413937092954256513622
2.42593266348637293106094148242846
0.42791570512097226730574561770482
0.35078015381845462083987285950570
0.23954900448175878158174612053699
0.22664546792544293385418541220133
2.62351301300706030161791204591282
-0.69848904914068055127529532910557
0.31613688670934847468885209309519
-0.23125380679441326359224717634788
-1.89296354469039984635969631199259
-0.67526978449676766658171800372656
0.81120986363040747946229203080293
-1.42474049610541886323744620312937
-1.32079703551787175364040649583330
-0.93962026805925180639178506680764
2.48307463764296709740619917283766
0.56975784517255578798256010486512
1.38897648845233834258294791652588
0.47974432782705755951013770754798
-1.92013826439271184653989621438086
0.05073536453809033425210728296406
W:
-1.20542868737354025299168824858498
-1.02390859345310669681339277303778
2.99819400356636789339859205938410
1.02697285013542183307322375185322
-0.11629460123321580522492979525850
-1.66061798601973764633044083893765
0.09822083932615510715180562328896
0.58210664667693312601670641015517
-1.95236761619745191609354151296429
1.01772227604600362660391965619056
0.48322603483083886866111811286828
-2.84043753393075748547857983794529
