mlp_weights
I:6
J:5
K:2
V:
-1.29760746303350393837661158613628
-2.64273209605197001437204562535044
-2.40442840954272263331858994206414
-0.48231610201649033342619077302516
-0.26759818409337665645608694831026
-0.57216970660399824044617389517953
0.92393484747245180344066284305882
-0.14141391899550384558814641877689
2.07237614456964047704445874842349
1.29921375478810841030963274533860
1.39457170888418779952644399600103
-0.61286793034099362742495031852741
-2.53869262656658145616006549971644
1.16320060580625450619152161380043
-5.00223536392991796617479849373922
-0.38574365439841995506498051327071
-2.87292942944334228627667471300811
-0.13589303784452408385696742243454
-0.80678231340040840180449777108151
-0.45300135130891794332796962407883
-1.80261538782295760441343190905172
-1.77782401067642936709489731583744
-2.04179879886533122146374807925895
-0.10931445796349706367500687065331
-0.97348172637127994288874788253452
1.84824065841143769794996387645369
-1.13562973931415389650112501840340
-2.94901705601334684914149875112344
-1.22951629187150679456408397527412
0.13325197329892901620951306540519
-0.77034959462779883931915492212283
-0.92389488625255988818452124178293
2.21235947022859358312985023076180
0.51012862354835708522671211540001
-1.42565125146194970895408005162608
W:
2.01372486125232219578151671157684
-1.69338422136528810035827063984470
-2.78992185910399959070105069258716
-3.44316517220664009002462080388796
0.14436791242118712785824641287036
-0.09028896119036353140607786826877
0.36296118370880742221018522286613
-2.94632589324604143854458015994169
-2.70656145150488836037538931122981
-2.07504862159531988652361178537831
-0.97575769913432308655387714679819
-1.09413196896204967245580519374926
