mlp_weights
I:6
J:5
K:2
V:
0.57623007461820363594995342282346
0.48270019128684316100930118409451
-1.68991147101960037524293056776514
2.84647201473969690965759582468309
1.86319725420916082470057517639361
-0.28517391159495547592328534847184
0.93265548212469551181413862650516
3.59281783809389088091279518266674
-0.06674258407359878741971215276862
-0.79819043254677157772647433375823
2.79541941015063377662386301381048
-2.20063537894550043105823533551302
2.00774709037022303093067421286833
0.13960145218350725193623418363131
2.01118279083046180844007722043898
0.84273169676692927243522035496426
0.65338054184327942763843566353898
0.60768702322315892860871144876000
-3.28948733546787641657260792271700
-1.51589074875355178662061916838866
-0.80796944174495355373011307165143
-1.95571416287669408440308416174958
-1.98314887804469353049796609411715
-1.70485714030225476989244270953350
1.33755973751780365965657892957097
0.24493697135957440136344587244821
2.37156659520619239600591754424386
-1.27582662713561978407028618676122
0.52493837395687392710641461235355
2.10445020633197055204277603479568
1.72517245660687490449447523133131
-0.36279052886257423526927823331789
-1.24062119370461054757015517679974
1.55112920343834437275631898955908
-2.56373798835922794836506000137888
W:
-1.08627001132491529666879159776727
2.18723592758655005496848389157094
0.50008505791541268958866339744418
-2.10530901011086335472555219894275
1.27191546689099244105136676807888
0.21356165029555032597308183994755
-1.74349548389452069230287634127308
-0.89258391207468512629219503651257
1.66478311658759081659297862643143
1.11349881170936160224016475694953
1.26195899281653178825024497200502
-1.82432671279340130610080450423993
