mlp_weights
I:6
J:5
K:2
V:
-3.73935930117686154972034273669124
-1.67052509786773795141812115616631
1.35348225050754988885159946221393
-2.47977204270763973426028314861469
0.07616697484669235351795180122281
-1.48463032840534059353387874580221
1.60877951061631518925310047052335
1.80138334768605323787937777524348
1.30761776243782246176294847828103
-0.76438910646415536565001502822270
-1.29894232130658382473598067008425
-0.32409164241790300309276062762365
0.83045013334781481173507700077607
1.45816719865260080446489610039862
0.07931595680107164647587580930121
0.35190865055149300744119500450324
1.72871063412971759376546287967358
1.13224199657598378898626378941117
0.63659389745953010031342955699074
1.57441669133048534057195411151042
0.35008110155988730882725690207735
-1.64644095104893217751396150561050
-0.76025554269135076079777491031564
-0.41942131068686167028047862004314
0.13832331759591148800936366569658
-0.38160801597467935986074394349998
-2.07374868447452787023621567641385
0.22860850966977219744791227640235
-0.29649960008736919725436109729344
0.48367640795990446411778407309612
-1.03635155017856184223035143077141
1.86787175273926120411260853870772
-2.42109400361001370072244753828272
-0.75977868038633300518114310762030
-1.62086269449536435338643514114665
W:
-0.11482918748171194733842526147782
0.07464278974826867030234467392802
-1.61724791857764360614169163454790
-3.70961437865852783346554133458994
-1.98102022394272703209594510553870
-1.45765077107156093561002307978924
0.31671822796223625395839462726144
0.41283280434608904396753814580734
-0.98650637125798057436298904576688
0.82944432250198485423453576004249
1.23493777896178791309012012789026
-2.74905558235428326696592193911783
