mlp_weights
I:6
J:5
K:2
V:
-0.65950389883905313759271393792005
-2.48038502314050024466496324748732
0.29789345212024059827982114256884
0.01493744871956953490510500159871
-1.63923858299405655891689548298018
1.24525475701274301876253502996406
0.53034152507122400699302033899585
-0.02912084921034760465197166467988
1.88779005687880663266753344942117
-1.99004738278135606677210489579011
0.86092115619031128748162018382573
-0.71950988608716270888976396236103
-0.20444990395865297871935695184220
-1.09623211630659600501758177415468
2.52225584021220061714529947494157
0.43458544253238395871363763944828
1.57109305307751845326436068717157
-2.14761000886664454867513995850459
-2.19341712313202119588595451205038
-0.27509467993223957194004469783977
-2.10895324643734571878894712426700
2.15884378470457916066038706048857
0.44382473332647448538423873287684
-2.18843301495115394317281243274920
-0.92122165561144098155921255965950
0.12896675759259240701126714156999
2.15825837444423385136360593605787
-2.40070295199398753283048790763132
0.43504946898002655464310350907908
0.71484792188076884400516064488329
1.79664506750477603880256083357381
0.37101284698212039225850844559318
-1.41906990263242316352432226267410
-0.41500065581363354549893074363354
0.01753618524062108829930650699680
W:
-0.57950093464307494972587164738798
-0.54943338684197140509013479459099
2.31219098127681599308402837777976
1.49222474417264017176876222947612
0.03830866719129721875702898614691
2.10885119884632876718910665658768
-0.09977734263842666373456324890867
-0.67121020035109379975324372935575
-2.20961994041373399610961314465385
-1.33456610058887026326601699111052
0.57457901697739854895985445182305
-2.82981690113482731163685457431711
