mlp_weights
I:6
J:5
K:2
V:
0.78603617882094045654639558051713
0.44851489227762691980316844819754
-0.24200394150519324854009539649269
-0.15338583481621803628058842150494
-0.21925275586946441075397729036922
-0.16803092997592383728289178179693
3.03620384326211079084600896749180
-1.50433231961699109824337483587442
0.91821615143305579387345005670795
0.94829314458165059331662405384122
-0.52274520628217990836361650508479
-1.34417233461350904555331453593681
0.16598109910875313843803269264754
-0.57337418395825767714057974444586
-2.69477932877958670232487747853156
-0.24766998302091969286209405254340
0.33613428701375669405138069123495
0.88026229985307158365515078912722
0.45729482490577144648824514661101
1.19583103721627503901459022017661
0.02792570687279744001685344301222
1.15563813391371650318717456684681
0.23796549003710470993055992039444
1.11341655792215976639170094131259
0.04805746737089287845545726440832
0.68045845170225538467434489575680
-0.87820009391386599784112831912353
0.28081149137736982623891890398227
-0.04084694212714686661902518949319
1.09565434704479747196614880522247
-0.36379381175351771515735777029477
-1.09859297826511359552625890501076
0.15088599933579255329973989319114
1.11930983009927564886254458542680
0.40204369331975658985456334448827
W:
-1.55495845891658057702500173036242
-1.24547969542907677187315584887983
-1.43067792832809814740357978735119
-0.49381969042646378653671490610577
0.26340504748000814760899856992182
0.88017741096388601995670342148514
1.90635212899382233686651488824282
1.05003536917270823281000957649667
2.45357310888375579338571697007865
-0.77434431850326945756535224063555
-0.63673866350164920469012486137217
-1.05239236543377323584991245297715
