mlp_weights
I:6
J:5
K:2
V:
-0.39372995748689498807237896471634
-2.40240233499808830686106375651434
0.69747109082594316298298053879989
0.09496197494498437308152460900601
-1.35625708061679595139992215990787
1.30411616053382806157401319069322
0.68434463337251538739280931622488
0.36105112026640251432496597772115
1.77211269196766374456331050168956
-2.09771371859509514479213976301253
0.99510056447301187265708222184912
-0.60767930653655799488888078485616
-0.30673684588857974553377516713226
-1.18030434337283907098026247695088
2.51840702524711002041613028268330
-0.43091916381301120786417868657736
1.42957959525663969024833477305947
-2.48052645944419181134321661374997
-2.64944979426276550071861493051983
0.41166058419472806306771417439450
-2.04532239897634759984157426515594
2.38623889846120107449678471311927
0.61836320807548295075406485921121
-1.71979637859609479910716345330002
-0.46709768288693542803713398825494
-0.30926784267434426212162179581355
2.03551957640204506105874315835536
-2.17415570533459856505942298099399
0.22922200937973119527768517400546
1.00209133648118831061424316430930
2.14928684392865587682308614603244
0.01892991446661296262021778602502
-1.81466660626759201946356370171998
-0.45571254413775208469417066226015
0.53218764843890475901844183681533
W:
-0.91370597504507744535118263229378
-0.15829275675473036821827577114163
2.65096800299742119122470285219606
1.45625940434668987855104660411598
0.35359082987689460786384643142810
1.95453187779884118846496221522102
-0.02351535465196834956413951545073
-0.19382103212948251225178353251977
-2.41904869814092382540593462181278
-1.53124856120862062880405574105680
0.63267298108080338714387380605331
-2.84920704314003891965967341093346
