mlp_weights
I:6
J:5
K:2
V:
-3.81669971887942427457574012805708
-1.51861403066642308701261754322331
1.66962157134559552318364694656339
-2.23088450150589823195446115278173
0.21126536474338522553217956101435
-1.35820616447019482109226373722777
1.64563775062741490806672572944080
1.97959206189502157080539745948045
1.43198388297690559767261220258661
-0.76174595308727977016616250693914
-1.33685890530238760121051200258080
-0.30895319218847783204751067387406
0.84891054229757545446233280017623
1.67271634042066752456889844324905
0.31402551143945389711120697029401
0.32175426372403170827141138943261
1.69028076208171995631346362642944
0.98321622754186888126781695973477
0.65635278453243861562782512919512
1.56059529040227240592741964064771
0.22211756225788903407192265149206
-1.73893657115213051689295298274374
-0.77429703843323827161526651252643
-0.41791331066223641466095273244719
0.20651342551695089921892645179469
-0.36649476067449204830239750663168
-2.29838035053895950454716512467712
0.20263161687082875683785232467926
-0.04576914963852078688244517934436
0.25462787905682171540888703020755
-0.77340895751838834026870017623878
2.12512331647694097114253963809460
-2.47935032377132280601017555454746
-0.74818632866791434654629711076268
-1.44952100064292355163786396587966
W:
-0.33897819754055091845401648242841
0.23464570195678030595232144150941
-1.54851751317567654098183993482962
-3.73538890917587718121239959145896
-2.03987353125554804478269943501800
-1.15192803860544001892662890895735
0.38150842142073287943659920529171
0.47547091338649416503159272906487
-0.83973086444525157912011081862147
0.88444674407076628863677569825086
1.34363676375604246260309082572348
-2.63756499125076349088203642168082
