mlp_weights
I:6
J:5
K:2
V:
0.52893939020337454870457349898061
-3.55304368951061499970478507748339
0.62705607405081464911233979364624
-1.41662842227284091478622940485366
-1.97713294115820370500102853839053
-1.59134864256428509854401909251465
-0.33047931439793465369092473338242
0.23552947881959265807871872766555
-1.68950529230551937942550466686953
0.76072000611055190510967349837301
-1.05554629891191131818573012424167
2.01688621072164009362381875689607
-1.04628970060092796323658603796503
-0.66225375542560693808979976893170
-0.75988517654679965662722906927229
0.76875341143931208431894219756941
1.94046184084074035958167314674938
-1.03964953212135036153540568193421
-1.78224427120063322327325749938609
-0.40032242857858907347790022868139
1.57983569201319284935891573695699
2.64201850880435706869775458471850
0.44916777562735382689496077546210
-0.77735608412370393871526630391600
0.06488702704894293293857998605745
0.11323277745439053187936906397226
0.83135481409971478949927359280991
1.76085262468952841174996137851849
0.80020533794754533651882866251981
-0.56722623172606412289553645678097
0.45757422024173655117351700027939
2.24806535075100466514186337008141
-0.22731998126237581980824131733243
-2.48892808863148395914777211146429
-0.74516000451612307564630555134499
W:
0.99730292127784792022282545076450
-0.73754258725873400592831785615999
1.00619591596857027582245791563764
3.07809962246568780130928644211963
0.77140131119972954465424663794693
-0.49176816961726860233383717968536
-2.10124307116064246159226058807690
1.19088209727965654849413112970069
-0.23285985535585743133601965837443
1.07986883095215202565952949953498
1.47149185772300894470276944048237
-0.56198822746314480713891725827125
