mlp_weights
I:6
J:5
K:2
V:
-0.76266887291181573171883201212040
-2.26973670514768599559829453937709
0.37424662854378454301951251181890
0.22451187138610789739701090184099
-1.56542376013836115333788256975822
1.32746791717315404390831190539757
0.77019694963519547137309473328060
0.07247474877362147793746771640144
2.30880359782172250859844098158646
-1.97351006042319454536482226103544
0.73066173281456925359123033558717
-0.75708726128051917481087684791419
-0.27265041859754679531846477402723
-1.19194767857856254167359111306723
2.50027686349379507646517595276237
-0.05878648189237442589494264666428
1.57903978388424137691004034422804
-1.83482234282780165557369400630705
-2.21005480907055584793852176517248
-0.14533949025739051341687968488259
-2.30128873584157522813598006905522
1.87422915311773086166624580073403
0.42157812122430604606648785193102
-2.07247895936024661978080985136330
-0.47758555580686029573556083960284
0.10456475636966515441184100154715
2.19935828122362586611870938213542
-2.34558003308333473668767510389443
0.02139251836760822089722466898820
0.84116337767305093819913963670842
1.95176227794087497890984650439350
0.35518355181951932753037226575543
-1.35395723921045729731815754348645
-0.43565410626271028338152291325969
0.17925819398328712850343436002731
W:
-0.44674847535962353139993297190813
-0.28893902902394075216108149106731
2.59307135092138807408446155022830
1.45274996091980224122153231292032
0.45124232261576213698361925708014
1.67188446702792625764288914069766
-0.05935074684097542407901215710808
-0.57885618732144061837630033551250
-2.43603202306405153265700391784776
-1.47891683043377919481997651018901
0.37970617563673408900726258252689
-2.80922996631962451630215582554229
