mlp_weights
I:6
J:5
K:2
V:
-0.56429943151145200985752126143780
-2.47859418707312739726944528229069
0.32332283063982286686055545033014
0.06518573159019344642750581897417
-1.41116688585945371237073686643271
1.02488767349256693073300539253978
0.37768562929867921518223283783300
0.56273483928949319388124195029377
1.70252829693515628228794867027318
-2.30593539455218898837074448238127
0.92366395957079061584948931340477
-0.67495307596904363656165060092462
-0.13669369277951345931221283080959
-1.23783071027996771640289352944819
2.46065875802277078676638666365761
-0.23264970255496875140011070470791
1.64268350672164786807627478992799
-2.76959113705821247108929128444288
-2.88566117123601806326860241824761
0.31639977619140552400622823370213
-2.31470775792889327249213238246739
2.20588784450495412059467525978107
0.32676518930498527071293324297585
-1.96329123328996724140438345784787
-0.67995587798209344843058943297365
-0.30842108826704695001552636313136
2.32242950145196713762629769917112
-2.25793768929118821020551877154503
-0.05238367664056198247379825261305
0.80393384743753704135826865240233
1.86289368152917211851615775231039
-0.18519469943382776966345204527897
-2.05243651807307525558599081705324
-0.51480030924790576296601329886471
0.35554388238326278814938063987938
W:
-0.73718292062456791668978439702187
-0.09440689323002779409499396479077
2.54385811303968489838212008180562
1.28187130489929335119825282163220
0.24102525486859299741482232093404
1.88137344884780710607685705326730
-0.33516585270190912826393514478696
-0.37112913629431909523503918535425
-2.68683041265573718803238989494275
-1.41396369979904257263569888891652
0.73212404436211997449390764813870
-2.74638499376229061610388271219563
