mlp_weights
I:6
J:5
K:2
V:
-3.82248406979659227644674501789268
-1.77954789023986736928861773776589
1.45330349776903999803323586093029
-2.09382956263591601953066856367514
0.29787446606537848481366381747648
-1.43286773703038017302446860412601
1.58220041550931589391382203757530
1.55513006579713120025587613781681
1.49460984458800161256419869459933
-0.75430677888483599335955886999727
-1.16519025470718706749551074608462
-0.25134422119011462504190035360807
0.66324308077452120979700112002320
1.65938799732867936498337257944513
0.25015491490557240084058321372140
0.53766833122060997407487548116478
1.83956216687056195446814399474533
1.00862183260441784504735096561490
0.75481302327957644493494626658503
1.75092990249577495909250046679517
0.24318425125875628434179986925301
-1.40801334208216610832664628105704
-0.72704590026819204684471742439200
-0.09459653940623180545799186802469
0.10287982799164739622366226967642
-0.25107339959807495333166116324719
-2.13010136076308231878329024766572
0.05001590988347891231224906505304
-0.03782250603636604091573047981001
-0.02079819466505367087094668931968
-1.04088611490565008388387013837928
2.10974030803935352906819389318116
-2.37023263964465735753606168145780
-0.68977304898555025225448389392113
-1.28996546959254532183081209950615
W:
-0.27398765873353569944015362125356
-0.12026553958914139308422619478733
-1.73400967202956390877943704253994
-3.80314912543970162772666299133562
-1.70713736675148308741256641951622
-1.12005915265843869477180305693764
0.12120383522478275772904510176886
0.71855850232654672193888245601556
-1.05630699558195551013284330110764
0.82412740870382827917950407936587
1.47221574362278206926646362262545
-2.77746643971330753331017149321269
