mlp_weights
I:6
J:5
K:2
V:
0.82344524896694526461260466021486
-3.38191446021635044871800346300006
0.23365110820741291641766679276770
-1.20803599033265762763278416969115
-1.84976547041424099759865384839941
-1.57497618503171987747180082806153
-0.35818933288418253191309759131400
0.71516930887897600666036623806576
-2.44288749588223730313529813429341
0.40206473504863687873367439351568
-0.71868254757276173183555556533975
1.45756602317832006932007971045095
-1.47613857538802051294624106958508
-0.31128786515673412260696295561502
-0.79873681043843547389116110934992
0.67319752791220732746069188578986
2.01600214219896267664466904534493
-1.19415564006012009379276150866644
-1.68013669436436718918059796123998
-0.46007842315109287456564857166086
2.04687957875999204659933639049996
2.87961766975429878101522263023071
0.62830924283331857083112481632270
-0.90883913927710835434226055440377
-0.00764030349136718411884316992655
-0.10259230837593003027308213859214
0.76441207616677009362149419757770
1.07670615445136985677265784033807
1.64353328146627752914810116635635
-0.56976694415769557622297725174576
0.49734176875902297298992493779224
2.66468017411343982558946663630195
-0.34269036964225829677843648823909
-2.33992552070555870358248284901492
-0.55929018703754496133484508391120
W:
1.05568771187848620130012022855226
-0.24712695733562184408071971120080
1.32638834639737002163428769563325
2.91893837044651993650745680497494
0.55662238389860529963470980874263
-0.47302523028848825203951378171041
-2.33794553523616244206095871049911
1.97400166238654617423264880926581
-0.30888163196265544518936962958833
1.02565657102906571118694500910351
1.33964047082167647673145438602660
-0.63654922930014201654103089822456
