mlp_weights
I:6
J:5
K:2
V:
0.48599079291006341829728398806765
0.46614513471496343832711772847688
0.71987931541059935192095053935191
-1.39152997203890271826765001605963
-0.33123865109921829530392756169022
0.32257590612034603427815682152868
2.92568401302938774222184292739257
2.08865014118634872986035588837694
-0.11565944106153701331773930860436
0.87378534260609930228724806511309
0.86221076611233349318297314312076
0.79672269357609171169798401024309
-2.42885165708303718545835181430448
-0.23018994714997792483401894969575
-0.50110453472177063360959436977282
-0.06001498736900354180612282561924
-1.37132244844729744848166319570737
0.70495961713544841309442290366860
1.98160901801738864591584388108458
-2.21224398759883955634109042875934
1.25930041904518974504867401265074
1.81909755332731393195899727288634
1.38575295202900816704527642286848
1.85103475986028476185651925334241
-1.22623089816048058686703825514996
-0.22092355462913490504739399966638
-0.06755644948409222916296812400105
-0.55913243528664502424163629257237
-2.19955501876920855863772885641083
-0.61342841020343630287214864438283
-4.05666579239374058829525893088430
0.12056683618685895553745979214000
-0.34821780566890991881479067160399
-1.49687721603295664785093777027214
0.70584163074543093685520034341607
W:
0.50826755149963309676763856259640
1.33885614237483330235534140228992
2.16528854658092750895548306289129
2.40732699152995177627190059865825
-1.60896218314729755327618931914913
-3.62270556072912075507019835640676
-1.33077503265538510390797455329448
-1.30046262315606098169951110321563
-2.43118260247984618871441853116266
1.34856303374597463751172199408757
0.91317646079293379735020153020741
-0.89443633942980749207407598078134
