mlp_weights
I:6
J:5
K:2
V:
0.52186132403973761739734982256778
0.74179397766015553461471654372872
-1.83212229803405612926781032001600
2.71079505219151872807969994028099
1.76417768549520781462547347473446
-0.30097326939827395708704216303886
1.04232024744151186013141341391020
3.45005737708168691568744179676287
-0.14207732493727143197048690126394
-1.01681941975905232311561121605337
2.43575671568285700985256880812813
-1.97865497078071839176516277802875
1.87269337924864021083237730636029
0.31552601931198021034674638940487
1.62963541364334241201561326306546
0.80894204583898987603873820262379
0.52696774707305293894421538425377
0.47995222468052811670702340052230
-3.37383593051872976431582173972856
-1.43906489564496142818939006247092
-0.56682243113899766218111153648351
-1.87633654086962176066322172118817
-1.91869796804631875808411223260919
-1.59467176690705869646080827806145
1.44942942959406084746376563998638
0.31948414593041740694445707049454
2.41541329296347218047458227374591
-1.12869743178976356112741541437572
0.39418932815778684464191883307649
1.94840712646012059749978106992785
1.99030964132635368457613367354497
-0.48506906134009974973508860784932
-1.07530949681881127233396000519861
1.63110390910214042570203218929237
-2.35862394825973309409050671092700
W:
-1.55503352932528482455154517083429
2.38545110392588144421210927248467
0.65433914145792870797890827816445
-2.30762546628653719693602397455834
1.36685084787725985577822029881645
0.42813690806040916037034094188130
-1.55699803138326475782093893940328
-0.80953318672120788690449444402475
1.78370270040087119944871574261924
0.79893692378053471347953973236145
1.41882514751728705526545581960818
-1.77714089662173391204191830183845
