mlp_weights
I:6
J:5
K:2
V:
-1.71401735130358767733582681103144
-0.17212895319710475039443053901778
3.10460352923951043990768994262908
-0.06724739811603019923325064155506
0.17094482051544224177064279501792
-0.36633203902683714181520713282225
-1.08535274415967575301067427062662
-1.24026239948192440465390973258764
-0.87549264122499947937683373311302
1.07640102339134569042755629197927
-0.58006477061063421718500876522739
-0.94207480174549951268403447102173
0.60176063406810742506536371365655
-2.60042276980164022148755975649692
2.17222488273758251864364865468815
0.48580371018111956349372348995530
0.03692145720747047610288404939638
-0.19577780612042466890088121544977
0.07034000029543259480124817173419
2.95085398948989530154562999086920
-0.64425663110007636014131549018202
0.51631064055504283238917651033262
-0.44407393107220599626216994693095
-2.30318427049184215604782366426662
-0.67591684449334754614113762727357
0.75706809476977787731755142885959
-1.54865747672141718105365271185292
-1.16369507847718556270422141096788
-0.40396447257806117336897955283348
2.10536097459891813343801914015785
0.51271505301468733861725013412070
1.75588736529993383328474010340869
0.37751804575352820858569202755461
-1.65387256435123730646807871380588
0.17079003179064175532708702576201
W:
-0.68770490814061546736013497138629
-1.52271431082093999798132699652342
2.75423763675954846874560644209851
1.19488688785366581335267710528569
-0.07122421706508939853730311142499
-1.73580704316022860211887746118009
-0.18981465927518431646703334081394
0.57423541101069153214098150783684
-1.75432257287682125124206322652753
0.58036375998902856032657382456819
0.69974709720787919842166502348846
-2.78071475883278473872906033648178
