mlp_weights
I:6
J:5
K:2
V:
-0.72657789158772789761542298947461
-3.16222421507438067322937058634125
-1.87277497844593199260998517274857
-0.17843873152243955315654488913424
-0.20898025155831984056575834074465
-1.09771952454335086635239804309094
0.69171949690336376193044998217374
-0.43546232657142730504418182135851
1.54346287873522225453370992909186
1.29239374466203416069731702009449
1.67989278377703876721227516100043
-0.30784981302274222469961273418448
-2.09095428407876493537287387880497
1.09926950229655684410090543678962
-4.16338795305667552781869744649157
-0.35848424732547995441578336794919
-2.84645513035548214375580755586270
-0.04214127661295876542402183417835
-1.00761917206677731329023117723409
-0.20098983247516499783813515023212
-1.95606077362264429986282721074531
-1.64500629045700486052794531133259
-1.82761121351951905111832274997141
-0.40323973265603613169716368247464
-0.68851365155600130485424870130373
1.37502439340489845953641179221449
-0.86027020191105108004592239012709
-2.43886587548004740710894111543894
-1.15717670848560860719089760095812
-0.00177513435878565162262532339810
-1.01248548031858764950641216273652
-0.86243852264883735792011520970846
1.55338024713013833633112881216221
1.10478471998325233904836295550922
-1.29048746015498205785831942193909
W:
1.88813096299420091206400229566498
-1.51751354874977173459171808644896
-2.59274849709037269462896801996976
-3.26246390873239588970022850844543
0.04188405645578706371079391601597
-0.39911113928267083483802935006679
0.65890767825313545369425582975964
-2.40739322315211667913104065519292
-2.75585727079795717031629465054721
-1.58057554020679047468433964240830
-1.28963146828710772950898899580352
-0.89257709407297447512519283918664
