mlp_weights
I:6
J:5
K:2
V:
0.49445784307108325839053009076451
0.21379205790991021030045260431507
0.58652531104159288943833416851703
-1.34310666983543280927904106647475
-0.24585273366356871771465364417963
-0.02526891891213361995838226903288
3.16951790948191280961054872022942
2.29383468640659904380640909948852
0.09603723394612820318805290753517
0.76024094009807219318730631130165
0.68154380649536461245219243210158
1.18697319890254138208263157139299
-2.63762644814351965294463298050687
-0.13621656851366797935654062712274
-0.67063195609248726913875771060702
0.02386663277217378198447050863251
-1.44267585319632751783558433089638
0.85022037116423165858947186279693
2.03613579800923449880656335153617
-2.31772601657411136955033725826070
1.70489710715251630013256090023788
2.03531836174017355389764816209208
1.24193319796689150003032864333363
1.89138498176134084438615445833420
-1.14363614246576039690239667834248
-0.01461699721243245320145831556147
-0.14943350847107089718335259931337
-0.79522269058405536945599578757538
-2.18951744755513111329037201358005
-0.66270051945782648683547222390189
-4.30081734154257588897962705232203
-0.38213846537513912471339949661342
-0.54010499343255791160345324897207
-1.56817102538039687686932666110806
0.97315141966997109612691474467283
W:
0.85828034892632765195941146885161
1.51823174539179217568118929193588
2.39531882318836508716231037396938
2.48023136454145776141899659705814
-1.44869633011515985820949481421849
-3.43984396456444851963851760956459
-0.97100992505913841235098971083062
-1.09627498623756780560256629541982
-2.34785316606310923148726033105049
1.17554671452410453014181257458404
0.38768657709993747939591912654578
-0.92067613494042621624657840584405
