mlp_weights
I:6
J:5
K:2
V:
0.09532144059862344975808667868478
0.37379082453497314286749997336301
-1.38061701135174907939529020950431
1.41788110917567178326237353758188
0.51329906702033323284695143229328
2.19053165542103123186734592309222
-0.04905219652177665590198074596628
-0.97113647904313349368266017336282
2.36792370555528464137751143425703
-0.35166691148985679271632420750393
-2.24756574831427036187392332067247
-0.32696496119773355015780680332682
-0.79401741386995816629479350012843
-1.69016196127545481608933641837211
2.35637348319686212860801788337994
-0.61552515178572453358185612160014
-0.63524265177730721010362913148128
-1.48451002243404084346423132956261
-2.34313109757718107672985752287786
0.98466112173077635638662741257576
1.68400568646750192769445675367024
-2.06797221093088134935555899573956
-0.48765439497549645242457927452051
-1.22107181911166229326681786915287
-0.08904844369530687253622147636634
-2.06066661014030438892064012179617
-1.70204152594681490384687094774563
2.08096239635951851809636536927428
-0.05439445113650204916000419075317
-0.27660365131792885584616215055576
3.31938673514691062749193406489212
1.98331004766793239646460733638378
-0.19814484646382729549074497299443
0.34761452702173162299104092198831
-0.26463498811427793588890722276119
W:
-0.12234072976447032954361304746271
0.29443393781851601165300280626980
0.87077276296523475895838828364504
-2.55718209975254939791966535267420
2.90232632400712642350981695926748
-0.07566151693702204139579947650418
-2.05421756803034094573945367301349
0.49619924503374568391933507882641
-0.80262079249507889411319183636806
1.13838790715877169468228657933651
0.15030333038854026828090582057484
-2.56217266943376520416109087818768
