mlp_weights
I:6
J:5
K:2
V:
0.53222930994518302671991705210530
1.04161520390783679523849514225731
-2.01685991101863626440149346308317
2.56291773559936819637528060411569
1.61697832161294097197412611421896
-0.23676077582221072281853935237450
1.00098109942254209769885164860170
3.02759294304223258720298872503918
-0.32850566040559875391480204598338
-0.84011779606548275811661596890190
2.34091357956586243460606056032702
-1.97209625950299538565957391256234
1.77395243791738255190182371734409
0.60216121915346354498410619271453
1.70746190121356167246347013133345
0.85925079236736801036045108048711
0.26525316882193844536530491495796
0.56714869339668572134627311243094
-3.39063940394748364326460432494059
-1.43040452474337143051741350063821
-0.45788445883795103608093768343679
-1.82132108919351320963642137940042
-2.06759700470025853391575765272137
-1.54867037376800453785108402371407
1.12842303645116182053698139498010
0.34924771905381274406110492236621
2.13982443254638132756895174679812
-1.33600834881128349707068991847336
0.49462440837032578544452121604991
1.43199445094058042116103024454787
2.04869069696426775450959212321322
-0.63338032675454503106493575614877
-1.10394108943908419995239000854781
1.75968932573359349014197050564690
-2.10716878231261617315794865135103
W:
-1.59115674728068223764410049625440
2.30417731798489899830428839777596
0.81311786811977004862939111262676
-2.36417871213430963450718991225585
1.51601933698401736272387552162400
0.29019750475172034764881345836329
-1.47226020371027654931594952358864
-0.96277001679403262368595051157172
1.69411052436680531485535539104603
1.07799117729981008828588073811261
1.44437797507299237054212426301092
-1.61285795933442654970235707878601
