mlp_weights
I:6
J:5
K:2
V:
0.88825980900976919674150167338667
-0.64391308728893981161434112436837
0.01376613860855832593976799671509
-0.67355946784572984231687087230966
-0.40007591152946064827489180970588
0.86943568978929020030221863635234
1.51336142190951150610089825931937
1.69383633002351308149968645011541
-0.20943895162257020192697609672905
0.77174642395001968875334341646521
2.73141870015577925556726768263616
1.02564404409836940068601052189479
-0.37425446767302616990491515025496
0.39927836580814157763086313934764
-0.83666610236156158109110947407316
-0.28286523118720940939141428316361
-3.05297339981167148437180003384128
-2.04569390493336644709643223905005
-0.50930897215980619474606783114723
-1.28800832459908387583880085003329
-0.09388427247736658154408928567136
-2.88823893105447693230303229938727
0.32047715752706645853109534982650
-0.50974416804195543662103773385752
0.52391240389685900247229710657848
-0.53089233762860033039032714441419
-2.25510628018405512307253957260400
-1.62219691810460653336178893368924
-3.85070012329860489330712880473584
-1.91143002353926894087976506853011
-0.04749813231234102650635264808443
-0.39306867831006464530929633838241
2.15973893785108073117839921906125
1.94706753133447341141959441301879
-1.26490749391273094026644230325473
W:
2.70590751889923142314842152700294
0.80064974542239553123579298699042
-0.22188456347595686413143312165630
-0.11300841640794349884924230309480
-1.69263274201781177552561530319508
-1.33392624391256808813466250285273
0.46720030329980732908268237224547
0.99067224795448161067668024770683
-1.12029494552863040368606561969500
-0.80903401505079197697511972364737
-1.83791603122635471834200870944187
0.53766775588713289213416146594682
