mlp_weights
I:6
J:5
K:2
V:
-0.55431763908850917310644490498817
-2.28250512385605874854377361771185
0.45732479093448963336498991338885
0.08866863348711019610082217923264
-1.61761736532453759274119420297211
1.25417690666512426922452050348511
0.56439055930228276825033617569716
0.26004359197438997597373600001447
1.88994569565698600221992364822654
-2.30888978665994804018168906623032
0.68541429581800417114578749533393
-0.65469942623480648080658284015954
0.08901183895805633849995786022191
-1.15728699724421435490739895612933
2.45687006458933954178291969583370
-0.09964826884070396295633997851837
1.63335211256448409322672432608670
-2.58152011410310811001522779406514
-2.60856865779364088808733868063428
0.28765208933263769486288197185786
-2.17635002214976891465880726173054
2.26446797137461741655783953319769
0.40003192908911711089814389197272
-1.99114345079595289611518182937289
-0.70645806751624362629371489674668
-0.37941459449624542754619938023097
2.09772559490225507516925063100643
-2.06547119547059354616180826269556
0.04400951331234871644060291373535
0.92589449588458927475898008196964
1.85744198632013168825949378515361
0.03255103507500592407986061971314
-1.92736331909914926363569520617602
-0.62808067353187269077352539170533
0.41348536712591726915988488144649
W:
-0.72057875022625639260809293773491
-0.17605205319630165550215394887346
2.41851045908665529537984184571542
1.24238953059454382277237982634688
0.39157361185112082857529003376840
1.89332975828990357491932172706584
-0.11460763381046229492099541857897
-0.39666609340908620673360474029323
-2.37776212901296624124825029866770
-1.45582934716959511156630924233468
0.70197746231392810223326250707032
-2.79995466043858165505753277102485
