mlp_weights
I:6
J:5
K:2
V:
-1.50535699033674075231203914881917
-0.36320721675184569621208652279165
2.96892629962102239105092849058565
0.37155148311039715158798912852944
0.45438438422316268505696257307136
-0.29616948464153824982503238061327
-0.35230031887576424010077857928991
-0.97092130085671024541937867979868
-0.94497417114130888293743737449404
0.97947424339640765111880682525225
-0.27313845400882491576410870948166
-1.20069216269577694333747786004096
0.76102883850194902315422496030806
-2.80091447613663335758360517502297
2.48050734557561680659887315414380
0.46862145298820268024542201601434
0.14862686936648500379831716600165
0.19705940904746552244652946228598
0.15761447507487025276873282564338
2.90565414216201611807832705380861
-0.90642921980717205965305538484245
0.63836988560089513722317633437342
-0.39106309226521784871977160946699
-2.18133333495835968207643418281805
-0.98419940038454711839221999980509
0.76149239501925547468630384173593
-1.44967302375365214572866534581408
-1.13350919441045450142269146454055
-0.84080157798800603252686869382160
2.22911970934052350301612932526041
0.59983451763481243634856809876510
1.74961104566743030908071432349971
0.46103806206531872113885128783295
-2.13624843055705726513338049699087
0.11719166546469741985170287534856
W:
-1.01226581823982830776742503076093
-1.29515408951716048946423143206630
2.89945909716160432623155429610051
0.94095520837853241502557466446888
0.00416679652844582915083293528369
-1.61631557491754929145599817275070
0.05802163787478573087064148694481
0.38649121559047522334040536406974
-1.79035048418288500471362567623146
1.06888630175774457242710013815667
0.43274546196848912016363897237170
-2.95104884109324316909805929753929
