mlp_weights
I:6
J:5
K:2
V:
-1.91890700484694032290633458615048
-0.27652660813812746098960815288592
3.13482930880005294937973303603940
0.06477972221918511241955940249682
0.16406235248497694212410635827837
-0.29177873771922546719537194803706
-0.86926622097105310515985365782399
-1.20885919713452572032963416859275
-0.93794611894122958961617086970364
1.19089531307745355448446389345918
-0.54677284623698341192721272818744
-1.00025355253168024560750382079277
0.78980438934451169252781710383715
-2.60684723509673155206201045075431
2.30503721688464580097388534341007
0.51059494856912834848117199726403
-0.05063479012364027753712036883371
-0.21332219308208888453037843646598
0.21062668403757511814688996309997
2.78518802523081498989654392062221
-0.70949743095383555058219826605637
0.29909034948807311504737072027638
-0.43448033880809339146722436453274
-2.16725965686929455955578305292875
-0.40038199295940790634062977915164
0.60783646081023423590750098810531
-1.49933814256415876009498333587544
-1.02504464650437343564703951415140
-0.39811933222370277096757718027220
1.92209568033264099895518484117929
0.51474573366968667809118187506101
1.66876574696394164298851592320716
0.43602241033916061541120257061266
-1.65467546144541555186435743962647
0.21575338351977543793758229639934
W:
-0.79487047589570014594073654734530
-1.55399981084894700522625043959124
2.75853929824457111408264609053731
1.12466405040155059680273552658036
-0.07686601681551882836451738967298
-1.63034530728968940493928130308632
-0.13607551515068427860910560411867
0.60314526919789679393346659708186
-1.59851551154419180278409839957021
0.70637824022344808394535675688530
0.68710190113176139448114554397762
-2.86422402139433396328627168259118
