mlp_weights
I:6
J:5
K:2
V:
0.99597352708773634333283553132787
0.61894197860430932855990704410942
-0.59872008424290679151624772202922
0.61881446366786285739891582124983
-0.46543297236546610218255182189750
0.40200997533432913932927021960495
3.53845630596723381700030586216599
-1.45367428973424561711169644695474
1.23914428880801419374790839356137
0.48675781439275966899771219686954
-0.53359730336511601578308727766853
-1.22209661524192747528161362424726
1.26048033498981504330060943175340
-0.49478415515055768070240560518869
-1.91335518279515492956477373809321
-0.27746108231129956722682550207537
0.62736643810775294394233014827478
0.79377627964608121757805747620296
1.39673495431127414612149095773930
0.92053002054688570776619371827110
0.98826161837508341712066339823650
0.77645631320888230941790197903174
-0.05538409411968481244059603341157
1.85184011419396910014256718568504
0.87568324903066785402927507675486
0.46720829706414379600687425408978
-0.37547551347838026281067413947312
0.53208491918095224271212373423623
-0.94308907823967935701858777974849
1.27533845849922577997404005145654
-0.39810574913067281466183544580417
-1.90173558900217809508603750145994
-0.40194476935992373700656798973796
-0.12019164262685548549836056508866
1.14768067163258224994137890462298
W:
-1.20444700230464052381762485310901
-0.93640459406064113778711544000544
-1.15079566469903649128525557898683
0.08781029178603508289491230698331
0.79809560354700892492729735749890
1.23820396855541159375491133687319
1.55287335513761481919914331228938
0.81338826912856954098884898485267
2.33603317610129579406930133700371
-1.24885991414479935457393366959877
-0.25246841709921513663417158568336
-1.74517484369159348034372669644654
