mlp_weights
I:6
J:5
K:2
V:
0.72419032657382431672488110052655
-3.24981994261449580463363417948131
0.14088303127891116384162728536467
-1.30100174462873119374251018598443
-2.15802861231020681742620581644587
-1.70997091272547652174296217708616
-0.39991135254434484469499011538574
0.50001692634932481951182126067579
-2.17182819871425003555032162694260
0.39385809528938187096258616293198
-0.63572151665546194898581688903505
1.70123212524516631560800306033343
-1.21277324642324701997608826786745
-0.27450565025243905958873824602051
-0.94797604057838158464477373854606
0.72612818595025496737349612885737
2.10379029566652286931116577761713
-1.23678416295962700921506893791957
-1.49446742508696761575492928386666
-0.21030128411909471131124860221462
2.07235359392321649707469077839050
2.82877415240529384021783698699437
0.55908577927127944828811223487719
-1.04467250212385920349333900958300
0.04326112822052111117621109315223
-0.04766477963203340217912540310863
0.91109835870985633743401876927237
1.03569568720112603621430480416166
1.51778551666782424156565411976771
-0.67952219822168558049924058650504
0.64330433992077951099730626083328
2.54094566278711742057794253923930
0.01999203738231092319921344824252
-2.26071752510322765417072332638782
-0.45053370997056046975970389212307
W:
1.11769116370088084089218227745732
-0.57210986186967294209182455233531
1.23769804862546917156862491538050
3.11524287641416641747582616517320
0.60525262146936653628870317334076
-0.31110941713392759044864988027257
-2.16882981801892427142774977255613
1.83658119313783774195769638026832
-0.38362364180964941828833048020897
0.83356178257221569261048443877371
1.46760531598679055953482475160854
-0.84409205504251672014248697450967
