mlp_weights
I:6
J:5
K:2
V:
-0.61274936280727188009365136167617
1.59180716215643180966310410440201
1.65488034471877609732359815097880
0.93953926796953468603135206649313
-0.35351023477991788679375417814299
-1.06935818320671338632621427677805
-2.77894840210069959951511009421665
2.68285157621405367933675734093413
0.33805102442784995542268688950571
2.47981500474084048946110669930931
-0.09893956402052407617109253123999
-0.15404038912000145300496001254942
-1.19407954463238952236281420482555
0.74032296798484309441334971779725
1.45437210331505961669051885110093
-0.91513154204375690703443524398608
-0.83019711835385789910901621624362
-0.82825381085094096356158388516633
-1.12526783723618861721149642107775
-1.56942038938069594600221989821875
-0.32342676776555512319077934080269
0.64427227430779443473340961645590
-0.63118285089253189923397258098703
-1.09781529458019866396512043138500
0.78835461581938437447547585179564
-3.71377405326523746253997160238214
1.02527183369362773213140371808549
-2.17179638929243257194912075647153
1.77689930661833228597856759733986
2.01369573235929122390075463044923
1.73293155668636367217061433620984
1.10352728119096821224331961275311
0.48323728279712685473867850305396
-0.41513870784489537157924132770859
-1.10490596891417935943024986045202
W:
1.21129895035023915639271763211582
2.22734704682142359288832267338876
1.44269335878138438289397527114488
0.35748440548874321764927231015463
1.90652255336154952125582440203289
0.17840606186966551094386090881017
0.71463354595207229102982182666892
-1.04689051911192132493511053326074
0.70908922369038474009528272290481
1.04274454907350699883750166918617
0.37320024399500945078145264233171
-1.81481904696480889072063291678205
