mlp_weights
I:6
J:5
K:2
V:
2.23303717998723438853403422399424
0.27601507015688980795076190588588
-0.29792793668774303350588184002845
-1.38692573868804913672647671774030
0.95501063452069145931488947098842
0.68629355885719933727528996314504
-0.16903097539989889175338078075583
0.12299505542173461147825719308457
-1.00875364434206171715402433619602
-1.26041796852914012028179513436044
0.52057018286120926298110589414136
-0.84899695342874792469700651054154
-2.47761393749825842292011657264084
-0.08958323954611240036438601919144
1.71800070940399751684424245468108
-0.14605361576384390254190748237306
0.74933602395467968637632338868571
-0.45279204693173624729496395957540
-1.31064882180435793301853664161172
-1.09727743362487473177679930813611
1.43417760707663566321912185230758
0.23932364850574094905510946773575
-0.82144861636482402467152041936060
1.62501307783632276127150362299290
-0.33541007610489648183005328974104
-1.02584788217930977793912461493164
1.69840563472405992051506018469809
-1.99500482304892257090500606864225
-0.55090322644909628380105459655169
-1.94969874612683558012804496684112
-2.13443523626109499247149869916029
-0.60781759198894969031812252069358
0.94989212998310268432078373734839
-1.31490174489606848062805966037558
0.17734150751147159663645425098366
W:
1.86072324875311512215603215736337
-0.02114991254671039211388006151537
1.96168592778109140972730983776273
0.72771482080057203756240369330044
-0.08143772446401098541457486135187
1.13199782126516379499037157074781
0.91481414005087635654689393049921
-0.06862350918532983401476599283342
2.83030270858291288504915428347886
1.02079423226098575661069389752811
-0.38923831152531385146886577786063
-0.45991084483025446161263971589506
