mlp_weights
I:6
J:5
K:2
V:
-0.45215806406513042725592299575510
1.24101748796977151556575336144306
-0.07927600541687697399684253696250
-0.62796774448554304459690911244252
-0.14042256008399989219981307542184
2.04782344177146491404073458397761
-0.00369057165220840199815199866862
-0.30213121223079464350291800656123
0.66545381865846753299820193205960
0.21217451835809555960032923849212
1.39898449919459988421976959216408
2.63399449204522539957906701602042
1.39521691540618375526605632330757
1.17981583838121162344236836361233
1.53169019760570335186855572828790
0.66980415381593050305752967688022
-0.59369582629231665293900732649490
2.02887205898214428856363156228326
-0.13056054548412754368058585896506
0.31605334716581318099670738774876
-1.17209897718868183424945073056733
2.12701969473862639858907641610131
-1.17871150057471552052845709113171
-2.79477728014379511733977778931148
-1.67681076487850799772161280998262
1.27028243719551192647543302882696
-1.30065899974207344058640956063755
-0.54956704486962071332101231746492
2.56703202261813245854682463686913
-0.52442566043849470069915241765557
0.08762462390436979997598854197349
0.63791167291662931315698870093911
-2.48256050285414575640174916770775
1.22979135327331445814991184306564
-0.03464843211335928707672593418465
W:
0.44391399775180950815212099769269
0.02255480268080872763292177296535
1.57996186913900071857597140478902
-0.04251013373300588371606067994435
3.67910555815735174078895397542510
-1.95313082328533105247458934172755
-0.56878056244818253617268055677414
0.17707865303295630687863138064131
-2.02874750488011734717019862728193
-2.40428384021505303635990458133165
-0.74380347788091194516368886979762
-0.89731304930089361704403927433304
