mlp_weights
I:6
J:5
K:2
V:
1.93868190412699958891096230217954
2.63741623568204630601030657999218
-0.94506373535318621836864849683479
-0.77706729393001983119404485478299
-0.23681507888050815080482891517022
1.00969365790532772386711712897522
-3.11314581082626329333606918225996
-1.20337497797796344478626906493446
2.14454631073832580057114682858810
-1.54691133266093250320238894346403
0.70319079242389648243261035531759
2.37524989247070106301862324471585
-0.62212747147626057397928889258765
0.80847505970777466810517353223986
0.39710385901323852486655141547089
-1.17990267680149263362920919462340
1.50630057510945047916095518303337
-1.05775559387971496150271377700847
-2.05979927616960223346609382133465
0.24534926662465428304216175092733
-0.79982477101747073700011014807387
0.67704654691679500011503023415571
-0.51053261077141298684978210076224
-1.00447054159903204073600591073046
-0.36835778231486904221725353636430
-0.89432971014670892273557001317386
1.69486357811826793273723978927592
-2.05856472829517400668919435702264
0.07540720900595102027530458599358
-2.11560103347002392837339357356541
-1.01459054752499278073685218259925
1.34199765509950363906455095275305
-0.17010204373491472074064745356736
-0.77569722606817004262325099261943
-0.92717706181032988332901823014254
W:
0.34178856018904141267356067146466
2.42046535189833722512275926419534
-1.15248258579842199900156174408039
-1.60200674460015957123459884314798
-1.81087886189392732738667746161809
-0.59571697674726742377515620319173
-1.21426238379622275509461815090617
-2.71121715992603373734937122208066
-0.67479222590738374698560164688388
-3.25758456932292839169917897379491
2.23690886733499061378438454994466
0.54290714396438732869398791081039
