mlp_weights
I:6
J:5
K:2
V:
1.72021916355785253749388630239991
2.72658756195156648516331188147888
-1.45912229670657911384523686137982
-0.82569665761148614002706835890422
-0.09637271745617245755077817648271
1.01615718148169520418377942405641
-2.81274383341357570031959767220542
-0.99892727917040147200822275408427
2.10667876371086304487789675476961
-1.83954091533361085986086891352898
1.21963759529576054596589074208168
2.31359351983651340134429119643755
-0.42328404478733566707049362776161
0.54320058061579823416309409367386
0.34878153870857653284787147640600
-0.71242780804729388677287715836428
1.42303944660454462223242444451898
-1.19607624008701129980636324035004
-2.51921896860598737433178939681966
0.07719730869013205487583206831914
-0.70464931311035161609623855838436
0.79571946427523065903386623176630
-0.47546172500880351519114697111945
-0.95794791358960107441333775568637
-0.77328883154213989836733844640548
-1.01147728859094798714579610532383
1.73394831031212026672960746509489
-1.97407753812101161017267259012442
-0.62921202081492766389203552535037
-1.99772327118208981033831150853075
-0.75555039911048194056775173521601
0.94115518088402172480755325523205
-0.05540447403449562380206572242969
-0.57498348563001144828632504868438
-0.78614009541779750200873877474805
W:
0.54336875342227575202969092060812
2.52547353806856511582168423046824
-1.26276054111259461443239615618950
-1.24664507725346407340794030460529
-1.68887842491799533561902535439003
-0.92277613679249115286040705541382
-0.90474975485557052046203807549318
-2.60585439356606585192821512464434
-0.69769422611698161951210295228520
-3.17333260402895822593904995301273
1.79910420035876450484124688955490
0.26678126177500210980397810089926
