mlp_weights
I:6
J:5
K:2
V:
-0.41029097724348834175245315236680
1.28542402727117877070384110993473
-0.09260372099750102670157048123656
-0.62831915523538373058443085028557
0.06360209947981407263561948184361
2.11344662248797554582324664806947
-0.07805058680223009304199877078645
-0.44192183152079833607928094352246
0.64724043802973740824313608754892
0.02558550264108111482741492181958
1.36810393492887460986651149141835
2.60759043336254459077849787718151
1.27473059252306808453170106076868
1.29995472722098304174664917809423
1.61168463253287042036276943690609
0.66209701037168322557135979877785
-0.58716423318784649598711666840245
2.09376210247718352874812808295246
-0.11248859428661461823395484316279
0.24339652523132065953248570622236
-0.91765471976384005436955249024322
2.22311588110162672293768082454335
-1.20291505438835355512594560423167
-2.65222804061834871447445038938895
-1.74441901204693960991676249250304
1.36687870932820842995170096401125
-1.40968576205066176143532175046857
-0.50885711720054227491516485315515
2.44333390958650475965896475827321
-0.66885874195291872279511835586163
0.22622100035808356821576126094442
0.62157956517630663650919586871169
-2.48208253667635014849679464532528
1.28594851891184225323172540811356
-0.12482519178016872329894937365680
W:
0.25999050502917497862398477082024
-0.04165619595060567059707778980737
1.65639917388115964769212951068766
0.02876553715822531553936158843499
3.77433185095646983597816870315000
-1.94441893545055166647728128737072
-0.67087368528498148023686553642619
0.17847834124770070585164205567708
-2.02537034124356774000830228033010
-2.31353982161587534704949575825594
-0.73806170150572014687639921248774
-0.90268311239708665105752061208477
