mlp_weights
I:6
J:5
K:2
V:
-1.81830815479658269850915530696511
-0.00606648573564863569096416995308
0.82582784255913732618381573047373
0.32794012343195710901255779390340
-1.50908342003136808351371200842550
-0.52970377602344353995533765555592
-2.30106360090811490337614486634266
-0.25245708028083663210239251384337
-1.23152935323869461292645155481296
1.52621319872081628865601032885024
-0.56051040696021403597626431292156
-1.51439447399733739807459187431959
-0.10114651137955421589254001446534
2.31339544979722333550853363703936
-2.58614355077944546579260531871114
0.76376979749081541637423242718796
-0.02133406772200323320287651540639
1.42842730416080709865411790815415
-1.66113190300607604932281446963316
0.13517658688485234552700831045513
-1.47494467836193154930413129477529
-1.47522219289158584842880372889340
0.35399293788882474354196006061102
-0.84777822896928922702386444143485
-0.43849193129267988178199288995529
1.39011130917993419586764503037557
-0.63055501076673126092941856768448
1.01327835803465537978240718075540
3.35318650869511358791896782349795
-0.29276896404243979432635569537524
-1.06266735644885623734978707943810
0.46402937172719976866019919725659
2.43902953255368259988244972191751
-1.19581212696479055601628260774305
-0.07206290119526181925380114989821
W:
-1.14484799994486174945507173106307
-1.43455199640403696648149889369961
-2.03067044183477740659782284637913
0.05716865571780705562732194380260
1.39143617593012036692812216642778
0.02859661604003566059972740731610
2.27731480322374091329606926592533
1.47806829984088317075929808197543
-2.58593411985187726642720917880069
-1.21147012014359689580089707305888
-0.53470890274553273258106855791993
0.44340991882389690914578750380315
