mlp_weights
I:6
J:5
K:2
V:
-0.68284442396654143614398435602197
2.00218379515663080780996097018942
1.23118536334951866884068749641301
0.78957532487493464756767025392037
-0.64803519750002791521836797983269
-0.97517171588375384239100185368443
-2.65374667010162790248273267934565
2.69052533627744061561770649859682
0.47874160162449946875895534503798
2.19226821109436365020428638672456
-0.21114431074682468714165395340387
-0.13790396424097006722320202243282
-0.98482802694181226232927883756929
0.83523926570064288554817721887957
1.60464524541168973570393063710071
-0.95907237719684368393302520416910
-0.77042683862861371935082388517912
-0.51619448549529167724614353573998
-1.16333900110805599226182494021486
-1.90341490657221212856597958307248
-0.46870009293039627262800195239834
0.93903465171977185121932052425109
-0.77540057868440392940811989319627
-0.77087630543601093346950392515282
0.88166828053009249632765431670123
-3.46842706723570293192437929974403
1.17634627870394892212857484992128
-1.93642013935972290283871188876219
1.95541102419754886376779268175596
1.63592559153992245235542668524431
1.48922567186908372249831700173672
1.39050367517230477609757599566365
0.54208255136663163753496519348118
-0.35457654422855044984430605836678
-0.77972406523511739173670775926439
W:
1.48140145936543032867405145225348
2.31120337833753497491784401063342
1.54621828045543563412422827241244
0.00996592185631953175750652462739
2.32136372203044905049296176002827
0.27724726518037190459153862320818
0.82981175509711901927545341095538
-1.31435230705847172494316055235686
0.37452214534059635742124783064355
0.87311359495212459425061979345628
0.13134501109853896627654989970324
-2.06079518443851039677383596426807
