mlp_weights
I:6
J:5
K:2
V:
-1.26234795198496962953527145145927
0.09622950432904464612704487080919
0.87790364259248543365998784793192
0.91955561008375108489332205863320
-0.01404265838603893645775144705112
-0.41555031158233984855954190607008
-1.90210354929867375695096143317642
-0.55630477353352458802504543200484
-2.96264854941034139201860853063408
-0.37178166191475975344005178158113
-0.46362820360006418152210017069592
2.14497459045800731303188513265923
-0.82514597426744318298119651444722
-1.73533341624554782178790901525645
-0.18609298370356047724882841976068
0.96640320434191118170730305791949
-2.40221469431817791218009006115608
-0.61494734187867639008118203491904
-3.93451153346283799550064941286109
3.30495021401843525055141981283668
1.44280408777646873552669148921268
1.99165888658439960146040448307758
1.61685457738400106819653956335969
-2.19130207212762817547968552389648
-1.41433924982918401980214184732176
-0.43793568286375583742398021058762
-1.52479932784304716975043447746430
0.81582124608216122219062071962981
-1.68732551901485172685113411716884
-1.24603941200281864709609180863481
-0.62422681946639979599922298802994
0.21832474433042775574520533155010
1.43365069290065916263188228185754
-3.01309064560124761911197310837451
0.20642216378926314668262875784421
W:
1.12035227303121742714608899404993
-2.03099234415574292356154728622641
2.22774039895400299826633272459731
-0.54879634792812304056042194133624
-1.55635740473002237571620298695052
-1.60300072833338314026718762761448
-2.17820611213788506432820213376544
-0.18039201655993311601555717516021
0.00259126107686050155543000528269
-0.35630912404535924897786003384681
-0.79354998523915054597921425738605
1.22690232954961797595672123861732
