mlp_weights
I:6
J:5
K:2
V:
-0.82648858286017401475476162886480
0.31797490493880964379513898165897
1.10390693181678001266732280782890
1.15541238071697249800706686073681
0.37106714304460119979722776406561
-0.59911686983067502509925361664500
-1.81006705464185313481095818133326
-0.18497894820018184747212330876209
-2.51051013364645303482802773942240
-0.44975987491730751166585378086893
0.09872051957277001854595965824046
2.13653009918573877357061974180397
-1.18941247774953806626285768288653
-1.92815055416667480159276237827726
0.14364329056699820519327204237925
0.92331753506278357868097828031750
-2.19167284056894429156159276317339
-0.81995701754924266158042200913769
-4.01558648843752408197360637132078
3.14364744469269963289548286411446
1.61498713886895517433117674954701
1.76281982356229960373639187309891
1.71601414557753018108599007973680
-1.73565849737871413793754982179962
-1.40301127765843158812231195042841
-0.51384356583266699303180757851806
-1.44722531891377848012325557647273
0.99746121645572194402973309479421
-1.39403962042283757760685602988815
-0.79933770798662207024420922607533
-0.71827547101946809249284342513420
0.14641841325894677794394738157280
1.22344963410237417278381144569721
-2.75977430816952606917880075343419
0.10805364105607717650769927786314
W:
1.04013915241917564991069866664475
-2.42016773545808261403067263017874
1.74722321816037795549902966740774
-0.61771103564429385990308674081462
-1.03525416545642579002617367223138
-1.80098640237621410165047564078122
-2.00742971535958059092763505759649
-0.28735246419214266477837327329325
-0.35563316009794054828319076477783
-0.23009373707341373993529032304650
-0.95792633611908251101141331673716
1.40547907552101403183542061015032
