mlp_weights
I:6
J:5
K:2
V:
-0.54514742783505887313566518059815
1.97922320567827747517242187313968
1.22187693868159663601602460403228
1.01364220305904950691910926252604
-0.60092026689438093889350511744851
-0.91910479349156193329406505654333
-2.27698039249789285776159886154346
2.65821906169417720988690234662499
0.49665943879931317983533745064051
1.67540928916446896224101692496333
-0.00473901481888375220030695800233
-0.25839831707686589101768959153560
-0.92863137764071002067112203803845
1.08865131768574485704448306933045
0.98695060167832848740943063603481
-1.06196454817244978485746287333313
-0.70423328395505446763991130865179
-0.21780330541825151935420024074119
-0.69986293939016785969897682662122
-1.99241121337520166179047009791248
-0.27548171439583524211514031776460
0.97570820828862336870912486119778
-1.09307786854425836864379562030081
-0.83934748750659093907700025738450
0.77145736328530278846926648839144
-3.43376050783108244246477624983527
1.49309751399470402866143103892682
-1.87623608981786471616715061827563
1.71244413296719422135083732428029
2.20758334898702734960806992603466
1.56724835847173937786180886178045
1.30467902733022822481245839298936
0.42329280435715266328600137057947
-0.22297938228053881815071690652985
-1.08893456990556147800930375524331
W:
1.42304021561028859466091489593964
2.61128723757989700260395693476312
1.66219167372298115559203779412201
-0.31061833533923460803904958993371
2.57098693987046811315622107940726
0.43063914346390674836584366858006
1.17690955417615605860248706449056
-0.97313129286161814679445569709060
0.65608907852743969524311751229106
0.98590636276654008973707732366165
0.25467629357801413458872730188887
-1.94069820090905231779743189690635
