mlp_weights
I:6
J:5
K:2
V:
2.24143008112430086598010348097887
0.30094254943112119793369174658437
-0.47631878939636856928885322304268
-1.09220089619802318559038667444838
1.20634013291690234126463110442273
0.93710435585483731202316448616330
-0.16499328348953185008340938111360
-0.19050388419504968307016667949938
-0.80920382647975042100796372324112
-1.36777579490709078058330305793788
0.45290578853823015847979149839375
-0.80455681788043698077217413811013
-2.26667904406526288241252586885821
-0.54434428179639415823487524903612
1.78526503003409375835985883895773
-0.20374424353479858584847761449055
0.62170003804284956760994873548043
-0.57000700085537914230116030012141
-1.80423766853671341259257587807951
-1.32130592898904608567534069152316
1.57842034363488536996555922087282
0.13902021973286571299155411907122
-1.01725076489329335771572004887275
1.46218622430164124637030909070745
-0.49936651771440765390508431664784
-1.20082706508841430270706496230559
1.75655262110916643436553385981824
-1.88325205389924410503965646057623
-0.62561156218175040244489082397195
-1.70763562322422735029192608635640
-2.03384561227199656130437688261736
-0.33323886213992442995035503372492
0.81476137592753294924818874278571
-1.34699756784397361997207553940825
-0.09149599064755786770319900824688
W:
1.85049807879227179441272710391786
0.00918095853605799261387687693059
1.78100982711828259574815547239268
0.64380257823570685715708350471687
-0.30038335116288883419599642365938
1.38167306399209843803532749006990
0.51993242692845931252065838634735
-0.21165177697970632975099647410389
2.49063312481143217524959254660644
0.96942255004264588080786779755726
-0.26972034260403870975508766605344
-0.76390595431665819781130721821683
