mlp_weights
I:6
J:5
K:2
V:
-1.55086589417559994608097895252286
-0.09376218942755726315496644929226
0.63654546307354953338375480598188
0.33109685587452719612855389641481
-0.93033540454466512326092697549029
-0.15414630445893615084962391392764
-2.33904540966011742497698833176401
0.33313380241461826303250859382388
-0.93089706476450639893727156959358
1.74092051783921863972182109137066
-0.57475003541192248857072399914614
-1.61130360848981202259722067537950
-0.00397342769802058737305117119831
2.08023789260735414430314449418802
-2.08820438461390001094741819542833
0.63169839420982609734522839062265
-0.16207015969716939696176893903612
1.51917782689046099164897896116599
-1.60418165769584852853313350351527
0.31432667379499940052411943725019
-0.95912094994814167669971993746003
-1.73368691305347999431774042022880
0.56054031682000282632571952490252
-0.71131079450503242878056653353269
-1.24445003904805506778075141482987
1.65976195024194805860418000520440
-0.88817941896086494146800305315992
1.28241042501557456212424312980147
2.87424941120034871389066211122554
-0.00613567547082841200506431178496
-0.59517275425050941706217599858064
0.55357457860481640299354921808117
2.08857152696381431766781133774202
-1.43759290755676416573294318368426
-0.06219594334140711444636195892599
W:
-0.79841363839913792599389807946864
-1.53873458512865424197002539585810
-1.84199978266186881192822966113454
-0.00486629802985718423746774874417
1.50772882207826697253949532750994
-0.40983038758466627804466497764224
1.64078754517704239468400828627637
1.15598501078133764075062117626658
-2.36568669403555897901014759554528
-1.55769038601694176371381672652205
-0.47167177965624373925379586580675
0.47101643079059168917055444580910
