mlp_weights
I:6
J:5
K:2
V:
-1.68109144214860428689917171141133
0.06838308576429066865109973605286
0.69378948470567403106201709306333
0.22277271442336030182751471784286
-0.86606606516535034057113762173685
-0.18494221399198584876444328983780
-2.18272362706167655233002733439207
0.27070696216226852737207764221239
-0.65010350805675676255646067147609
1.47978189139115290373638345045038
-0.69772007294443583180765244833310
-1.49906280199954911047655059519457
0.19285625106016118790464020094078
1.95919809016719481675750103022438
-1.94543724080142954591110537876375
0.30235803975489489170414003638143
-0.14531243869213775199433769103052
1.50777271204909202317878680332797
-1.41478071157798246382242268737173
0.27689222010173814014777349257201
-1.12425737391778191032187805831200
-1.54569719511538083978052782185841
0.64420916190718113814028811248136
-0.77181944390576939785120202941471
-1.23495360481418980924672723631375
1.69506440131008506710941219353117
-0.72165640221320725977705023979070
1.19264705271779680728627681673970
2.69371434764106520987070325645618
-0.13221899525128449903732530401612
-0.91068461974756020893551067274529
0.32399664406795847249043163174065
2.33212253295898808147512681898661
-1.39793445577786368261286042979918
0.19584716096878032609573949685000
W:
-0.81897816046097748898802137773600
-1.82423783220632595991617108666105
-1.90057768587524322789761299645761
0.19303059538944139506000396977470
1.80633362616806247835654630762292
-0.58987736717857841561851728329202
1.49938026096244025886505824018968
1.16047309938003029294861789821880
-2.53792095098872438896364656102378
-1.56777842703717151806586116435938
-0.20194028727014382007531878571172
0.66785289638984168814062059027492
