mlp_weights
I:6
J:5
K:2
V:
2.13780083338782667112809576792642
0.57880370677692249969936710840557
-0.36392740445094745593834772989794
-1.99662877782499048606723590637557
1.02220429433069703861747257178649
1.04359716691844695013458022003761
0.18243895400505016901604449230945
0.26068517407912905614608689575107
-1.13004817271540480838609710190212
-1.34838560944441487876588325889315
0.50934034494468238829512074516970
-0.75010773718485013183965293137589
-2.35397947406057239660981394990813
-0.34141744526057649089523238217225
1.48302755675389108525052961340407
-0.00406449807928363493481072055147
0.82042128412228609857237415781128
-0.82645335218425974854739024522132
-1.52587200496072905586686374590499
-1.47618091234185189186689513007877
1.15662059137260930796742286474910
0.28597455585882314288426186976722
-0.76767445528364230966644754516892
1.43633737706694009084174012969015
-0.24061571275812021486473213371937
-0.75777111727782153760557548594079
1.58231808067213264301642539066961
-1.91319021576521164362816307402682
-0.64932170413135747999433533550473
-1.76189921544395677877048456139164
-1.95261156529809576376521818019683
-0.51319571041766753882740204062429
0.53576581239411202872702233435120
-1.50854557269384459416983190749306
0.05704964359114889083102184486052
W:
1.90926501334198994719315578549867
-0.51801644631082344183425902883755
1.79060134391184977431521474500187
0.71937717788358890302902182156686
-0.02096558483715406373537604167723
1.33423253902314864483003020723118
0.70658031658301134747546257131035
-0.43435675291330944070011810254073
2.52267375062860921275387227069587
0.90934203262951918134149309480563
-0.13127823790199621978302957359119
-1.11344563748407088255021335498895
