mlp_weights
I:6
J:5
K:2
V:
-0.22082146375510369740169380747830
-0.91609968744534053808337148439023
-0.36291083102709598140478419736610
2.15014654616416400756406801519915
3.92583550036529027593701357545797
-1.91010242829422360877344999607885
3.94323317277705376326935038377997
-0.39413828715434429117436820888543
0.17280083667795240187636807149829
0.76427388106896088082464757462731
-0.80625091738053089596149902718025
0.02746850585806090427887227178871
-0.29449587336547411453580025408883
0.96574297091002514470403639279539
3.45071711473144970838689005177002
2.10455075834441540649777380167507
1.20445382384041255185991303733317
-0.12223569548075122193075969789788
-2.17053331461972076610322801570874
1.37085149466622202574228595040040
-0.40562661598532245843529153717100
-1.57973381929176515114932044525631
0.15749167159976545926625135507493
0.56048661600370908164592265165993
0.68961662822342184586688063063775
-0.47650042968483641292465335936868
0.50592607925774746302494122573989
1.16980641350795488975222724548075
-1.91280369947886930148683859442826
0.48338278328340728018375216379354
-1.63881910439420241942798384116031
0.28062910103150096041701999638462
0.42480462526035694947879051142081
-0.19600366595079782294774872752896
0.24505795003442157331541295661737
W:
-0.64379517402094887934538292029174
0.99054755390021265171185405051801
1.36357098440961799212800542591140
-1.40661451723759878262853817432187
-1.68529513999159830106577828701120
-0.32975906798964704780274814766017
-1.66502446610089327450054952350911
1.86496709590114817522987777920207
-0.01205502872890354404411539235298
1.45251267183001275817844089033315
0.08339588426683115784943112203109
-0.41999571666631868582797437738918
