mlp_weights
I:6
J:5
K:2
V:
2.12277423980677859560728393262252
0.30236844073050905823407674688497
-0.44539006711619688605452438423526
-1.58876304021742109640058515651617
0.99075532522291154258198275783798
0.97954448088360246416073096042965
0.04944723561230084107886995070658
0.31307074196063700011194441685802
-0.95092944531807299668457744701300
-1.41704283709517486755657955654897
0.44286684107334972626546232277178
-0.84603033240771130518709242096520
-2.18440847316079267415034337318502
-0.45639789578804840219916627575003
1.63167056150927392010885341733228
-0.18579599528035048439100762607268
0.91452408268101670341110320805456
-0.80584275056977838769256550222053
-1.65826156884602537999739979568403
-1.35201968221915747037087385251652
1.38788680749392745461534559581196
0.38625483395617021820100944751175
-0.74929202009262796391197980483412
1.59940622700163936897865823993925
-0.25462057435103241376239679993887
-1.32507857634239156752187227539252
1.50620036857252470596790772106033
-1.93242093553678451200994459213689
-0.32893329363856332880899913106987
-1.61395435541223930542287234857213
-1.94024888795820871223440917674452
-0.45098507574529589359002557102940
0.72492631208740787585043108265381
-1.33734555490069473293601731711533
-0.06636859187155032258065290307059
W:
1.97360818252070147060805993532995
-0.40141334590437482976454930394539
1.89296171176817429326888486684766
0.88306951662609367570411222914117
0.06925561125236695536599995648430
1.02239973124782457247761158214416
0.72942786487905042491775020607747
-0.49310376585920023817521951059462
2.47923079082093877900661027524620
0.67357905052785083110933328498504
-0.25568586540724436151350573709351
-1.05136569603037433040526593686081
