mlp_weights
I:6
J:5
K:2
V:
2.20926515966355196951553807593882
0.33299576027779509423965009773383
-0.32690481073178878634877264630632
-1.69250790854558630371684557758272
0.88800572875739836042896513390588
1.09547157044475840237396369047929
0.06178843934890974887164105666670
0.33490245928939843533811426823377
-0.68146114354822528991206809223513
-1.44144765695287491169551685743500
0.61802958512388006528937012262759
-0.88976386198558932161262191584683
-2.26700464013440461386039714852814
-0.38077094359660901279340805558604
1.49203495846357481191546412446769
-0.44698714337075007296817830138025
1.04756193592755297849805629084585
-0.79476159226705900273657334764721
-1.50706825279961953434337829094147
-1.43104498429519355617856035678415
1.18474026581265778901297380798496
0.51317892858244107401333167217672
-0.59217913808582323120788259984693
1.51812066935751488472305936738849
-0.30267867838061046636966011647019
-1.44998232515422098565238684386713
1.56976391506187096247515455615940
-2.09756505097712020457834114495199
-0.48958948950884167983232941878668
-1.67850388104384817822278819221538
-1.84203703691451714519189408747479
-0.52805197703216466553755026325234
0.84968400253212628125965011349763
-1.30277384548422370258435876166914
0.13900817009783855704441180023423
W:
2.03232449088781663704139646142721
-0.40337726128868867103705042609363
1.86373494776178527665422279824270
0.86008657754264050687709186604479
0.03183785561744121445082456034470
1.00203652927533881644706070801476
0.63073992980659643325935803659377
-0.52937158406710072000578293227591
2.59723044648736722805892895848956
0.67119096229538355302679519809317
-0.06329126934540962867714597450686
-1.13400346766015402977245685178787
