mlp_weights
I:6
J:5
K:2
V:
-0.29063051427562602846421668800758
1.29921805951351454488928993669106
-0.10743754252949005989492547996633
-0.43733025068556485859261329096626
-0.33715202421640444452322071811068
1.93056225242333745484302198747173
0.25430982264741519571771277696826
-0.27305281459412866773561745503685
0.56812490728731046552013594919117
0.14313714594459919782210022276558
1.40369768017806340054676184081472
2.63885411757648213892935018520802
1.53921982365849774332389188202797
1.12742110556552588285228466702392
1.53670085362060793165994709852384
0.63873593245404358675898492947454
-0.41994614066872654190021307840652
2.33541124119166454420337686315179
-0.11923268149410069793869837440070
0.08509931052280575447532839916676
-1.05533771557112321382021491444902
2.18295595084175797495618098764680
-0.99123871240957017736405987307080
-2.86512986604751729302620333328377
-1.79033141563780784366599618806504
1.34251125243088287319892515370157
-1.26170625126106528135494500020286
-0.59135805160600130037096278101671
2.53281683876183150161409685097169
-0.65638875001059981961759604018880
0.24636731428522118392265838338062
0.57994590013763691604964378711884
-2.39212864590677432019560910703149
1.27254077916402241754667556961067
0.15101903571213692867303279854241
W:
0.28443464950170227467651784536429
-0.02156726436153665049655359098324
1.59490260864525401629521184077021
-0.02636930551948599155132058058371
3.73909551005001095091984097962268
-1.90414647187536711925304189207964
-0.42457385693765042899983086499560
0.13928960890619340728946440322034
-2.05804791695852840049951737455558
-2.32779239149799632713211394730024
-0.82949039248732847617873176204739
-1.13847096004057934948150432319380
