mlp_weights
I:6
J:5
K:2
V:
1.78139439246889486057057183643337
2.56117037630870036934993549948558
-1.09737029010376807569571155909216
-0.77304509579718216905064309685258
-0.32547610568157225863217263395200
0.94993094685306711522088107813033
-3.17326832228296984439452899096068
-1.30361538222178330315159655583557
2.36083362770078863945855118799955
-1.56133186806138324342896339658182
0.53645437804942397441720913775498
2.28020547478845969635585788637400
-0.17624093617438280068299150116218
0.85798624071540452451500868846779
0.69371218204385143302204141946277
-1.13417031748010366243306634714827
1.66900001471010805964567680348409
-1.21816708043303378872224129736423
-2.21108037316707628505696447973605
0.23977686548075594075157823681366
-0.61310854616003163108928220026428
0.54171434022037734390409013940371
-0.39608006655987038069355321567855
-1.29248526527243612349593604449183
-0.38231884964767082202286019310122
-0.92905440740839950741758457297692
1.59276526693813091917206747893943
-2.21696336045650710389054438564926
-0.09752581818472398633712572291188
-1.81981197566815189325950541388011
-0.63145459787279456520536768948659
1.32994898460864541256398752011592
-0.28202886401954635475775035047263
-0.94988393106585455871737622146611
-1.08207978414274741396639001322910
W:
0.56609606514258947740358962619212
2.66888454112906847726094383688178
-1.27105385342559684680452392058214
-1.28594560040180305726664755638922
-1.80475465433137127746476835454814
-0.84494947518013496789990313118324
-0.99137565467783916872690497257281
-2.54824010051074578697694050788414
-0.56034315184107164053983751728083
-3.22365615727693333170122969022486
2.25516514838833037615017929056194
0.38144962867573445342017635084630
