mlp_weights
I:6
J:5
K:2
V:
-1.30414925568395001498345209256513
0.11912748479235334142511959498734
0.94663510901264003027932858458371
0.99276869638287457142666880827164
0.19273451132254065809590315438982
-0.39241575085816415846551308277412
-1.95940179195712049775579544075299
-0.58766131171949476108551380093559
-2.86783723387495870227326122403610
-0.37879633401114848334501061799529
-0.43800031049191118226460162077274
2.00970681047096411120378434134182
-1.05063979985233224567764409584925
-1.83297545089827851327868302178103
0.01108238611070302970240675222158
0.96971273174945549211400930289528
-2.47656650999308913796426168119069
-0.54012513467600442584881648144801
-4.10277635821876973665212062769569
3.45125906220836808913077220495325
1.49622221870264837662034551613033
2.07662427029696861069396618404426
1.39474007257059007258703786646947
-2.32778175960538735722593628452159
-1.25773296159425695961431301839184
-0.55919853702435218245625492272666
-1.58756997211214789800237667805050
1.02370668266651021482971373188775
-1.77430821337068533871672570967348
-1.24348791579783357619248818082269
-0.61048828690374812300234452777659
0.25548286044356688373468955433054
1.61125434884412643832263256626902
-2.99449396114120292011762103356887
0.02208346935489205464797635158902
W:
1.11509680016353085463265415455680
-2.05198758963755611972601400339045
2.11334991665532001547944673802704
-0.43579292670557323585711628766148
-1.66665469241327102167815610300750
-1.53879329662409158885338911204599
-2.17084374801628499085381918121129
-0.16257843278949551946155338555400
-0.09022719968162157266888812046091
-0.45992274557836404502708660402277
-0.84064978308754811919811800180469
1.23014077935425758525411765731405
