mlp_weights
I:6
J:5
K:2
V:
-1.31086649245734787605499604978831
0.25698807558429287434265120282362
1.03960252914723905171001661074115
0.91527405954335638860186463716673
0.02573432487552508585171295862892
-0.25279903810332809976912926686055
-1.77946437387213163283661288005533
-0.62651128483820939241155656418414
-2.96434525704021867298365577880759
-0.10583277751449852999154899180212
-0.66788599052133890143778671699692
1.74765530319530593139631946542067
-0.60751417442567812177145469831885
-1.50620619040886749573360248177778
0.03489161692680725623816329061810
0.91177120440687353664088732330129
-2.36370499890155461031326922238804
-0.55122260062286454473934327324969
-3.77880994460383412558712734607980
3.18115652947455052057534885534551
1.68159277173933685567419615836116
1.85982124141885774015747756493511
1.85554138815884983593207380181411
-2.18937794444565048124218265002128
-1.38691549855929685541866547282552
-0.35990251365623698864837365363201
-1.36388644773436440438274530606577
0.88326922219236037037148889794480
-1.65155434742819662297108607162954
-1.12317656040497393377108892309479
-0.51926736230982162290104042767780
0.26757416451785703825905216035608
1.44023253732476086419467264931882
-3.19865022166163903705182747216895
0.30765623320467466728089789285150
W:
1.13131816185033517996316732023843
-1.95084115737034236026659073104383
2.14209145461605743321342743001878
-0.50473038397124536658111537690274
-1.58267984187980159660469325899612
-1.48100110043204957754880979337031
-2.05459785890923996021228958852589
-0.00079722672494681595667387341564
-0.06130543579762919720321789895934
-0.21841042062676829793588240136160
-0.72947087230340201813305611722171
1.52748157465566025692282892123330
