mlp_weights
I:6
J:5
K:2
V:
-0.55372615612477471547236973492545
-1.27578888849143368133809417486191
-0.43976111471162993016292830361635
1.94584853799701207321959373075515
3.54359999477937526179971428064164
-1.99378220249735460534168396407040
3.58632347979009225014124240260571
-0.74060368463467041166836679622065
-0.17462418180655031596515414094029
0.72911487109539285800252628177986
-0.93931326966825623436818659683922
-0.01991145780666724041108039955361
-0.24915921096775855980709479808866
0.88968859721242810056907046600827
3.31325703324663933813098992686719
2.31612613503010278392935106239747
1.31896165214988703162646288546966
-0.12021382866718521853499623830430
-1.87312069016556526079853028932121
1.20878360313695121242005825479282
-0.49532237451313487763826515219989
-1.44177871618988251434245739801554
-0.23973639540150482041269697219832
0.68839124391667627644864069225150
0.79858918932811384649994579376653
-0.87258653539532815557322464883327
0.35926703955978245286217998000211
1.19520026534305401355595677159727
-2.05233659582629313078427912842017
0.55621690322777861403835686360253
-1.44158901023674390629025765520055
0.02266983349709379702563438740981
0.15528118702369242409844218855142
-0.08428340629959710228469305093313
0.61486811807510388661057731951587
W:
-0.72174165532224043850817452039337
1.01194647838016749119560699909925
1.19217708596590443725915520190028
-1.52341828938536272275428018474486
-1.81065053311988188866621385386679
-0.75508962788583400271846812756849
-1.49135871214193382883195226895623
1.82471546321651301170163606002461
0.05178350638844733677679244010505
1.17549369925114133295096507936250
0.05238408652002930765423371894940
-0.84722247168171882503173719669576
