mlp_weights
I:6
J:5
K:2
V:
-0.35990949531761923241290901387401
-1.27721038588429935956014560360927
-0.06939822455016919633408178924583
2.07031445597785124235201692499686
3.37931216289503666416749183554202
-2.15514194079000498405207508767489
3.62801541967717833259143844770733
-0.81812285194164058310661857831292
0.00335994578711563268713646834840
0.65590865349014260132776144018862
-0.70053693957765350575073171057738
0.23017990570597995914070565959264
-0.44662595795428888800771005662682
1.04078006145913026792015898536192
3.48158101591100521687849322916009
2.30832062581740249385120478109457
1.02669000462995807509969381499104
0.00486323526995882660095560368063
-1.80538221892445260863269140827470
1.39972687521919869624298371491022
-0.58357963340625151893448219198035
-1.25812780047044836528868927416625
-0.11962433325683419216289848918677
0.94061039442021820988770741678309
0.88017671808269293265425403660629
-0.87880774427524321890103919940884
0.41224868962558969265330688358517
0.98832073712377999097355996127590
-2.08787631633123149654807093611453
0.51281196419627650406880547961919
-1.43186291778590923939873391645961
0.07631464490803986644440470854533
0.15837711151820021981961872370448
0.18597414368304648890628527624358
0.81744588228989745193331373229739
W:
-0.93562246970508222698725830923649
0.90870814799588206511771204532124
1.11520092718718788482590298372088
-1.63445427162987022562390393431997
-2.13628204900138385369245952460915
-0.68403199334213893312295340365381
-1.73343022448713179883839075046126
1.88833336544547103486024752783123
-0.24864741594226150156465848795051
0.99232280016928897659056474367389
-0.12959304100054375163963982231508
-0.63488314508359877663679071702063
