mlp_weights
I:6
J:5
K:2
V:
-1.08865671309956346668457172199851
0.14214227596756820459766856856731
1.04863169755135809957380388368620
1.00497324821361644353601150214672
0.38805496705285535963270149295568
-0.50604022412594640289995595594519
-1.84914970169886538897685568372253
-0.20853183974001443523604848451214
-2.39898985741976344954196065373253
-0.41105293554145688750267595423793
0.15050321825133256004036752528918
2.16515241193862006952031151740812
-1.35615383309400039379966074193362
-1.94691725982250907200921119510895
0.32728790416385328265747034492961
1.01053422628233469104941377736395
-2.21813753809954850026997519307770
-0.72460648049561371397686571071972
-3.99877942850727130519317142898217
3.25827031160763880279773729853332
1.23337503225429889752717826922890
1.74082263177621232586034238920547
1.55876030775697427266379690991016
-1.85160238483284911303883291111561
-1.55107833605223754958046811225358
-0.75968409446088425163168267317815
-1.58493339409856348609650922298897
0.97244898314246108750324992797687
-1.42045036159170390277495243935846
-0.81613062960288074165760008327197
-0.74947200853668083375680453173118
-0.04518080453761796899669889171491
1.24245751665563908261447068070993
-2.76432348684550088790956579032354
0.17153595447140043694922439954098
W:
1.14887494859561911653145216405392
-2.11894002259374225616284093121067
1.66502169833996038761370073189028
-0.79461678077399866548802265242557
-1.26822781629595016106293314805953
-2.05606556433890386159646368469112
-2.10878696150197608716325703426264
-0.41521236055320615010444385006849
-0.33065267257418234914112531441788
-0.53557809971347336563951557764085
-0.75045205619149435438686168708955
1.33476195054262736228167796070920
