mlp_weights
I:6
J:5
K:2
V:
-1.09642407368936622980015727080172
0.49652654621706615589715738678933
1.06077950821975131034946571162436
1.12581431712332435957080178923206
0.10802441103171427083662337054193
-0.49211628553129299623591919043974
-1.74970758630224842988809541566297
-0.46981781727125487835294848082412
-3.13168099331945049002001724147703
-0.28348174886258270532835013000295
-1.00075378754949140258645456924569
1.95291799838731838789840367098805
-0.69281124510689373607874586014077
-1.50325159750320280771518355322769
-0.16504088376201692112132946022030
0.92429509792705921711331029655412
-2.15902642086382590136395265290048
-0.49626756025811635808508981426712
-3.82026468744472280647528350527864
3.27676303968733950711111901910044
1.71285594073944169579704066563863
2.00191578047203933010678156279027
1.76038113179062283286668844084488
-2.08549509968921187308410480909515
-1.35698698340129375594642624491826
-0.32896368902783712506732172187185
-1.47310006221374600876572458219016
0.64840374901087738379601432825439
-1.74610522098317000327938330883626
-0.89297043338393888856074909199378
-0.44236340760320624898582764217281
0.29197191858966531352592710391036
1.59289461588296354932481335708871
-2.95245362194147276113653788343072
0.17124328199007327055980454133532
W:
1.06444195539126074123714715824462
-1.73372999946839012608279517735355
2.27769032939021398576073806907516
-0.54991428490389471228638740285533
-1.61040559599076638086501134239370
-1.33363001690398297327533327916171
-2.25872368000191237058515980606899
0.11465937489995096931760798497635
-0.22606857551196696265449759266630
-0.11580834196180392337005571334885
-0.74839940213940525648439461292583
1.39451404144181489996867640002165
