mlp_weights
I:6
J:5
K:2
V:
-1.11925652181367762949548705364577
0.26653761425552591202148278171080
1.16264891664067526733106205938384
1.10395163952319719236072614876321
0.16687559456186062956106752608321
-0.60335618199029883435002830083249
-1.77854132371987216920672381093027
-0.22844988265652790837556551650778
-2.46205998831563599438254641427193
-0.31235709315824294884933465255017
0.10142341269429322458961451047799
2.46645424692021197898839091067202
-1.39552896054923203372766238317126
-1.86409490513234321618085687077837
0.19242315027591264109396718140488
1.00232212687590904742762631940423
-2.54568446450082142007431684760377
-0.68438341962540283347493641485926
-3.83212233402635638057631695119198
3.21008208391449834095965343294665
1.50248521523080391659732413245365
1.98271457929113648077645848388784
1.64672252194102952671528328210115
-1.85329814283005234187839960213751
-1.44075066964054765428215887368424
-0.76782578164433690215417982471990
-1.48510380109152539951367089088308
0.91843986428588009207629738739342
-1.38285993542444152204495821933961
-0.77400051125042645949747566191945
-0.75095056919247737958755806175759
0.02987011677489254113382344257843
1.20615605995833141683704070601379
-2.67136195817846378020021802512929
0.11445430643094717249041991635750
W:
0.74587356162690254812730472622206
-2.41981702401016285364221403142437
1.76332195624088727825551359273959
-0.53827935131097071064232295611873
-1.32901903088114647921713640243979
-1.94843992174259894589738451031735
-2.37381868633132997459256330330390
-0.36859700251508231705344087458798
-0.50359656757843351826409161731135
-0.16221953890207210791096770208242
-0.90242447123664459862624198649428
1.26690169010386988190930424025282
