mlp_weights
I:6
J:5
K:2
V:
2.28972394118404798390997711976524
0.30917089091590127525321918255941
-0.29788758715719221292772544984473
-1.22058532919580708941964530822588
1.20997720936198049912491114810109
1.18769264178622413474784025311237
-0.10604345070947726603627359054371
-0.03729798372739950851340040571813
-0.93470650805865584942466739448719
-1.34976860487071470551256879844004
0.75539738745626061611204704604461
-0.71281649316726014564693514330429
-2.36757848587190666833635077637155
-0.50437874723224285222755725044408
1.67670642761308719137502976082033
-0.37307092180027195960079211545235
0.69907272804944131650017880019732
-0.79482094489007248938605698640458
-1.70554800061826239421236550697358
-1.24219728949167484977067488216562
1.48663422706550307772488395130495
0.43429885122063227598232515447307
-0.89637843448285792202767652270268
1.43371981039543494595989159279270
-0.24432331370210916277052604073106
-1.42812043321723258770816755713895
1.66923854694328888115251174895093
-1.80797685922240969347285499679856
-0.59044576401255477460239262654795
-1.76948982923908659792289199685911
-1.65313047479007191320476977125509
-0.35124496658226289635962302781991
0.74554427475393758584232273278758
-1.56944464702126640354151732026367
-0.05862612872226823784727045563159
W:
1.76732636671344245371528813848272
-0.06463682853838970121529428070062
1.91549375434864610490137692977441
0.48857883529462758920303144805075
-0.19842304188689241506438065698603
1.12455293197288086481933078175643
0.73728158550251743363901368866209
-0.19149152642054081963074452232831
2.47122258091705937488313793437555
0.71505729600001566304001698881621
-0.28856168909199125804931895800109
-0.86679561938405735865842416387750
