mlp_weights
I:6
J:5
K:2
V:
-0.15723461525348397804791034104710
1.13686791367801620644684135186253
0.05107943087532162973474214595626
-0.58209390475633482342487923233421
-0.14173279587551376734744223995222
2.06094552245099960074981026991736
0.17529349092473861526642053831893
-0.19984715397256114233215384956566
0.57810190760927138153846271961811
0.27303379656294379795866689164541
1.53653862031593613224345062917564
2.67121742765132985653053765418008
1.43456665051551168765797683590790
0.98611287043361972592947495286353
1.48383585548403940101991338451626
0.59585759871520760366792046625051
-0.75345876042332859956474067075760
2.11216258116461208516057013184763
-0.21496684666327553481224299503083
0.41138923286473172424848598893732
-1.12666779205830347443395567097468
2.34883970540674269500414084177464
-1.20782286259332183320225340139586
-2.59374423127951159173676387581509
-1.75908169648914580740495239297161
1.37772068517284385080756692332216
-1.31773869824146849794033187208697
-0.37031607653969456084297462439281
2.56760034010980842111848687636666
-0.56810856758372763053444032266270
0.19503851264648708330184945225483
0.70110469920255680253973196158768
-2.39403858772941502408571068372112
1.46329738007098608676415096851997
-0.10047173997718217286490016704192
W:
0.24338268614164354497475528660289
-0.12361985002756969986847934706020
1.64073982127575623835014084761497
-0.00307296987555287504090273387192
3.76272708347363948888641971279867
-1.89022980119729133718919911189005
-0.51416217686977006007253976349602
0.09236372908520876223725792897312
-2.09414727955487522947919387661386
-2.55079960063565236438876127067488
-0.74966095189682802057973276532721
-0.87876786935989725790818738460075
