mlp_weights
I:6
J:5
K:2
V:
1.81670855218053772794917222199729
2.58687889138758597695755270251539
-1.15640290193554218234339714399539
-0.95121210351343832289927604506374
-0.09942042685619563446852708921142
1.10943988996115838752132276567863
-2.76032375736870161375691168359481
-1.13373951142918061307796051551122
2.48301050666750278139716101577505
-1.64826858679000798346692135964986
1.19799171686562622163307878508931
2.50094055370735457444197891163640
-0.24228940894256384419591654477699
0.78058931760013627876304553865339
0.19150749024740901238494927838474
-0.54385816154113220122212624119129
1.56125353140417910680071145179681
-0.94937078674614538975617961114040
-2.32419150890977599388520502543543
-0.05752065101769246457941164862859
-0.83362992177289041428878135775449
0.81793749511384850059414475254016
-0.49880263889932674459259942523204
-0.92253863301050498257893650588812
-0.83573758971631373348998295114143
-0.73617440611628648383657491649501
1.48213862181602151757431329315295
-2.19901957041702456052689740317874
-0.51929804674574808753817478645942
-1.94507454298329807151901604811428
-1.01836257031935017991486347455066
1.06589215015710525591430268832482
-0.09028993980990966672361963674120
-0.70699711343957072351429360423936
-0.88017980658658789838710845288006
W:
0.50551562691791351866754666843917
2.64568436566664200171317133936100
-1.12423970700981623593861513654701
-1.06193339858473922987514015403576
-1.80178075018039240973166670300998
-1.05921181601854952347707694571000
-0.87450136774341347134509305760730
-2.84493088124828208407279817038216
-1.06847449540937255996198018692667
-3.35738594607457008223150296544190
1.79644940431102795308504482818535
0.24989518486640413530430748778599
