mlp_weights
I:6
J:5
K:2
V:
-1.22236213360549550444034139218275
-0.17571042078851517587168018508237
0.74291862973096844946496730699437
0.04931997867801268808918280228681
-1.11872375235949372829225012537790
-0.42606327962654966245992227413808
-2.18915881545352775106039189267904
0.28220280346490278500226622782066
-0.80876459192340199866322336674784
1.66942168899422060945880730287172
-0.66524081355392716830010613193735
-1.45660593111071445804327595396899
0.34502348972620799916199985091225
1.97614834078581713683320231211837
-2.20374829482668133096012752503157
0.39175738008186833383206248981878
0.08380458587634662115384287517372
1.34058222439319929542023146495922
-1.55215516185844326635390189039754
0.23768726024170924726597320386645
-1.01333037227224154186444593506167
-1.77142749555864287280826374626486
0.57749044245985314827152024008683
-0.53928515953738020982655143598095
-1.15785414154932175812007244530832
1.41170616844550211865794153709430
-0.73090382828833211359409460783354
1.26007681371614266296887763019186
2.85391315041402737762155084055848
-0.13107593932599859165577527164714
-0.88884584594610049901319825949031
0.44435813850696692650643626620877
2.24999965673195978510534587258007
-1.57817629387131885820849674928468
-0.04177888081073587167590943636242
W:
-1.04416105198927855468582492903806
-1.61258290044336938251490209950134
-2.08731262651829174714634973497596
-0.07958504712539382630609452462522
1.67994707626161821067967139242683
-0.67822193860094126538484715638333
1.39365388625088137963814460817957
1.20275219839620528539114729937864
-2.37179697494371310995120438747108
-1.43454343319114330235208853991935
-0.29174991688511509035919289090089
0.56311476230430845824059815640794
