mlp_weights
I:6
J:5
K:2
V:
-0.70059303911236925355154880890041
1.79362887517405078519061589759076
1.56644580216882522982757564022904
0.86356652142944412275937793310732
-0.90221593341739914073684758477611
-1.00098960183609220209177692595404
-2.66586221693085745343410053465050
2.46711206483991496440921764587983
0.62587911426434883477298853904358
2.16370154809913328719517267018091
-0.01741984465148058158767696568248
-0.11509752370305027791008711801624
-0.84985649618248693126787429719116
0.91292934722810659131653210351942
1.57060619001896806246065807499690
-1.05417570821217521093160485179396
-0.92327811367352397020624721335480
-0.39589663032967048472698934347136
-0.87585638664822929033704212997691
-2.03764030192086620374425365298521
-0.05666099206016322886725333773938
0.86023313144186186463002741220407
-0.67329818482767911369535340782022
-1.03299780677650976379311487107771
0.88485458826832330547773608486750
-3.40652172388839824535011757689063
1.05110687655345369506676433957182
-1.94577443672118977069374068378238
1.59136226977788197700647288002074
1.73539409684646650511297139019007
1.41635654687367185111668277386343
1.48642010828309345527031837264076
0.40796398158483393459050603269134
-0.63120608909950659537457795522641
-1.10367438220053570852030588866910
W:
1.35367912459031658478636472864309
2.42122569885216654128612390195485
1.29459501980084779049207099888008
0.02587921054275835186508913920989
2.40400170731783502375833450059872
-0.01749578817022970356198641184164
0.50737233788718483218360688624671
-1.02876894672187235713067821052391
0.42869762156655022433682233895524
0.86135443198436323353206489628064
0.35761673309079389238007706808276
-1.78026903007418657587379584583687
