mlp_weights
I:6
J:5
K:2
V:
-1.17209253023922177483484574622707
0.30375626134403443945330991482479
1.06341693004922466236905620462494
1.06720053504709921909920922189485
0.12019313966211866984146183767734
-0.45002252449254565025427154978388
-1.71947642290167279632839836267522
-0.42296489371870732432157069524692
-3.19354029646520176655144496180583
-0.23826788896377026905071261353442
-0.99343292644322955808888764295261
1.80682555382032328239461094199214
-0.82974392713870792626096317690099
-1.49751822025195968635102872212883
-0.10636796841653922696124823232822
0.97464710240370755478522823977983
-2.20877671856865154254023764224257
-0.48622126788588448942363129390287
-3.84122954883122647018467432644684
3.27014501253062839225549396360293
1.60098654925624139799822387431050
1.79727755711538694782802849658765
1.74550529849997748677026265795575
-2.13031356292324769441393073066138
-1.50002244043276844465140129614156
-0.25953220077060057402462689424283
-1.48467350373531514762248662009370
0.73063508193692028314103481534403
-1.71991958753545093330217241600621
-1.07341948488939076256087901128922
-0.51529925814357724345171618551831
0.29130719887638972798171721478866
1.52803588112848354185757671075407
-3.02771862976962191638108379265759
0.09640182276744099776344398833317
W:
1.07674960725729063071298696740996
-1.81861309074760923998326234141132
2.17321760485592196943116505281068
-0.47678178034962076514702289387060
-1.61526486113379519338195677846670
-1.56088459769268639298900325229624
-2.32619999589763182257229345850646
0.05510969749226314606804777440630
-0.26813069869360828256787954160245
-0.05675546001990942890369495898995
-0.85831751976491688083115150220692
1.53791906234152375709811622073175
