mlp_weights
I:6
J:5
K:2
V:
-0.49484156944062834826425500978075
2.03590432654406461310259146557655
1.30321676582706191815930196753470
0.79282802756068959659785377880326
-0.69186273910309337153989872604143
-0.88713721131662071073264996812213
-2.48600163401720353206769686948974
2.43781264283908472023654212534893
0.57360535550628988232801930280402
2.04328236135203278323047015874181
0.00239360327514540061066838916304
-0.28146917804788068595556183026929
-0.91271234815746626889421122541535
0.79425618985321766452045721962349
1.52750260148025240880542696686462
-0.80315238646062159233451893669553
-0.63582383641474771174273428187007
-0.38528286650175636030013492927537
-0.87088920076868137076786524630734
-2.00204429139281803173844309640117
-0.36133737209363264719641506417247
0.81675391753271853190199180971831
-1.00441252130033187306423769769026
-0.86442198027508176938482620244031
0.88449536377028648015397038761876
-3.50020790532367387370982214633841
1.31043601276391030729939757293323
-1.86531206982699981899997965228977
1.74225581124487804984823924314696
1.79081697533221984031115425750613
1.48203549771525344702638449234655
1.45948195981157713418951971107163
0.68634445390305098833039210148854
-0.28819763895643257800571745974594
-0.96233698954191548846637260794523
W:
1.38222336163877357328999551100424
2.37852884701758782171054917853326
1.54873298049980245849610582808964
-0.16850729906542399882951599465741
2.29305279475178247494682182150427
0.32954436242683016189403133466840
0.84128564185994769708543117303634
-1.09621052297272592035426441725576
0.71907011580188540111890915795811
1.00738645687383421289951002108864
0.33448989488922509227819546140381
-1.92082137054272505949370497546624
