mlp_weights
I:6
J:5
K:2
V:
-1.67660014439341642500380658020731
-0.09047556165784631510007329779910
0.70976306510396502957860320748296
0.09182065439185971289504095693701
-0.92551130383401947199217829620466
-0.23157591431072366283672181452857
-2.08842097703827356269812298705801
0.22784148879547705401904522659606
-0.59974383269271414054202296028961
1.56660663664969623809497534239199
-0.63098149353500920799575624187128
-1.38862957714970702838286342739593
0.28327819634091849776424965057231
1.82346607787951953127958404365927
-1.93217350009500621332847458688775
0.67953717295030291456470195043948
0.06241064120137173459879065262612
1.57110382586814445460277056554332
-1.38404258762647947023083361273166
0.17869236739081395537454000077560
-1.07158954643086690161624119355110
-1.62831554386195564987360739905853
0.54693041948910792182658724414068
-0.56707368056076445927971008131863
-1.31251555037671940873167386598652
1.68790878206830141650129917252343
-0.66548345644764050899055973786744
1.09477581123214307012858625967056
2.74826390713393120535101843415760
0.02448659343928971665604876761790
-0.80418879918341490409261496097315
0.31340886873935552836556439615379
2.31144119151399918266065469651949
-1.61198392950022162395384839328472
0.09497644527508498912826695459444
W:
-1.00203713279610662212348870525602
-1.74491868718190334952566900028614
-1.94686582416517328653071672306396
0.23821544349782997063158518358250
1.65731890102921397556201554834843
-0.46777886885934116811824878823245
1.46754792962357294427988563256804
1.24975409858870323276391900435556
-2.32960250165982651893159527389798
-1.49124677667998040142549598385813
-0.25816057228824607072681374120293
0.55851712455816615587878004589584
