mlp_weights
I:6
J:5
K:2
V:
2.29352142800508485009913783869706
0.29771692318750431205387485533720
-0.47489463803096515492896401156031
-1.15577252851627654273158896103268
1.21541184399436086316370619897498
1.10941941728296988856072857743129
-0.01253792833079256374695376052841
-0.10266117094333408743533908591417
-0.83914865719580211678163550459431
-1.35668685943307476549080092809163
0.53019105016679668462842300868942
-0.79970955434442214659895853401395
-2.33222499990780773870824305049609
-0.47915685139955443982984206741094
1.68321573284786452084915708837798
-0.24798596220393395728187613258342
0.77566152014645339818343927618116
-0.67656528218368261473614211354288
-1.70969780099076995583118332433514
-1.40637692628088939450492489413591
1.39161502444432483294178837240906
0.20165457211407578075323954180931
-0.91651456727271540803059224344906
1.47746716281659407066229050542461
-0.38502447572731213210062151119928
-1.20290924103511542853084392845631
1.74025919264802131358749193168478
-1.80128273465880295312047110201092
-0.49646723336979953211667293544451
-1.78903990065994311642327829758869
-1.87138607913500520929517279000720
-0.33744523187319230839165129509638
0.68305842917984149753607425736845
-1.47086199821867635861849521461409
-0.04240495874623811944914564264764
W:
1.73254396515924025123922547209077
-0.14058898097676619798335195810068
1.79286550341374084638346175779589
0.60398766004906145887787261017365
-0.23466580899457534226115740239038
1.19829774987046255851907972100889
0.66450963923217021278588845234481
-0.21029015543399121046519439914846
2.49253344964512901782427434227429
0.85620437486882594591008910356322
-0.22113590409356914667782234573679
-0.83179535169549101425445769564249
