mlp_weights
I:6
J:5
K:2
V:
2.26437332337142382954198183142580
0.28969366703325721834616501837445
-0.34073001527051927084244198340457
-1.10151099008443242865951106068678
1.17502626717946645484857981500681
1.13822265601659222689079342671903
-0.01172723525474438956150979862514
-0.07739751669311338566625835255763
-0.83495478041631954191359454853227
-1.33763094855907804792138904304011
0.45542141968106264471316535491496
-0.84021399054649470450328863080358
-2.25297419780093077790183997421991
-0.51239225054138015646998383090249
1.68542279940836814411397881485755
-0.29323268734545171465555313261575
0.78903561722172033121580625447677
-0.56393274856508934789189879666083
-1.51904638479247422466755779169034
-1.44944309962399620062001304177102
1.32386946469010213789374574844260
0.22067144960152046406776094045199
-1.00036781304464095221362640586449
1.38719014848753019464311364572495
-0.36146064285598938914390032550727
-1.35980648944283877277428018715000
1.86259306044237238353389329859056
-1.69619403764876452989085464650998
-0.41845204504783584109617322610575
-1.77511222768204945943182337941835
-1.90335221515007924075746359449113
-0.33501647823363495115600585450011
0.53146979207601952044370818839525
-1.33708496463025383604872331488878
0.01011612497163530410837495310261
W:
1.68773419515017764069853001274168
-0.24316861267598327556171966534748
1.75367168668547623866516005364247
0.46982286814460572088592016370967
-0.07235056291929720106992363071186
1.24528113783259208879883317422355
0.71701456393140672318509132310282
-0.11014452637524471678709403477114
2.39508578300080721135145722655579
0.73115933588853065927537500101607
-0.28932294328051733067752593342448
-0.77245908827717613132080032301019
