mlp_weights
I:6
J:5
K:2
V:
-0.93213503511627182618326514784712
0.08819464677409677433317369832366
1.03441727653131954056675567699131
0.92444735706525082985507424382376
0.18698356947424821239422954022302
-0.68828920771644030995872753919684
-1.87624219087852672771532525075600
-0.48084582807749037813849213307549
-2.47220944263356567915934647317044
-0.49791310264621263526052530323796
0.26158583059042450624787079505040
2.34139320963203090286697261035442
-1.13921390518281606674122485856060
-1.70919788558238594511351493565599
0.25735574461738025542345553731138
0.91063887651154884483872820055694
-2.09986843383327048684350302210078
-0.88076583205891267880360828712583
-3.80330410908419214166542587918229
3.25828920405018696015986279235221
1.36026891609972788721449887816561
2.01824568286855088317111039941665
1.51919359051185631770408690499607
-1.79360994345117785719878611416789
-1.51727310793624248219657602021471
-0.45981080343218228012602821763721
-1.39812377505359219931335701403441
1.11946349675019152236643549258588
-1.42468158274277900687820874736644
-0.86598165014291950125624452994089
-0.67829692663153839937706379714655
0.24149187413025963167001464171335
1.30600244697463785392699264775729
-2.77392654757771239815156150143594
0.06190158980007420819191565897199
W:
0.94707595512414710636761583373300
-2.10384568792498516387468043831177
1.80798220555432020972830287064426
-0.67614429653481866733244487477350
-1.39977386223634248096914234338328
-1.93377788224221958124360298825195
-2.04761903996370442371244280366227
-0.30029478933320080669133744777355
-0.60895053341387717082966446469072
-0.32510499832200123737635522047640
-1.07579842947757642335204764094669
1.40569917618798667646728972613346
