mlp_weights
I:6
J:5
K:2
V:
-0.57713163348762841486916386202211
1.84794945167540336505851428228198
1.56628872503945526517554753809236
0.78693307561043046582938131905394
-0.88671182234017109635715314652771
-0.91973247942162716928038435071358
-2.64266604665716675626185860892292
2.63839130181228398441817262209952
0.69477858373689027615682789473794
2.09172208235892309602377281407826
-0.23469237895425493212187006975000
-0.11452255160146418422328906672192
-1.01493713091470882936562247778056
0.82794919029639379992602243873989
1.44782640428172304503107170603471
-1.00764038625905327783982556866249
-0.84463622073813637847194968344411
-0.29605646825038556269049649927183
-0.87241934505672380506524632437504
-2.05057797680094910930392870795913
-0.07905208151046499986946969329438
0.94577554197655666623489878475084
-0.50422633128689686721202178887324
-0.97514940297407370906057622050866
0.87251350546952644027243195523624
-3.56319504076529103286929966998287
1.21530047569073973434683466621209
-2.08184674141999392915636235557031
1.76178951852635190533646891708486
1.62972577450091460349312910693698
1.51173698960301639004910612129606
1.55766156849804726647334973677061
0.56973932327357157401337417468312
-0.47820696223190806151137621782254
-1.06949541667773884157099928415846
W:
1.41506894521711834578070465795463
2.35859961676554830134477924730163
1.43364511222905144371964070160175
-0.13423013533064201419087169142585
2.28972700668702966453338376595639
0.03832847795844551708199787753983
0.58542731079605248023511876453995
-1.12342960467420494019563648180338
0.50694946204556301516674921003869
0.92933542676990388287094901897945
0.40423122010108614166057350303163
-1.88732969700607222662824824510608
