mlp_weights
I:6
J:5
K:2
V:
1.86226107174376931396864165435545
2.59634039281666462173348008946050
-1.20514214345248915627450969623169
-0.79104374872991234379782099495060
-0.37717247427617639488062195596285
0.85600208515496678529643759247847
-3.09415457983687680609818926313892
-1.24600112154488007476516031601932
2.34614966979111816414160784916021
-1.49051134850477473570151687454199
0.53125933306565498170925820886623
2.07080357475555665303090790985152
0.00538095451115319645118972857745
0.76301005126397902778023762948578
0.55870640521622283447555901148007
-1.15757377414704931695155210036319
1.62244154216565794612847639655229
-1.12232626911643285083641785604414
-2.38116157171739084574824119044933
0.11015375321866807678539146309049
-0.58436082386410237443641335630673
0.56571824930488312510590276360745
-0.51608118781773371086529778040131
-1.49570861263881682567955522245029
-0.33144574935680720662034559609310
-0.91874625967424483619083730445709
1.67232000609985087535847014805768
-2.03725953005449378352409439685289
-0.02452324334629495117265918224803
-1.60271619110957885823154356330633
-0.43418861715815909585458598485275
1.43888495122451898211579646158498
-0.27985402594438413270694354650914
-1.05287914785250769078572830039775
-1.00624854471430347224725210253382
W:
0.57938025007882987260643403715221
2.56057780176408389394282494322397
-1.40176042682818291496005258522928
-1.28136673088778008100518945866497
-1.78476712206396315174572464457015
-1.03018167835762608497418568731518
-0.93194315438415875618716199824121
-2.48698127141215552526887222484220
-0.49080302281939203190574971813476
-3.21650669863180471708119512186386
2.09019339304239792909356765449047
0.18161794723661572881212578067789
