mlp_weights
I:6
J:5
K:2
V:
-1.39257733421376839189065321988892
0.31475160385063483126089067809517
1.12301591138541789760552092047874
1.12173185109234019307677954202518
0.31128645019638290225572063718573
-0.50319903251395436960535789694404
-1.76153176683489354203970833623316
-0.36661929693605288527180618984858
-3.15022140965914543286885418638121
-0.36586890782897357743408406349772
-0.90594764672657390747190220281482
1.83987653598853717618055725324666
-0.79896305733600148091255732651916
-1.44646907361632370836446170869749
-0.24594535755866256399038149993430
0.92850036218071718696620564514888
-2.28890702498418763255472185846884
-0.53565102262516461895103248025407
-3.82732200339998263061147554253694
3.35595349052509339671246380021330
1.62426062575030094592420937260613
1.82992102202838968771914096578257
1.74774134007735781892733939457685
-2.20677681389851532145485180080868
-1.56247823840714228360582183086080
-0.45046099045398535487549906974891
-1.52461472941676623449325234105345
0.81339319674209065169634413905442
-1.54237738126041246111697091691894
-1.03675927444597371085421855241293
-0.57348571571498985210979526527808
0.27580103471258099467888769140700
1.53054342375047180979663608013652
-3.08226815113182661676205498224590
0.11316853560548505164273791478990
W:
1.17241592637878788707439525751397
-1.85908407689165611209602957387688
2.15110667547702183455271551792976
-0.56264537165488304193416979614994
-1.45017145885389853177116492588539
-1.74631563750850427041427792573813
-2.31461459703562510981100786011666
0.09310701529806078569073690687219
-0.34527094257680601696591793370317
-0.11041441643040401932029936915569
-0.79994642172257190981810026642052
1.37400345891894115624154437682591
