mlp_weights
I:6
J:5
K:2
V:
-0.46462955130748057053224897572363
-1.09599044040828075274873754096916
-0.34000371756229541553295803169021
2.12952659937091892672356152615976
3.71144004934486160252049558039289
-2.01784848096271929307476966641843
3.68893632821777339714230947720353
-0.55137099840889025603729578506318
0.00396471441110318040257354255118
0.79277757055559638921238274633652
-0.90364637771320310832834366010502
0.22259214914753736036523434904666
-0.21525388942750070531140238472290
0.78268301485669233841235836734995
3.30504216113604121218827458505984
2.23280967221950099599325767485425
1.23976418453110914796866381948348
-0.11397420525222373699492095511232
-1.92049942754156344193461336544715
1.20690757208471310946151788812131
-0.50940004701156538224893211008748
-1.51940670538114552812203328358009
-0.12232772242897606285172429352315
0.31026680243796789238075461980770
0.50359383975645144460031588096172
-0.76417251845424560841024685942102
0.23458575237186163331415400534752
1.23290685531203370040032041288214
-2.02354079842685585788331081857905
0.66743938477701847400425094747334
-1.68066856758721971942804884747602
0.20931352203237524323142793036823
0.29318692408282331918201180087635
-0.06013830784656454264691660682729
0.35584263744559896380792451964226
W:
-0.58083886398792050620443205843912
0.96527439647657864441043784609064
1.09940623686337168862792168511078
-1.39829836741134738709035900683375
-1.90718680121121186843424766266253
-0.56873781138333112661342738647363
-1.46313800527868687062493791017914
1.87351636916849240144244959083153
-0.12013345693471899622295495646540
1.10346317435007623686260558315553
0.07803850408409770955664441771660
-0.76263206219869050794812892490881
