mlp_weights
I:6
J:5
K:2
V:
-0.20124527321437549187699289632292
1.27308503027457464717997481784550
0.11553602828093476051485311018041
-0.59120563774211565277738600343582
-0.07336225605902656210499657163382
2.11477940151388166256651857111137
0.15330761513301396914421559358743
-0.29941602190256971782744699339673
0.65717561817886926966991723020328
0.24035701036242612671500751275744
1.50004025078616076704918214090867
2.65506872006126481977617004304193
1.42633724668917682976143623818643
1.03294457087806046402533866057638
1.49852145295488647924742053874070
0.65336849829664056521494330809219
-0.84492261736805973626474042248446
2.16328290646697274368648322706576
-0.15424300186883682650673677017039
0.29800887823049881930614901648369
-1.16258455990630515941575140459463
2.22194929849682143441214066115208
-1.10056898881026232750457438669400
-2.67237242589910328760538504866417
-1.82479795485657425579972823470598
1.34017313636088220007991367310751
-1.32848990260287003195571742253378
-0.42043504708323153895577206640155
2.43111101638193805030141447787173
-0.58426062128616473856368429551367
0.09146835269931929968123540675151
0.60495277656481671879618033926818
-2.35269427315810197853807039791718
1.34320539914744929710366250219522
-0.03357399350707525320647306443789
W:
0.20740874573491291377180800736824
-0.10711414072547009723734845465515
1.67023434883896859659557776467409
-0.06964353381709023627088583907607
3.69208494876734416578756281523965
-1.93477566260460931424347563734045
-0.42740687686185818705553174368106
-0.01108707889617066566501080160378
-2.12110736413392286792145569052082
-2.48170404145439649212789845478255
-0.69034186347964887620065610462916
-0.99479301175386614097817528090673
