mlp_weights
I:6
J:5
K:2
V:
1.90090927760801142731850177369779
2.85943084670709257721910034888424
-1.33886085095269935507644731842447
-0.80053799856536889123503897280898
-0.06971074957590311926836079692293
1.13922382270617461585970886517316
-2.72686399057658679367932563764043
-1.14882071306014532652284287905786
2.29004061606029862829814192082267
-1.86971711036182286491680315521080
1.00027486872374993254197761416435
2.24384389150638030585582782805432
-0.33878472850291141416079199188971
0.59995539111402795828809075828758
0.25590440742023529141491167138156
-0.67473151131246378309214151158812
1.27037775096744320890707058424596
-1.14589787575532131569389093783684
-2.43431268212280471630037936847657
-0.10756912819977429429663118298777
-0.68246510958605488550432482952601
0.83686199946061590182466716214549
-0.66579186653754762748036455377587
-0.88326275487960270726972566990298
-0.86868474701810138860480492439819
-1.09406931144328045668601134821074
1.78769269630337035437150916550308
-1.98214364550299104728026122757001
-0.53045282052132503025632104254328
-1.99409068664225475053797254076926
-0.67264625054281390603705403918866
1.05891788882066628652012241218472
0.04022612377908124647873933099618
-0.67031384978645403016628279146971
-0.81136653638596389903625549777644
W:
0.61557553728021041639095756181632
2.66109917540472240560234240547288
-1.21864908265470894832560588838533
-1.16717615384884787488317670067772
-1.74389175975773969007320829405217
-1.02615254965055768821002857293934
-1.08126148444971281747939428896643
-2.78126231210277152783305609773379
-0.74104548633708255955809818260605
-3.32546049711256186398600220854860
1.89809332171884759254965047148289
0.37081323851869230079358885632246
