mlp_weights
I:6
J:5
K:2
V:
1.95584562898700453636990914674243
2.73709930243462062904313825129066
-1.33101058944860661803488710575039
-0.86704449253366788763486283642123
-0.19092009480765687046144307714712
1.22385876732454956794526879093610
-2.66514463691417180513099083327688
-1.24666408450217347514410448638955
2.32757331000714984270416607614607
-2.00853922429895526136078842682764
1.02264407505345711335564828914357
2.25385476618233004941771469020750
-0.40643966397887648644982050427643
0.69278298895940315649255580865429
0.24892588467027998433422908419743
-0.55601538389879934243253956083208
1.28018120734807561156287647463614
-1.26607698286921399599691540061031
-2.26520721452173656729200956760906
-0.16225991148667667784977197698026
-0.55781510529843503221059108909685
0.87418595919754216172492533587501
-0.68876586589637245339190485537983
-0.84338619388609104010612327329000
-0.90354307658522503565734496078221
-0.82813721232224390966791816026671
1.68855481367632509481779834459303
-1.99986752835717118692571148130810
-0.67260151062470985294794445508160
-1.86553260004862075938092402793700
-0.64252646561218396126236029886059
0.91077087459901551191876478696940
0.03617833977376521542579368428960
-0.61373574695986865545904720420367
-0.82919757451255260427558368974132
W:
0.54531068230067480939737833978143
2.59081130374442603070406221377198
-1.14565154085730047661684238846647
-1.24102193475184008342182551132282
-1.75531198798751053580247116769897
-0.93636856897282050304909262194997
-1.15720752461073272954195090278517
-2.72480567728941069916004380502272
-0.82849090282802917428739419847261
-3.30381503184733160694008802238386
1.95270890407124486642942429170944
0.46126513177587791236788916648948
