mlp_weights
I:6
J:5
K:2
V:
-0.31043035079166586553967022155121
1.26818411655539020621574763936223
0.11316397661746296909868192415161
-0.54740408700871889813299731031293
-0.40929813728192088184698604891310
1.96597744277873598406358723877929
-0.17995989199637277278220892640093
-0.23823514356395802948895834560972
0.68182667580802358564540099905571
0.32916237474984522126675301478826
1.33796642811433175168644993391354
2.70092100620354047535442987282295
1.44182268967961912942143953841878
1.08031976108389904389639468718087
1.63343728855448633296987281937618
0.51632691405863950784294047480216
-0.72660799311575585690547995909583
2.32324149275109936851890779507812
-0.26039950608676387666662321862532
0.41246683064301381538285795613774
-1.14806941863168709971887437859550
2.32412028560530581344778511265758
-1.16827482229251145007253853691509
-2.93731718497613192297990281076636
-1.60518131859602575239875932311406
1.30931965392444205065203277627006
-1.18694638344864711321235972718569
-0.48171207360106127470800174705801
2.64236393205439368259135335392784
-0.42651525914129639893701551045524
0.01865048791344875445119555479323
0.76565330287975774670172768310294
-2.47267731412666114110265880299266
1.16784221823210243584867384925019
-0.10768912007440997746776645271893
W:
0.41261807720130228016586215744610
-0.05672393297906591635992867850291
1.36997505913625317042203732853523
-0.08046551702258880611751123979047
3.75895077078709460849381684965920
-1.89865194857166708075624228513334
-0.47017922695652047959669062038301
0.16663416028782504496597027809912
-2.18879845708840914397796950652264
-2.36218022878187294821827890700661
-0.78478682111758057970973823103122
-0.87565644493821515048637138534104
