mlp_weights
I:6
J:5
K:2
V:
2.24327397419604812611737543193158
0.31490330863044374565262728538073
-0.18252837352209139165637452606461
-1.15761010799140939830920160602545
0.96428035780532905807405086306971
0.80354911741385892653966038778890
-0.20113482118404160670088742790540
0.10624516783233527161822706830208
-0.95763001342900755386011724112905
-1.37026675996802826951181941694813
0.47698609626796323324171567037411
-0.85774714649618699624511464207899
-2.43179547686752517421382435713895
-0.12789057939121750706590319168754
1.64774941663682228387699524319032
-0.16944194227374548278319821292826
0.74479139425723706047222094639437
-0.53230164640332255920895931922132
-1.43763014962655022443982488766778
-1.04037082349859688612525587814162
1.34871602328708295459591681719758
0.16554676234021165059928648588539
-1.10153591511346760078993156639626
1.63582402072081678490178546780953
-0.41076759184294081572730306106678
-0.94512078830925672079388277779799
1.71017134619431843134407245088369
-2.19878717465134565500761709699873
-0.48727823463636799061760029871948
-2.03013442813846944901001734251622
-1.98887135865654829380844148545293
-0.65493246204064492488328141917009
1.03199431309796096911668428219855
-1.27820254250560338959985529072583
0.12954119566843663724498014744313
W:
1.67212580945805933119174824241782
-0.33182628109413070394140277130646
1.94648835263287667274312298104633
0.78317433318606100023373528529191
-0.18971168186336473393538426535088
1.17117071943791639654364189482294
0.86608491676287946425816244300222
-0.06689560014486575778569488193170
2.85727471280314571089320452301763
1.03030354668684065444494990515523
-0.29218373776572170719134646788007
-0.71589891565716412547004665611894
