mlp_weights
I:6
J:5
K:2
V:
-0.69527053781458958425787386659067
-1.37075514195559566843485299614258
-0.19968970200000032977349917473475
2.02623341408524204609875596361235
3.46750171936860862587082010577433
-2.09606399082839534031563744065352
3.52646182923470252745801190030761
-0.76020422365902473593735066970112
0.33971282384293977063549618833349
0.62401828690974681101977239450207
-0.58987726514945637568132497108309
0.03712979123319469498820666331085
-0.51466610381030897247711664022063
1.20703225355887400205290305166272
3.37987460167520126219642406795174
2.32658227402129869076929935545195
1.38868281053185915752123946731444
-0.20399834945006078967821849801112
-1.73388355199949195650788169587031
1.26889960515327748780123329197522
-0.82838106766075181308650599021348
-1.09629528092827754903737513814121
-0.41980815736585980202377754721965
1.06961670462704927508923447021516
0.98288166841637325532587965426501
-0.98000178707441820691315115254838
0.55040286320429065991532979751355
1.10678659664565426368199041462503
-2.20621650367151778127094985393342
0.52796213120161994414303308076342
-1.55482907275516479828070259827655
-0.19574918688527920274111693288432
0.14072859867035958369996251349221
0.19415856770872430558938503963873
0.75931733514977017840408279880648
W:
-0.84667680050978055827926027632202
1.07188170534653393062285431369673
1.03661600371215745219899417861598
-1.50059550649986683801273557037348
-2.23121411939316072192696083220653
-0.78202936023468072601616540850955
-1.53754823089917480594124299386749
1.93437893762506019079694397078129
0.03117180410927361533524049264088
1.09806133874317102261386480677174
-0.01894470709775119415807509426486
-0.72526810311739098313665863315691
