mlp_weights
I:6
J:5
K:2
V:
-0.61371272491465500564800095162354
1.89234422369991728274385422992054
1.51084746222828414374816929921508
0.80764620212056503767428239370929
-0.65982867998441041557100561476545
-0.96317501002404581900151470108540
-2.38460649387775447394233196973801
2.69889912941756771047607799118850
0.46306561700925141789042527307174
1.63343930536306580769689844601089
-0.06248056152506013816161356544399
-0.31606284356756741971139490487985
-1.05045781364280088610030361451209
1.04224683940808926507770593161695
1.19898478736857350135380784195149
-0.93360056718118411556162072884035
-0.72281418716781975497553958120989
-0.39914687323916986372296378249303
-0.81846344364701939522177553953952
-1.99131698234606013819814052112633
-0.28867003146835479299170401645824
0.95438627737467907063972916148487
-1.07865723286187531471114198211581
-0.85068509453962570798779552205815
0.79435970612988826555778132387786
-3.43763006581263663719028045306914
1.39708787464053885152281964110443
-1.91640295803647653372081549605355
1.72735101972436511097441780293593
1.90048057724292807080246348050423
1.55699715732026655601316633692477
1.27056380240602573294950161653105
0.51448031767886326370842198230093
-0.32856416707885083283713356649969
-1.11726340566207760218730982160196
W:
1.41327436986847798650046570401173
2.49365203077601504944027510646265
1.54749082393059755879960448510246
-0.20000046979084601384002439772303
2.36207933414118320669672357325908
0.36268966303266098050173127376183
0.99697449508805324747129361639963
-1.04109673222003218384656975104008
0.58949438077242999334259820898296
0.89020758396313681704015152718057
0.23025452975090648921607794363808
-1.98570892432019996398651073832298
