mlp_weights
I:6
J:5
K:2
V:
-0.78058275433356283379282558598788
-1.22898508869515676877881560358219
-0.32087065391398095215436114813201
1.94743358945766509293662238633260
3.48811129172292266886756806343328
-2.08689267058492067263841818203218
3.70258514626270152092502030427568
-0.79052611309614884138596835327917
-0.19829048872617810461704834779084
0.47260932564865054672509359079413
-0.91205699122538785861280530298245
0.14938262430796078739092536125099
-0.22865008415245485773326095113589
1.15838822364154858668428005330497
3.37004778748522371145668330427725
2.38366182684995253637794121459592
1.15341047406988850276832181407372
-0.12922656606598564854593291784113
-1.83960938850830713064965493686032
1.17544628586299437777995535725495
-0.82755817539252618519896032012184
-1.36917728914596104061729420209303
-0.03987294746845077009211877339112
1.03385328197603043598462591035059
0.83894713997700631757936662324937
-0.70756671126780157354829725591117
0.41235341320532126196951594465645
1.07370547784820846715092557133175
-2.16704849110450048499387776246294
0.53534166041241693090313447100925
-1.59064246232804307190633608115604
0.03252006242474839159406485578074
0.44042160630251114827871106172097
0.11093063404470135391299834282108
0.78607183467641128515879245242104
W:
-0.53546944571242893751161773252534
0.81047458956747042702062344687874
0.85867677155487898144059499827563
-1.56552941429470404699486607569270
-1.95370565236178439505465576075949
-0.74670838940616468537569971886114
-1.61855536006098543744258222432109
2.04264503264057628584282610972878
-0.01782888201696407326490856348755
0.91625109500450641064617229858413
0.09990248716101295112235192164007
-0.93951138397317168760025651863543
