mlp_weights
I:6
J:5
K:2
V:
-0.34110053356502306742825680885289
1.55962141251843000588905852055177
0.09045851586498171448269545180665
-0.42165783691011649025881524721626
-0.20646350369463675744619024499116
1.96186464999297771605313300824491
0.06904416684490241595817394681944
-0.39358605499796950333291079004994
0.83008946544221939856100789256743
-0.07365982153192424108922864434135
1.53854191554918839912602379627060
2.68182723873278439086220714671072
1.53903419621745007894730861153221
1.21287922352065735687176584178815
1.75257892405944226688063736219192
0.64260906820011653994839662118466
-0.59517412738811148464890266041039
2.36507404486866779080855849315412
-0.05076571607631955029837911297363
0.29779068813705444895845175778959
-1.19406527591255851028506640432170
2.07955777354946480528496977058239
-1.09741708887873046229799456341425
-2.62303384726525656844842160353437
-1.56993792536021681272018213348929
1.19473770373141929823646023578476
-1.29850265191720914970119338249788
-0.50151521473837346043467277922900
2.49030089977136359635778717347421
-0.53563753599304519958934633905301
-0.23005371022669368619162355571461
0.90473737675595633511704818374710
-2.71981648121485486413462240307126
1.14447467700160343540005669638049
-0.18584795864726755265650126602850
W:
0.43333374836956844999846794053155
0.12419578101678568904375765669101
1.79425097621657236857117823092267
-0.04602618646883745168185697593799
3.63230269711113296082771739747841
-1.94503570468201614218628492380958
-0.84997066427958811729581611871254
0.10815717416784245696881328058225
-2.28474903535514384245175278920215
-2.16769569970248454637840040959418
-0.80665837782676641509738146851305
-0.86012035270053277535851066204486
