mlp_weights
I:6
J:5
K:2
V:
2.12929067737620503208972877473570
0.38807993347510061354910249065142
-0.36136014838196273135650926633389
-1.60837384742279709826107136905193
0.94236034044292626976613291844842
1.09404346091302473453765742306132
0.00705134085966386148919271548152
0.12160235597765640946921195109098
-0.93272470881311142498759636509931
-1.40925638343476689051669836771907
0.39101306534925378555200836672157
-0.78249661333363795812090302206343
-2.16126800546670017055816970241722
-0.37307836137913419349843024974689
1.63869664671568338043528001435334
-0.17551836581973948026025311719422
0.81363523406127913339958013239084
-0.78750070133343774703149620108888
-1.54444712706729569973163052054588
-1.43375073339261138727351863053627
1.35290267212432824273093956435332
0.29513872882083447279910615179688
-0.80126976587916853844717479660176
1.65131711687123394760590144869639
-0.36885450659093921288445017125923
-1.29654874764542338283490607864223
1.56899044202707216300041181966662
-1.94506604205840916144154562061885
-0.42298411431654125980372782578343
-1.80614411955810738596994724503020
-1.96291651837313985140553995734081
-0.59289574411531675846021016695886
0.79407842742097789479061020756490
-1.46048479999353153502283930720296
-0.06289729774617248969637017808054
W:
1.81161551613828764040192709217081
-0.26070645302757827765915976669930
1.81401420152844417010840061266208
0.64895572910118970444415253950865
-0.06654809429413460764024534910277
1.17642330829586683194065699353814
0.72397500349601329183713005477330
-0.38626664559753587369073102308903
2.56982424714311097346808310248889
0.89027374480382315269366699794773
-0.19523704932768604081161356589291
-1.05179127345933465242922011384508
