mlp_weights
I:6
J:5
K:2
V:
-0.53206631062649401009423399955267
1.80557862550016046121470481011784
1.60951667772371842524137264263118
0.76997148254330327610261974768946
-0.87972730168345303347621211287333
-0.97836722728347080835220594963175
-2.51030279933770605893528227170464
2.54306119680286801809643293381669
0.76471151622848165807511122693541
2.29092232083703528644491598242894
-0.38243065969889344923871021819650
0.00618960605954550768803557048159
-0.91854572835970293986918022710597
0.85812163150657283505751138363848
1.39682788565239146549856741330586
-0.88663727355921406747540913784178
-0.88121895454623033749896876543062
-0.28499342083547185566771986486856
-0.80588334843307585231286793714389
-2.09541012866113041113180770480540
-0.14241180511886286641498600147315
1.03211208467058290771944939478999
-0.47161984043260496424210259647225
-1.03790691877147756017052415700164
0.88230675552248138959754442112171
-3.43174205165154289076667737390380
1.25221345988915877533997900172835
-2.09893740046832988355163251981139
1.69226644849942609027948492439464
1.64046177139235482833612422837177
1.62465173203599855256129558256362
1.59647458524067076268693199381232
0.52659149941721261622973315752461
-0.48886229972682776478976052203507
-1.03312838283771002423350182652939
W:
1.50743523369920007226596680993680
2.38300427006555626263661906705238
1.49566028717518562096699952235213
-0.16907141869974948167332229331805
2.06721609677790940651220807922073
0.10633127844664094774351781325095
0.46403844127202847902324833739840
-0.99142601354298787175167717578006
0.32455018967625559600520546155167
0.94270052646736446355646421579877
0.34114828142901465479752687315340
-1.80140232839839198319964452821296
