mlp_weights
I:6
J:5
K:2
V:
2.20063742611392054726593414670788
0.35495658652398753840628842226579
-0.38061570945781481034586590794788
-1.62321389433142537761511903227074
1.06319607627357437529269645892782
1.07318566111879709623622147773858
0.12491191160244828617376100510228
0.11061418291351368670127897075872
-0.94889378846902783237737821764313
-1.36565392300138799264175304415403
0.37430793950341340048382221539214
-0.64839302211640814643800467820256
-2.14159158576844488308665859221946
-0.27993579827624015532450130194775
1.69566640144715585769574772712076
0.06283866646620500651110319267900
0.90572223490940206858113015186973
-0.79405112647763886890572848642478
-1.60487721882052358779446876724251
-1.57332779614284135050183977000415
1.37634271704247646006535887863720
0.28833186461209392437154974686564
-0.79616075179784029369756126470747
1.58607218546382200408118023915449
-0.34178083719100926796130579532473
-1.34410853868824187173913742299192
1.47361122714317382964566149894381
-1.92889142432552862516104141832329
-0.50079818564472211583904481813079
-1.87335239505656492298157900222577
-2.01661232034325399453678073768970
-0.56974014333793920883408645750023
0.92807745089613336020306633145083
-1.41334656137389091945522068272112
0.02416382128461248834927488360336
W:
1.83879874849026547778407802979928
-0.19596687630634107568639024066215
1.55625253680644703990765265189111
0.52237609156282038824770097562578
-0.10453161086578241500966157673247
1.02866715244370299231491117097903
0.83465301834473537567760104138870
-0.48240308281308202920101280142262
2.69594350308839292296170242480002
0.76043125740598449535667668897077
-0.18505522113971969999646205451427
-0.93498249056250448685290166395134
