mlp_weights
I:6
J:5
K:2
V:
-0.75456163408668364134257444675313
-1.43834323688687581999090525641805
-0.30997627410911432477291782561224
1.93668805112377584443095202004770
3.67363584560544520485336761339568
-1.97748857431172853083012341812719
3.51671463747692047974169327062555
-0.86886878244352983013953917179606
-0.14163083816969393446960623350606
0.57686976574696935404773512345855
-0.80426436605085793729585930122994
0.02575896724658874314961565232807
-0.37113386836408318592006594371924
1.15647040766362452224313983606407
3.23393479230938041268927918281406
2.29874028588134038386669999454170
1.27287961800682203339363240957027
0.01800164608545729016952918755123
-1.82855970581617066628155043872539
1.07953722464772416955725020670798
-0.92215589234992356715281403012341
-1.20189326645542182703252365172375
-0.20550262917707184939786202448886
1.04333093807072785352829669136554
0.73791434673924627407615162155707
-1.03600870746371009900599347020034
0.28655718728675727557941854684032
1.18276090372138176221028516010847
-2.27855292962865885186829473241232
0.51052543066834488172389683313668
-1.68315390137431997175099240848795
-0.21379588856038075905807716026175
0.30088384819268537695435838941194
0.11138366033032663648949522894327
0.75307189596811063836412358796224
W:
-0.57650467427241225415457392955432
1.05687547805314974169732522568665
0.94115482034722885984479034959804
-1.64881601892848506096811433963012
-2.03930489985098084559922426706180
-0.82837228957300379494910202993196
-1.67500663176538067133947151887696
1.92182392884309338754178497765679
0.02966475727086002878163384366417
0.92694601867682402396297902669176
-0.04057971712807643960285730599935
-0.66479495261714571796574091422372
