mlp_weights
I:6
J:5
K:2
V:
-1.71369882585399713192941817396786
-0.04886191289743879728746378532378
0.85468804943869747248186286014970
0.06855489333776398908071314508561
-1.43442756971886709038699336815625
-0.38554565625423858898912499171274
-2.30731344667566906636579915357288
-0.34548400896415687455487386614550
-1.20123103229144123638150176702766
1.50380712661528415097222932672594
-0.37627729804738185848123066534754
-1.49311006964483028447432388929883
-0.03924429661331402252599787061627
2.31583759072012407287388668919448
-2.43779602316979771003957466746215
0.70258131696837067270422494402737
-0.00852562408968900523054124107603
1.37626330431236376661274789512390
-1.51678928610733221304940343543421
0.04450694618486175646587810206256
-1.40863325222787172386063048179494
-1.60480710158585138103148892696481
0.30440567893880110528215254817042
-0.78748686484149688080691475988715
-0.57893792497745821812316080468008
1.44430322864323157361354788008612
-0.69847242383594609904662320332136
1.03781041864704359767301866668276
3.32357438892662404583688839920796
-0.27648048568816346870491429399408
-1.29018333732458345686211487191031
0.44097915949996208118122353880608
2.40569712034370963849028157710563
-1.19082656229591887786511961166980
0.04914171053645575992785410335273
W:
-1.03300523568522639727973455592291
-1.60260817605049354916957327077398
-1.93171313352047047118276168475859
0.09422926088927381649273939956402
1.48754126881225734457814269262599
-0.13301824950148627424439951028035
2.31212691791760072135275549953803
1.58251933237819120137146455817856
-2.70026380225974493853868807491381
-1.09535850231134634924501369823702
-0.50157546162321586802335104948725
0.40446798786302740058573590431479
