mlp_weights
I:6
J:5
K:2
V:
-1.09365073857850458871610044297995
-0.04818162218225716109110123852588
0.94044960975727054375283842091449
-0.21608531614942827481229414843256
-1.10813962434564650116897155385232
-0.48169577471693758585757905166247
-2.19465064657547559434647155285347
0.34226943439501628096977015047742
-0.79804106298932864227424488490215
1.54708883574960620599370031413855
-0.58693549555136315110104305858840
-1.49211096232954743001641872979235
0.27330270591715943861998994179885
1.98297205777719653951862710528076
-2.13720005385656541818661935394630
0.34532118141763606944394382480823
0.21103575670666471775227535090380
1.30670718645548045167004147515399
-1.43785579455543643945247822557576
0.35578593539336350604074254988518
-0.97235401423339151705249605583958
-1.78712506269664261893126422364730
0.61454927002428838545000644444372
-0.59142669891345733823584396304796
-1.27004524805008300880615479400149
1.39137872248102700822869337571319
-0.57289119162041413080288521086914
1.17892058947188460571453560987720
2.79349474682631093713780501275323
-0.01105855373275974051772152506601
-0.84345366954485856414436284467229
0.44855730555716838425794890099496
2.11669584863320592305058198689949
-1.45824083488721756296513376582880
-0.06898285014651850399758359344560
W:
-1.03462825551123627221272727183532
-1.84627822810675690234916146437172
-2.26497747038244767736614448949695
-0.06446295096088665299571829336855
1.65527708823980090890870542352786
-0.88980389261289549729383452358888
1.32292111278884871872207895648899
1.16060936682823245824636160250520
-2.52622172632931096813990734517574
-1.37974381413753466318894425057806
-0.16527548595101546058394603733177
0.59402838779006494895895684749121
