mlp_weights
I:6
J:5
K:2
V:
-0.48562346473254419665366299341258
1.32050870994539648606291848409455
0.13596004442816789214987238665344
-0.54556538873206028572582226843224
-0.15233793196405420733441360425786
2.12752724371525436808383346942719
0.03578372679718991311581532954733
-0.23253671695663655216712584206107
0.58850687550732738717584879850619
0.25301352374801389100156256972696
1.42300946411012763093140165437944
2.84202418034080572795119223883376
1.62290597860709473465590235718992
1.27872494753931587041506645618938
1.88224282963445754823794686672045
0.64542712852108730103850575687829
-0.65793866813923740366476522467565
2.32494395858005953314773250895087
-0.06396193295503227460585549124517
0.25463150929852235160311124673171
-1.05153846873205658596361899981275
2.20516420537623591968667824403383
-1.01569872459713472778730647405609
-2.74792599746568022567316802451387
-1.68357189846090182783200361882336
1.31008473703521355346879317949060
-1.37190896767666470346114238054724
-0.44424755001307103530194808627130
2.84979981722626085627325664972886
-0.51270169797590992022406908290577
0.04438220537559123268778193960316
0.81114604599862505374119336920558
-2.53414508522903014764438012207393
1.22681213585348691808007970394101
-0.04941502285403897437587872332188
W:
0.32198734169243914404745510182693
0.28314138534083121978568442500546
1.70942504902184300163980879005976
-0.11013789298035817076915066081710
3.73599685135330350505000751581974
-1.93770379550761240317058309301501
-0.56549149778465679361261209123768
-0.02758912270031992075569604594421
-2.35026264295324960329480745713226
-2.10760406701138425233921225299127
-0.79959876206189750558195328267175
-0.76475128716711782139725528395502
