mlp_weights
I:6
J:5
K:2
V:
-0.70234970287863418558771400057594
1.74373016063689689758575696032494
1.35268366755566660231124842539430
1.05367125948118811606946110259742
-0.60543819599556447652588531127549
-1.00585562663700045504810987040401
-2.87651990313874206250943643681239
2.72804501884148375978611511527561
0.65589781575287453563305462012067
2.08317866627974090931729733711109
-0.26679928855241319407554101417190
-0.15397934188927711596228675716702
-1.02852390087549228070429307990707
1.31919532573348008419600319029996
1.44640338563257975224018991866615
-1.01580890018857328271906226291321
-0.88663045591042821680360930258757
-0.49790617350232624360728550527710
-1.12898175831889213682757144852076
-1.73671083929048442051623624138301
-0.12550214768987513758169427546818
0.81531909758564280465975571132731
-0.75655552925647906459261093914392
-0.62818781657372346760581649505184
0.75074915793256680185407958560972
-3.38048459628823971812039417272899
1.14045781164106685423575981985778
-2.14313706439483508958687707490753
2.06278869945862952661741474003065
1.52302182400178343080199283576803
1.57123093354401843768641811038833
1.57911155462345775823962412687251
0.50234085448429288689453642291483
-0.17367193949492409910106971437926
-0.94212509338386896118322511028964
W:
1.53840523325780043073507385997800
2.07341283954194022243200379307382
1.40439834205063007743774505797774
0.15307365161051025848060191947297
2.30654216500872610851047284086235
0.13903555118804555856826254967018
0.52313096438309925062526417605113
-1.07177297769353407907999553572154
0.27786711833955085593217404493771
0.93948222268259573564108677601325
0.30332763043899541033354694263835
-2.17185175680254616281672497279942
