mlp_weights
I:6
J:5
K:2
V:
2.21832232332046963563243480166420
0.46643770534470269106819273474684
-0.34128824139906016599255167420779
-1.73822296356409222717331886087777
1.05324610653185724018499058729503
1.06433995698790773154485123086488
0.12933722720249599125175166136614
0.20502934636025416104132546024630
-0.93835628983199936836712140575401
-1.39973997259008786642198174376972
0.31418246215362943818405483398237
-0.80580093375289663093496983492514
-2.27219014928543172615604817110579
-0.31022729990272784883487133811286
1.61240660455975137743678260449087
-0.04241922004698342463235860577697
0.75114598457062009551066239509964
-0.81787672202231320728316177337547
-1.53838847352475904806112794176443
-1.43989603033071089654981733474415
1.22986689447530528340735145320650
0.29108633880223361289907302307256
-0.88743447664671193386709546757629
1.69697338552702126079907429812010
-0.26223581781229932108345792585169
-1.03131591950497480958404139528284
1.61152491288169219529891051934101
-1.94187849649417731967560030170716
-0.51917362697652891245780892859329
-1.90042555689497505433394053397933
-1.85183619582879477327708173106657
-0.59621566331272723981982153418357
0.56598668078877789611169646377675
-1.45683243754112390355714978795731
-0.10117207744955786230534044989327
W:
1.83444936579485329275485128164291
-0.47860998447444536019190763909137
1.89387071147784147306936120003229
0.55409351010751362043293966053170
0.05284212494082338174017365872714
1.45822963848873188297261549450923
0.74211829119831962398023961213767
-0.42647088141184152920715177970123
2.53508941057401138152727071428671
0.89861700807866140561230849925778
-0.20361636219109113810077360540163
-1.06375116880881148695436877460452
