mlp_weights
I:6
J:5
K:2
V:
-1.27435171922746293127204353368143
0.27961364494618301534956117393449
1.16635438015065595607211434980854
1.15378274105447875541585744940676
0.01067562095481225381554679643159
-0.45046281886648542602813449775567
-1.86986279927123733024529883550713
-0.56411655022844808815563055759412
-3.15680169642329966350757786130998
-0.19575800133003451453106436019880
-0.87635213523173904892615837525227
1.75077187910871834297665827762103
-0.76743835604090526736342781077838
-1.53344835269853252412985966657288
-0.17263501506434897336816902679857
1.00931345027286933913046595989726
-2.24271623711576051363181250053458
-0.43354701605035755873629454981710
-3.67581758647764411662706152128521
3.17944575926254424658168318273965
1.60192075584517934494499513675692
1.76840111849752235073651718266774
1.52777616898446200188743659964530
-2.27177955023663269429334832238965
-1.59420301915866824415957125893328
-0.33463363588211131327554426206916
-1.56639502773770633581307265558280
0.73806564297402821317461985017871
-1.81746723000504384337716601294233
-1.16556462502927682400866160605801
-0.40049233564534530982470528215345
0.08862108880145488920554441847344
1.37677945212574970312857658427674
-3.13595701828066708571896015200764
0.16246235076632664640072789552505
W:
1.09061534957352246344441937253578
-2.01533068052249841883849512669258
2.16695791947693328083346386847552
-0.41672591904303035725831705349265
-1.40522635832424303004017929197289
-1.62017230269180445567656079219887
-2.20185892572570818259691804996692
0.23624986483789256475063211837551
-0.22674586102630345241237819209346
0.02349637061486416211852912283575
-0.82037127496091866163396844058298
1.61962396832516031253135224687867
