mlp_weights
I:6
J:5
K:2
V:
1.94237683306155073381660258746706
2.64383468577401758992095892608631
-1.09665830230879079998373981652549
-1.02689980044296169658935014012968
-0.02876566860169289807647174939120
1.24618852366203913817344073322602
-2.86262321362014615644397963478696
-1.13786629854903087455397781013744
2.67013943716615864687469183991197
-1.49060514937351018538436164817540
1.14102399343623339689202111912891
2.34967152742372853424512868514284
-0.24963979877961842146483206761332
0.65494112286025818470136528048897
0.03545182707828360701984848901702
-0.71984606246919824457108916249126
1.72055883412938959153848372807261
-1.12170297997941781353858914371813
-2.34994314938548898297199230000842
0.00059795052553915373216852913174
-0.88229017146511212743575924832840
0.66874640303104104788189943064936
-0.41414133459433277728578559617745
-1.04254356537262315995917560940143
-0.82044422476524958565136103061377
-0.96645382101562316012888231853140
1.34477541418712398524348827777430
-2.21151969540355253229790832847357
-0.57025961998866736557545209507225
-2.11884567659083389301599709142465
-0.95891339550789211898518260568380
0.96866933355724738063941003929358
-0.24067686408413363485792046958522
-0.50872257029439271747150996816345
-0.83923955861326815508505205798429
W:
0.70930870422842884348568759378395
2.85459448225816903033091875840910
-1.17736781175579241498496685380815
-1.12056462463924644268331576313358
-1.51203009067230853545993340958375
-1.04343855965163267995876594795845
-0.70970448418172149551708116632653
-3.03416490025184382162137808336411
-1.00908909862870466156437032623217
-3.42837470505539343434975307900459
2.26566163513952867347711617185269
0.29943375895994533975041917983617
