mlp_weights
I:6
J:5
K:2
V:
-0.45356171365061015432473823238979
-1.06120805103150073200879432988586
-0.52230556841510600296629718286567
1.86548818648494307836926964228041
3.64229464469772246104639634722844
-2.01024077467813722108758156537078
3.57942969107840491815863970259670
-0.80483047129607643288551344085135
-0.15399002082363313914648017544096
0.66412090610951990399257738317829
-0.86518460460939239364819286493002
-0.09345094240325219070442130941956
-0.38465518971795065183982842427213
1.00143277259720409055887557769893
3.37937187246158243780769225850236
2.48193381832843718015624290273990
1.42212020636021807540316785889445
-0.12118586010817815334927871617765
-1.84317838611026885153876264666906
1.14523747759190519523997409123695
-0.47174034014435622941263659413380
-1.40586408325014899922678068833193
-0.21060430795003887149974275416753
0.61372995407906427711708374772570
0.93396900522581294268320561968721
-0.92766322494703523648951204449986
0.44860806723853297039994458828005
1.04583257506174920337116418522783
-2.09036229761671643601061987283174
0.80169930163071156936638317347388
-1.23948873478257493019327739602886
0.12454153776803136843831509850133
0.12757049598742345453139535038645
-0.07653638392252648525726499428856
0.58521828566692790651870836882154
W:
-0.86636292588174179662985352479154
1.12678109421883765328686877182918
1.23520023442240045596918207593262
-1.38503254400098718690514942863956
-1.91430498569884721682399231212912
-0.68319515860648571958790853386745
-1.41191669448221257532338768214686
1.81458094970162941983460314077092
0.18027436604108171280813621706329
1.11479955438860844907367209088989
0.09140499346112397616170852643336
-0.87906529075104955506247961238842
