mlp_weights
I:6
J:5
K:2
V:
-0.43974768391581026127923337298853
1.38980150886683384570119415002409
-0.04479242267926539233791061178636
-0.33449333724819418911522461712593
-0.26524770227268668065789825050160
2.07356086961181196315351371595170
0.14027696166299225000173578337126
-0.15085067068181501337420513664256
0.65596115003131183485152178036515
0.21481987703661836741630963842908
1.40025178847738307474912744510220
2.69877734021266268982230940309819
1.51515061559191233087062755657826
1.22521408740602466558300420729211
1.67670060766113993011572347313631
0.60655278895735242894460270690615
-0.64710627481551208362020588538144
2.45350114772898342252460679446813
-0.11842263062215048485814605783162
0.03552724586130640016534698588657
-1.23576914959391626069873382220976
2.19363854794199264475196287094150
-1.13661919730778970816231776552740
-2.62387736939271576375176664441824
-1.59483770912165612188005070493091
1.20309315697128926814229998853989
-1.27117335247858664892817159852711
-0.59836272474269802668089823782793
2.57448948710705272091558981628623
-0.28589521484271884776973138286849
-0.29537086482322805203182269906392
0.73041983609581573322344638654613
-2.46363008856589127404390637821052
1.25479899862601129711947578471154
-0.02741361561742990116119500498826
W:
0.45347873677187094942908629491285
0.39451093250784258215091426791332
1.70862124518102520553952672344167
-0.12278702619051393152282969367661
3.91032775156674938799028495850507
-2.04749157212331356348045119375456
-0.76882346386911581959111572359689
-0.08343613863182106071825216986326
-2.14749656442381686716203148534987
-2.16430639883701791958969806728419
-0.69532879126027835603451876522740
-1.13544761908198532651681489369366
