mlp_weights
I:6
J:5
K:2
V:
-0.34382374694278561300109231524402
-1.17252216665026098851853930682410
-0.40545750405080199785246009014372
1.96132361322595927255463266192237
3.41412630275177475525083536922466
-2.06104755397031169650290394201875
3.73665856226645898274796309124213
-0.71141543095720238820689473868697
-0.09041253002790933246402005352138
0.54240749163894008688657777383924
-1.03066618811153243306932836276246
-0.10669873285378049521110455089001
-0.27161576976070095357229661203746
0.95359198715307313953815082641086
3.33612453363628169711319060297683
2.30619401030189896673050498066004
1.45473355425221817505132548831170
-0.26337684517933074301865303823433
-1.71037026295734628789091402722988
1.31319333429379536681835816125385
-0.45365355448657362913422730343882
-1.43165709453994671740417743421858
-0.16701294884623696379577495463309
0.68460817819927710647931462517590
0.83316452955933939517052522205631
-0.87678684766466252753502885752823
0.51052458237581366251589543026057
1.10588252039832624085136103531113
-2.18405333988581507043136298307218
0.55186479445491298800874346852652
-1.46709820830331039154259542556247
-0.09506706558143185326059665385401
0.17902086336980294056786533474224
-0.01962451589283846498101837596550
0.76483176193349766691653712769039
W:
-0.75290976213239979575320148796891
0.95219638186895327880421291411039
1.16635793266706655479936216579517
-1.53142710679485438696190158225363
-1.67570643528276574940605314623099
-0.86798380736075064767476305860328
-1.43559078714178411928514833562076
1.79218147900198498945201208698563
0.06170876634523329157255844279462
1.16136533918202666804120326560223
0.13663320754586139038622150110314
-0.78115936388099305176524467242416
