mlp_weights
I:6
J:5
K:2
V:
-0.19893422975607547020793219871848
-1.16386157060687556175082590925740
-0.54683344125013855219208380731288
2.03025925289392583650283086171839
4.02521907506723852776531202835031
-1.79719477078626765909064033621689
3.67648832653457624530801695073023
-0.35731826314063958038858004329086
0.01540954231985590394682361647938
1.05577953573203786596934605768183
-0.77435421907238488614666493958794
0.12088269408386458081405834263933
-0.27234412406550256857684644273832
1.06696961219582786561943521519424
3.35994836531420304481798666529357
2.18073684812202550631354824872687
1.28387886071679280242108234233456
0.14429820880168828245437850910093
-2.20614814365816203078907165036071
1.09658263159431923483566606591921
-0.15023161431223105988230770435621
-1.57782786483787096365460911329137
0.03011887123938097182707096521881
0.44403383135780316592899907846004
0.58389269207497562774733523838222
-0.61566854390626124526875173614826
0.45733602662437633501468781105359
0.88687919688477634405643357240479
-1.85183332372457676306964913237607
0.53902239152118869291996361425845
-1.76507357793860686356879341474269
0.33540788275157845665930267387012
0.34829455587495483648297067702515
-0.06997476488696502405773003374634
0.44152614091406333640676962204452
W:
-0.62880833594179730283713070093654
0.91549063356779869504720181794255
1.24838248107496641026159522880334
-1.27277285308341103764462332037510
-1.62221005323908284978529081854504
-0.26358212719854207106706667218532
-1.52349202479843959245897622167831
2.12557439606800313569578975148033
-0.08393296830284534271182650400078
1.33633525794521923479862834938103
-0.23785805056184011752051787880191
-0.43430599148982512724970206363651
