mlp_weights
I:6
J:5
K:2
V:
1.85519816187997688139432739262702
2.74728409795179340235904419387225
-1.38124190039320460243743582395837
-0.73140020661996341111432684556348
-0.21281356565324838214792180224322
1.15240633457550512019906818750314
-2.59432373102298718947622546693310
-1.07129565930144687868619257642422
2.23310282528325254602918903401587
-2.11845846797406656136786295974161
0.99152711651879477106064086910919
2.14715176433453525106642700848170
-0.38110030913814207931267219464644
0.57685784913123205885909783319221
0.32217597958836474703048224910162
-0.63170079414973057119198074360611
1.27467521592071242331201119668549
-1.12123422559817154109396142303012
-2.46874900093266713696493752649985
-0.21974390058232862177334254738525
-0.57440637222507862080789209358045
0.83014468298558352632454671038431
-0.61145087250933349842796360462671
-0.79650048112889015872184472755180
-1.03608624458049014549487765179947
-1.10288957727908876194078402477317
1.85214149946924533374215116054984
-2.12391547210230280384735124243889
-0.46153023192275977049092716697487
-2.10040863971123759057491042767651
-0.79161433999798613836418326172861
1.18969169621071935161182864248985
0.09769623533551707872391034470638
-0.66517550265988534263783549249638
-0.66391385215967102517709008679958
W:
0.57448877959740707321856234557345
2.68651839573980621977966620761435
-1.36338676732462493745856590976473
-1.14043063420558721254849388060393
-1.72565973731298516469223613967188
-1.02084780384151208032506019662833
-0.99363490868117998466857443418121
-2.66268626452779066937637253431603
-0.75342268385320976253893832108588
-3.34359212844788444840560259763151
1.92245573827495985774760356434854
0.41749737150912014094217283854960
