mlp_weights
I:6
J:5
K:2
V:
-0.45594265814590628771441060962388
1.30303649461663528796862010494806
0.07092355694617683004032926419313
-0.46451116600555847346853965973423
-0.19660002687866209858391641773778
2.05631647512119108966999192489311
0.10806663884734861447167730830188
-0.23470323097430581538169747091160
0.69923587583320456761981631643721
0.19432459736044915832309243342024
1.51252209880357568749786878470331
2.65669678120183982983348869311158
1.51133140419329259351854943815852
1.24989017962704096476045378949493
1.82180519885889857789607049198821
0.62242958510355406165359681835980
-0.56913456353398761411455097913858
2.35779559133273153292975621297956
-0.11471062663949140036923068919350
0.09638600085700224640028466183139
-1.17239310530741613902705466898624
2.17926989875957533016048728313763
-1.05005564032187992395961373404134
-2.72799986905602986908547791244928
-1.61830013456911481206645930797094
1.11408012723798233167826765566133
-1.29907490975663275634133242419921
-0.53083285706535321413213068808545
2.61594224965031107998925108404364
-0.44525879011453445288637453813863
-0.11329857290189096485910624778626
0.79706036648333600247440244856989
-2.50689114170807636483573332952801
1.18053167269640701952937433816260
-0.09691404493279494325452816383404
W:
0.44937088052098517199084426465561
0.14588865238247653022263250477408
1.67084755553115926751672759564826
-0.01909948740588594817690903937546
3.74984096778443110054013232002035
-2.03470731363308443562232241674792
-0.69478934870278430402379399311030
-0.04309811917548570653346828862595
-2.26833529206047757043052115477622
-2.09615078689236122855277244525496
-0.76429251062402003835671848719358
-0.97809469895371936587480377056636
