mlp_weights
I:6
J:5
K:2
V:
-0.45102686161466354342053364234744
1.27465315421327596290268502343679
0.10021163901271873397647027559287
-0.53922270688655649095721855701413
-0.15777717062374169154637115752848
2.09649369256527462468397970951628
0.05249052106741683432211686977098
-0.25277730407678389301651122877956
0.82045063376810167810049279069062
0.16744698942225524906923794787872
1.42233905382425751540154124086257
2.79411894277886885262773830618244
1.59395876595866936575873751280596
1.18887443254134672621091795008397
1.73354625068902712392571174859768
0.62154018292150969848819386243122
-0.66514221909233028906527351864497
2.55158894111721012976090605661739
-0.13570824965763350622438565551420
0.26000171122016457747605500117061
-1.17088592117174261630907494691201
2.11861086354191874292496322595980
-1.15492099579046625379419310775120
-2.67382248134278865947521808266174
-1.58563183043089450663387651729863
0.99217109897909083748857028695056
-1.36169093755270576018290284991963
-0.49876045821644221511803607427282
2.44300835404880167800456547411159
-0.28175403111651398102566190573270
-0.13834253063012660889263827357354
0.83150914019545973943081662582699
-2.49491814205486006628120776440483
1.04172786176449072570449061458930
-0.16088350107449633785705600530491
W:
0.42948727312754930718341483952827
0.15364095502963875938817750466114
1.76714991532604259738548080349574
-0.01880364707843593108371749167418
3.83243685850630511069425665482413
-2.09014180754041412058086280012503
-0.67000639639724879348392505562515
-0.07293288826967037064008536617621
-2.17399750429245530725097523827571
-2.11159240533205627698976059036795
-0.79129544534658236010216114664217
-1.04787532128055183022752316901460
