mlp_weights
I:6
J:5
K:2
V:
2.12377568766589508442166334134527
0.48929123818056524664044104611094
-0.30127881162858832775341966225824
-1.01616753230998857482347830227809
1.14030895616947858250966874038568
1.06340077537253452355514582450269
-0.09812955449311917821564321684491
-0.19715319745291151609656310483842
-0.77800409011162574568487571013975
-1.46567679250082427699908294016495
0.59113367262957061676331704802578
-0.86760496620444271798078261781484
-2.37077981923139491371443909883965
-0.29667191345847343519892547192285
1.77869197793110300764851672283839
-0.30659797994042492508270925100078
0.77534622450928336601094770230702
-0.58432999608773039668108140176628
-1.65155315184437556652596867934335
-1.31303201105964517658719614701113
1.57389874960929976310808342532255
0.35484750421427335709267936181277
-1.00977200764916097419643392640864
1.34955155451498942653643098310567
-0.54414942154228085335887499240926
-1.24973945009761755464694488182431
1.60558616230231665511496430553962
-1.73180970284000013137415407982189
-0.65972084373138961677085490009631
-1.90590574118530953207084621681133
-1.91390036070558755554316121560987
-0.29528076215398468828965405919007
0.66616502916086417496188687437098
-1.45798766049782768661202680959832
-0.12758195038085942685235352200834
W:
1.51505548039621040778968108497793
-0.21163556647551132194884360160358
1.75507050566151656667557290347759
0.74263511743696164479899834987009
-0.20056036203138599693929222667066
1.24181522409724287570043088635430
0.72275661368689836372425361332716
-0.23488586313545631312216244168667
2.48882813415759995834264373115730
1.02082245485625411340890877909260
-0.11774750163506469968766054989828
-0.78346446418978543668742986483267
