mlp_weights
I:6
J:5
K:2
V:
-1.33555350909674142023675358359469
-0.18281833398769128939953532153595
0.79281140216001610987461845070357
-0.01049721542643511362769004335860
-1.08880840947611590152632743411232
-0.33146108979225225033005131081154
-2.32787924727206574360138802148867
0.28945256832639604249735043595138
-0.65802681544887120512754563605995
1.64392072750372753020542404556181
-0.60839584601467555646792106927023
-1.49738643399474713469032849388896
0.38211297688191458998829830306931
1.95468409712713531156680346612120
-2.16461165585344827988478755287360
0.30096114192727929648185636324342
0.09888106565907160694361976993605
1.34263903717007071492162140202709
-1.39926103531684420389069600787479
0.23951136001553152699017346094479
-1.11274106753504620215267095773015
-1.75952256639771409396644230582751
0.55625213188755984194955317434506
-0.43917962394963994121610539878020
-1.14700856591111377547065330873011
1.53764196280221998591741794371046
-0.73942464720324196925105297850678
1.22417055340810310148924600071041
2.90055042645865368555746499623638
-0.02974603868528492844891530921814
-0.97862379903015583870740101701813
0.54190832817086898032243880152237
2.27164838803238344766555201204028
-1.52337658128487474229473264131229
0.04565835485690053485718920001091
W:
-1.11247270145585908096563798608258
-1.57485788940468918184478752664290
-2.06362639969756367364084326254670
-0.00218551009739066659509632017944
1.64089753674972871344550640060334
-0.78659322696496725146886319635087
1.42395755883155450405297415272798
1.27092234101282608449423605634365
-2.47499491594653031611983351467643
-1.35040929706057588610690345376497
-0.50237557740317095866799945724779
0.49257771708872860605410437528917
