mlp_weights
I:6
J:5
K:2
V:
1.97424456837475270631898638384882
0.35056652686276246200236528238747
-0.50824227660959875318980039082817
-1.67679665342969652641613720334135
0.98457151061003944647609387175180
1.14101798284673483507845048734453
0.04921814525069673207369191914040
0.28459599312486011379874639715126
-0.86689208042346332927508001375827
-1.33495934827054485438679876097012
0.22116313436038795292581937701470
-0.64680408438498981915643071261002
-2.26520794968166061522651943960227
-0.34447075017746175973343270015903
1.63703129428363736153073659806978
-0.21318264006533693688538733113091
0.80606175975820881784983384932275
-0.92418720070659665655199432876543
-1.59730107017147449077754117752193
-1.43090568611885715633036397775868
1.20308701899856473893635211425135
0.38192428176741594070264795846015
-0.80064159999591766325721664543380
1.50754312134038026549376354523702
-0.18408061473073875080608274856786
-0.97456945977090336796777592098806
1.68095566364125237335258589155274
-1.88736234855920148589802920469083
-0.56324247855640330318038877521758
-1.81985079529259685671149782137945
-1.85679343993660639355880448420066
-0.42794426029154852830771460503456
0.56972582938894400506057991151465
-1.60595178632675139596130975405686
-0.07154526053859977530180458415998
W:
1.99914533768028301885522068914725
-0.26906254352189806766659785353113
1.82619852800040205487164257647237
0.78318758586253711673208499632892
0.03208988983526347288366409316041
1.63984456105832188121951276116306
0.70465697827840545475197586711147
-0.56985066174592202692394948826404
2.38790698005877377596561927930452
0.91448575209023585941281453415286
-0.16978342535644569410990811775264
-1.08609101283698938900101893523242
