mlp_weights
I:6
J:5
K:2
V:
-1.24523193623271999364021667133784
0.32562356280037768607726889058540
1.07206739559047092846810755872866
1.10464189163993387055029415932950
-0.04938646453226144816817111404816
-0.10726012528510595056552290316176
-1.80549518783497919827141231507994
-0.60580349990287329919880221495987
-2.93924640469241627016572238062508
-0.26919556588232984584152518436895
-0.61122465222291122444175925920717
1.80192617684835520996955438022269
-0.33620509297350797961456692064530
-1.60096824823843975060810862487415
0.12668327173867841017873558939755
0.90083234966386271924676520939101
-2.21970013532279608625685796141624
-0.69113169441794353176078402611893
-3.86877419548161682882891909684986
3.15192454575493608004421730583999
1.66192919467657129750648437038762
2.07295208512997808369959784613457
1.81564888312707917172872384981019
-2.25775228820310314148400721023791
-1.27127653245256455605272094544489
-0.29133272811163479776297435819288
-1.41813935895256260089070110552711
0.87542955001070188458811571763363
-1.68310190465355313804707293456886
-1.04048521010305838885301454865839
-0.63531914967082026013400763986283
0.33596266934331731057739034440601
1.59273724504669900170483742840588
-3.31206846546981559242794901365414
0.40096164503058229211518437296036
W:
1.07163756631524265117150207515806
-1.98953100832724016910901809751522
2.26767397957102812000584890483879
-0.39056232682449759652243415075645
-1.51329945584927783031048420525622
-1.53323346742150312671526535268640
-1.86819577404272396670137368346332
0.00994918820890346861096631414512
-0.08670250367728060680860835418571
-0.21548352317752186846355755278637
-0.53116367186116208998214460734744
1.55452344605460512916295101604192
