mlp_weights
I:6
J:5
K:2
V:
-1.35129019138777528574735242727911
-0.01983298669457833618423592270119
0.84840331650743561198169118142687
0.90723046229010617658161663712235
0.12306897256246857041972475599323
-0.42907430666673834762647743445996
-1.87740659168414714130790343915578
-0.68461354893785486552815200411715
-2.96932581650525095895432059478480
-0.36463556418927345337266388014541
-0.43401939815256573851343091519084
2.17572987534353279315268991922494
-0.81460974424372822877415956099867
-1.55776431277042792800102688488550
-0.21405343307526503160431730066193
1.11771525357364232000634274299955
-2.47144414709284410136547194269951
-0.66017994727518125586129826842807
-3.92961429319385846525847227894701
3.15542781422880169728273358487058
1.20788787179245704628272051195381
2.01520713717722532720699746278115
1.51472070306479889012507555889897
-2.15610599488347709495883464114740
-1.57426966098321052811570552876219
-0.46697302808874630031255037465598
-1.41846641387020211411140735435765
0.91334452130855947604715083798510
-1.78422979115540458749933350190986
-1.33874392973798661543582966260146
-0.51453680342333629749163037558901
0.36107542392239300177436689409660
1.50588347966468072414158996252809
-2.92427042297161543515926496183965
0.12730547440214701193639257326140
W:
1.16831345657546292748918403958669
-1.97247394129858721889547723549185
2.33050913592292685549978159542661
-0.42464491759760736311335449499893
-1.60574775420916537882476404774934
-1.62328351105354129479962921323022
-2.22926032365160287085359414049890
-0.31208851192239195349031888326863
0.01111449894278798179725331607415
-0.46468929750075194107239440199919
-0.68397865385627043544047864997992
1.41752656341225424796448351116851
