mlp_weights
I:6
J:5
K:2
V:
-0.55212001455378267866791475171340
-1.33215081898012943639741934021004
-0.23151652669083760960333506773168
2.13128264021450419818393129389733
3.50549353094399007702008930209558
-2.11413513710760803121502249268815
3.46985340234512706913960755628068
-0.83525917226434964746317746175919
-0.03403810306738343227639376209481
0.49281464860480184153601612706552
-0.73143402893484565918669204620528
0.07181495668189762093813754972871
-0.37875139957894154996154156833654
1.02883157925532353615949432423804
3.47091541532813296910831013519783
2.32721240833836962025316097424366
1.34797020802842082431993731006514
-0.10347605907857833351659593290606
-1.74280741449400999876218065764988
1.22428230086681022470429525128566
-0.60137062038852540091227183438605
-1.23475176161832855825650767656043
-0.19908424187808354544060307489417
1.05697332704502122702194810699439
0.80712727436037323691664369107457
-0.91305519614551111651223891385598
0.58602775605707124739751634479035
1.07302987081694167770251624460798
-2.18689017776783156676856378908269
0.51816605619663902437821434432408
-1.54006482451894544105641671194462
-0.12064798219969984083288494502995
0.22969374022993627182387399443542
0.09639250703802983155643602231066
0.80243383814216073801617312710732
W:
-0.81638557503950204274900670498027
0.89182202045920311306304029130843
1.02887458634536343993204354774207
-1.62334299016151506478422561485786
-2.07564970661019110309553070692345
-0.71301030404476384294554236475960
-1.76588687127153298739301590103423
1.83837858410769694472719493205659
-0.17511590502136484270856442435615
1.06463417766696366584255883935839
-0.06822556419878532396605663734590
-0.68707797697158590199961736288969
