mlp_weights
I:6
J:5
K:2
V:
-0.53259603103606079077536605836940
-1.16174376464746531567584497679491
-0.24325127749630159890159575297730
2.09879400239184343845977309683803
3.80802229974711359261618781602010
-1.87019193900391944573868840961950
3.67362793882577820525625611480791
-0.65219934222886999375390360000893
0.09892340084074982553552501940430
0.74339858112247736432465217149002
-0.91416453764021332606404257603572
0.23365463483944612366194348851423
-0.30004254013697351233247445634333
0.74972271515260835439420361581142
3.34296516307527680211819642863702
2.25495059924497587289238254015800
1.30842793853227346012602083646925
-0.11460510359498086996321575270485
-2.21097530156899502173928340198472
1.30394330617587761445008709415561
-0.46966229673217768647575098839297
-1.34859145808059888160812533897115
-0.24370789075583809690783709811512
0.54170495605357604773644197848625
0.74080517214173635665019901352935
-0.70090287546640117621876697739935
0.39356445893202840480284976365510
0.99245346373799980810304077749606
-1.92028993086728161365783762448700
0.45908062639602448262721168248390
-1.62726142456165456806616020912770
0.39188788117935741128761151230719
0.22315347545326114087060886959080
-0.06464571308462033205621821707609
0.19167329223230916701581350025663
W:
-0.64949472464869628662853529021959
0.83515765519475615441535865102196
1.24254021296290328990608031745069
-1.52193383213419841659685971535509
-1.73487312326806386586497410462471
-0.53634668895908332864053136290750
-1.29067599757927209402907919866266
2.09942009442876154068358118820470
-0.17234632365061666736671952548932
1.12964515843562485208906309708254
0.09835817058256467182442150942734
-0.59322114961241478869879983903957
