mlp_weights
I:6
J:5
K:2
V:
-0.40508666707008894602992654654372
-1.00531333987226023651828654692508
-0.36994218171518589155510881028022
2.12725692790046494451416947413236
3.75846340824145874748296591860708
-1.87804054837673151112653613381553
3.70934906793442564776341896504164
-0.55539302694420067396663398540113
0.03778318920441241235419482791258
0.82999621039075344164359648857499
-0.98787086794106160336781385922222
0.08987330848160746121777719963575
-0.36848768427260281121959906158736
0.71997480838236982414457543200115
3.32382468274847875377986383682583
2.23422223694746291400292648177128
1.27782414870231519898879923857749
-0.13040695289318834926284296216181
-2.13761710844173213885710538306739
1.16727635285855546598554610682186
-0.49487133324679011270319506365922
-1.32053602309195228237115316005656
-0.12877872800835205024938545648183
0.45328784169236130408009444181516
0.63071210103616381914548583154101
-0.62282006658248301178559813706670
0.33474657978249600098763494315790
1.00460252291406959557207301259041
-1.93435556539624542438104981556535
0.57829115840358480404859164991649
-1.69056407094637517474211563239805
0.32143183973655048424333813272824
0.36707274335019074440467079512018
-0.20032095964633492291007144103787
0.34990655061811398729432198706490
W:
-0.62375294024070826459649197204271
0.84453176581980793358184200769756
1.14567343595391157862195541383699
-1.40625843345062295774994254315970
-1.78086154942980012805264777853154
-0.58613314931309201671894015817088
-1.42283148488468680348262296320172
1.74911380051764986376383603783324
-0.15388839723911201806672011116461
1.22519883777197757801502575603081
0.10786553087792517813259252079661
-0.58425428067257878517182234645588
