mlp_weights
I:6
J:5
K:2
V:
-1.12520175775522490724256385874469
-0.42200819861650640252292987497640
0.69299662748434853742907080231817
0.00671441596780800176169634596590
-1.18709586851818738040265088784508
-0.36569021267253881690706407425751
-2.09085572125057517212098900927231
0.32242726012710398730831684588338
-0.61184394448442280811661930783885
1.56822761636884888680754102097126
-0.49697418388613734396841437046533
-1.27472321201991567463096544088330
0.30131567796382691115653074120928
1.86077506290840610780890074238414
-2.23594143877031781286746081605088
0.28192873434309251301499443798093
-0.03284816013523660094275413712239
1.43551878692376444490719222812913
-1.57822881605070319821493285417091
0.10825812912278887090167245332850
-1.03156979814173999088211530761328
-1.83682637880513643935387335659470
0.68698672187336362604526129871374
-0.48887761334732937612557179818396
-1.16772680975717046969464263383998
1.29123369661793185869669287058059
-0.74650642569842329265838998253457
1.32160706571096264738685022166464
2.78916490775396042067768576089293
-0.21413433930759773193841510874336
-0.93057481357123816856358189397724
0.38972085570318054648097927383787
2.30305492154737478927017946261913
-1.38663325470180320841961929545505
0.10901161752527215031971508096831
W:
-0.92060767287616340759370814339491
-1.50724789370732836779609442601213
-2.09099082488470067175967415096238
0.02826135832157872229686290665995
1.75327440847835447357283555902541
-0.57535651167554024976169557703543
1.57988577146803232942318118148251
1.16408905751941826878237407072447
-2.24030876215934426909370813518763
-1.32305124060217083048485164908925
-0.25693300866874041465948153017962
0.54938854145665139139254051769967
