mlp_weights
I:6
J:5
K:2
V:
-1.25105552622998184020275402872358
-0.20217121899071077706366850179620
0.56722007814244701506822821102105
0.24735589755258252653291606293351
-1.20199330622171340898773905792041
-0.47373185536257333971832395036472
-2.31000126450945275635717734985519
0.13025097058022971907575993100181
-0.87001644152840951207394937227946
1.69265141450208789208886628330220
-0.59546883380282333853017462388379
-1.48590410692758978505878530995687
0.41279282762022090347286962241924
2.03743288516316001235395560797770
-2.14005877257345611397454376856331
0.27964331875165360230539590702392
-0.07997082452913958916518311070831
1.30769841822505905604145937104477
-1.27770777253489375979711439867970
0.20325303368577538054573494719079
-1.03985581747084765424915531184524
-1.76770825992837932183476823411183
0.78478995757432368218786677971366
-0.58193067098433526318501662899507
-1.12782017965338376974671064090217
1.42171132885013662416895385831594
-0.62317586037887728878104098839685
1.21276999984416011812982105766423
2.83494559824183545160281028074678
-0.05431787120330561213776832119038
-0.87616048696311998877916948913480
0.27305662195743585218821181115345
2.40500508314875460769144410733134
-1.69950915142669600754743441939354
-0.03525304246514904260578759931377
W:
-1.11200989197416499898452002526028
-1.72867463670080456772382149210898
-2.06987953634355204002304162713699
-0.12818721635455471163922425148485
1.72002012921529523481467549572699
-0.70108113850536191158369092590874
1.37217448388194762642910973227117
1.09790721737167995541994969244115
-2.39764341614876830277580666006543
-1.30154486420279802416644088225439
-0.26888392491987184174107028411527
0.52361885696754306707134674070403
