mlp_weights
I:6
J:5
K:2
V:
1.87063638898385820041880833741743
2.62901651556614490701235808955971
-1.08466026265258674854408127430361
-0.86024676839348579449051612755284
-0.19106849527376065789319170562521
1.01065551805146225383680302911671
-3.28835077804029474179969838587567
-1.17761675358912509814501845539780
2.45510010155657676378382348048035
-1.55346361101707874929900299321162
0.51568013556676628450503585554543
2.20978403203278039867996085376944
-0.10560018899076153986449355670629
0.75894910673023074920706676493865
0.68745330755321509830224613324390
-1.30201105207342271441461889480706
1.75447031669888109384203289664583
-1.43147289821832912615207078488311
-2.07886270014453744536808699194808
0.28673979057737192244204038615862
-0.69462469099144796835787474265089
0.63252183689673202593439782503992
-0.30829543300438910780059131866437
-1.37997440270437299325578806019621
-0.47158729970142621024109530480928
-1.16850362846315891651727270073025
1.53869639243281453033773686911445
-2.15477880389347120626553078182042
-0.04797292310854200936276470201847
-1.51612944801385030046958490856923
-0.60561102526981824833995915469131
1.40439245943116430836994368291926
-0.16649853211240878136933929454244
-0.95225787928776906010597258500638
-1.11735548439965759470737793890294
W:
0.48881133772282814309306786526577
2.82295899726147636599193901929539
-1.37686188816593069184079922706587
-1.11568477036606417129860346904024
-1.78171593658531257631238986505195
-1.05590552706868501253723025001818
-0.91662896302576524210081743149203
-2.51877623738162714772670369711705
-0.35173100717930516623255243757740
-3.25901295219879028053355796146207
2.22711529329709989610819320660084
0.37683412338218796877598038008728
