mlp_weights
I:6
J:5
K:2
V:
-0.66403124487344733495319815119728
1.79543770181226047810696400119923
1.36174283420823183377024179208092
0.79528660944813378552709082214278
-0.81852189643467621049666149701807
-1.17605746515813969210739742266014
-2.85791457663383807741297459870111
2.88569731739955459559610062569845
0.57814649338450696536284567628172
1.95949925022571003196958372427616
-0.43246402775867859302749707239855
-0.23629427127033320044091624367866
-1.18077096393129377105424282490276
1.15315652026537929231153611908667
1.43674362591009963097121726605110
-0.90853563630730949096658832786488
-0.85986612263384032406321466623922
-0.43420875216968046750309895287501
-1.28764655715848386208222109416965
-2.00006861825828030632123955001589
-0.29439434702882522065792159082775
0.92900303138174167294494054658571
-0.65121781754675922559982836901327
-0.72963270017600512229449805090553
0.93454420727135856239442546211649
-3.31380558367653321738544036634266
1.01159157657379461525692931900267
-2.16015205355230133221766664064489
1.80394961471101966665742111217696
1.69493263039971475691913838090841
1.55065652434598488795813864271622
1.52580104801666305291973912972026
0.44893328811138261125179838018084
-0.36976669686341867571144348403323
-0.73311658658791434284296428813832
W:
1.45074053078029230334777821553871
2.19964035778410016419570638390724
1.57541996646230608725147703808034
0.31902286534328638811786049700459
2.43648821527937631259419504203834
0.28382269169398177677265948659624
0.62925676783194472996285639965208
-1.24086957448184698193927033571526
0.31837246077178632530646495979454
1.03238498801912781388523399073165
0.29003493087315734832998259662418
-2.14348382978572704615771726821549
