mlp_weights
I:6
J:5
K:2
V:
-0.99559925865235843200906629135716
-0.14335616385436575348499843585159
0.92167934699763154338114645725000
-0.26451372001317574600420812203083
-1.06975735127795656964622139639687
-0.61284225077969156636470415833173
-2.07230568875924081595485404250212
0.29439619467534672292430286688614
-0.73595642642375025399559262950788
1.45593911730733194254128193279030
-0.49194528483076860325695633946452
-1.68309259062193050660027893172810
0.12659905451098246720320616987010
2.14447927810456340225186977477279
-2.20319541068974800168689398560673
0.32920196099082632557042416010518
0.22710321150035700510372294047556
1.30448202269773494421656323538627
-1.60304738739167973449184501077980
0.32005452445180643250566276947211
-1.07513475373590727812711520527955
-1.79051199555964068999003302451456
0.48542743263483856264173255112837
-0.58539657121153798602364304315415
-1.27109890129572011829850453068502
1.31823362238741625951377045566915
-0.54227706968979494384086592617678
1.09084047059906819043817449710332
2.94586893766715407494416467670817
-0.05144210466302510942337988808504
-0.76863080402969730098305944920867
0.47178583616407571144080179692537
2.17182738546273412794107571244240
-1.46008333860488170863334289606428
-0.01885085694721461840872578363815
W:
-1.02642740336846460813546855206368
-1.74752279236689345154331931553315
-2.40046637426016218341828789561987
-0.07245346061248358893180920858867
1.60601273312473247223408634454245
-0.94079571608021561601731264090631
1.62408202475087759530936182272853
1.16493076697592390367219650215702
-2.58994543289958967235975251242053
-1.36817347169174308163519526715390
-0.16733489445804544670792779470503
0.69057595611470434793233152959147
