mlp_weights
I:6
J:5
K:2
V:
-0.93934871144244669327605379294255
0.01564889613170053483948152006633
1.13266248510238964897212099458557
1.04354558587773738054238492622972
0.16260152361639432228024304549763
-0.69248394717127026432024194946280
-1.74785743594126752320505602256162
-0.34075976799956281260151058631891
-2.52702775700572512818098402931355
-0.52101362938111450695544135669479
0.23541686501451569712983769022685
2.13978518515049831449914563563652
-1.25529028420324451076339755672961
-1.74472285822097172847122692473931
0.21683078926281901255279649376462
1.08802267751374115434259692847263
-2.23818035676981441639554759603925
-0.78195809326235010683348036764073
-3.77608465624474209931804580264725
3.27489024356167579554721669410355
1.27143646073333371759872534312308
1.87105652915142561809602739231195
1.61413076025403889879328289680416
-1.73941303548491110753104749164777
-1.58987801524133587349751906003803
-0.58076727475088696373006769135827
-1.35850224138591069156234425463481
1.09177793933622524491511285305023
-1.40451526750932464970844648632919
-0.95751841610318311204252950119553
-0.78189885786501722719776807934977
0.17048158550121056409309971968469
1.29941960510347365165273458842421
-2.85456517708882540063086707959883
0.19628790689382874523616351325472
W:
0.96402659124461498318936492069042
-2.05860343024535907829886127728969
1.74970815788891087549927760846913
-0.63830052477929943854917382850545
-1.22204312574016338288629413000308
-2.00456275722847676590276932984125
-2.05589176885688784679473428695928
-0.41315633450072236643180190185376
-0.40111205745372757736078028756310
-0.27290261052383796291920248222596
-0.88264329268973984454760284279473
1.28751883710318160147778598911827
