mlp_weights
I:6
J:5
K:2
V:
1.92522333949252755225245437031845
2.58102001808545722383314569015056
-1.02071026985413682020009673578897
-0.97398231522041622820751172184828
-0.06314158605817345171207222165322
1.39769761389924229710857161990134
-2.76968511652026894154232650180347
-1.15432335098209071233554823265877
2.51927860727551156116987840505317
-1.51321286823149026012913509475766
1.27420198961341202270602934731869
2.48354788199813869553622680541594
-0.14535503834791835275908056246408
0.61564843955481551862618516679504
0.26409932645166511733236802683678
-0.68711592208108873691685403173324
1.61008897935776773557847718620906
-0.98294438451172783111076114437310
-2.29255389440516132992797793122008
-0.17059170389712596804798749872134
-0.64593434982575748115607439103769
0.55170396951730360513010964496061
-0.83064255861564406657748804718722
-0.95841220237222546352029439731268
-0.94936392250010015469996460524271
-0.94963031547510134977585494198138
1.42506590694583645806403637834592
-2.00405693784660554612742089375388
-0.62838935774656234922730391190271
-2.06982089891181875174197557498701
-0.89923626756384411606859430321492
1.06142854809629905155077267409069
0.03366795699262278840357964782015
-0.66936124549105091574574544210918
-0.79604124995279201826292592159007
W:
0.73090741057243380218721995333908
2.62616537838510621938326039526146
-1.17964421692187682033647888601990
-1.11762422903805402896182386029977
-1.59195875569856859499395795864984
-1.09186976256549761465919345937436
-0.76977149324936033902844201293192
-2.94533420574698201477303882711567
-1.06186001644409189204054655419895
-3.31111448381264183993266669858713
1.89788114193754431369143276242539
0.32418683357183097903941870754352
