mlp_weights
I:6
J:5
K:2
V:
2.27101578437996964865419613488484
0.31293982016976534810126509000838
-0.21247854338145774621970929274539
-1.20760183965543554940325066127116
0.92984318488975747918345859943656
0.72760045302735387728887417324586
-0.38056860859033714294952233103686
0.13623331000372312926671725108463
-1.05294362491172388551774474763079
-1.48739764950773123430849409487564
0.45913733756421959419924405665370
-0.84904699167783981295087869511917
-2.50014518542526964495209540473297
-0.15504535185708440137020147631119
1.41787735287358884761488297954202
-0.28735300289503284965064722200623
0.61631420250873691912829599459656
-0.85050311661256516870821542397607
-1.45824088387088668383739786804654
-1.01424739935544749869222869165242
1.37493260437764042158903521340108
0.31439110249965440679886796715437
-0.92336181126588312562120108850650
1.72493144437282319714199729787651
-0.37594905988613902536599198356271
-1.22596191844552504512932955549331
1.76178879347933770027623268106254
-2.42588240248004893828692729584873
-0.38416836902843803924767485113989
-1.85678255766276700811090449860785
-2.04131249897436006790485407691449
-0.72829956528825812167582398615195
1.08822009856693302509711429593153
-1.33123489176302256531414514029166
0.16535254653572523109161807042256
W:
1.60390030643507564001026821642881
-0.17060217055106713379686311782280
1.99255048527330624885678389546229
0.69632718355206613125574222067371
0.03917352985472066784211619960843
1.04136964594039138631842433824204
0.87953636532267298608900318868109
-0.14134815209136558644686942898261
2.92319785273309173945222028123681
0.88240877747859569613098074114532
-0.40489529162610882195849626441486
-0.62176967343607103533287272512098
