mlp_weights
I:6
J:5
K:2
V:
-0.15821790457228182558147011604888
-1.02187888396540649260657573904609
-0.40361321651631504314750031880976
2.03275089867541458588107161631342
3.86297164566626882731270598014817
-1.94078691200387964954643393866718
3.77831246064901193904006504453719
-0.39121511744408093980140961321013
0.09325128635368254426118994615535
0.76209618972882475773644728178624
-0.74528926414847573855837481460185
0.17892499993045718476025740528712
-0.22564917757409155840697678740980
0.88831638311527172380266392792691
3.45832071877544766635992345982231
2.15378577329222142822118257754482
1.23024623032825553003988261480117
0.01153723338740031412186226589256
-2.11194973923231543722067726776004
1.24849762741039760349792686611181
-0.39836276600866782349186223655124
-1.41157557929842081279048215947114
0.02423995701675157876664457035076
0.56870671736330435930284465939621
0.62887747478886601992797977800365
-0.53487410529319534546743852843065
0.35010719574018034361273521426483
1.03890231816565958844478245737264
-1.88323487057861549409665258281166
0.43110277397480334382606770304847
-1.81206765901960498155176537693478
0.33578494442609913006592137207917
0.40158283926093851778915677641635
-0.16086207235821786687424150841252
0.40130640745795104207260806106206
W:
-0.69584581124202582458337928983383
0.80465716074205595464974294372951
1.29203653021892561625350026588421
-1.32625574036078641704250458133174
-1.78350391210950509623955895222025
-0.37115197776137609508850800921209
-1.55939167668533862354252050863579
1.84230235451198254281734989490360
-0.07981900636272662441506042796391
1.38031920612462810638021437625866
-0.04249835823162183279233516941531
-0.51028781050728688750695027920301
