mlp_weights
I:6
J:5
K:2
V:
-1.70694543091282469049474457278848
-0.28371262093615273736091353384836
0.59883283039837120753645649529062
-0.05802870690550965271370387199568
-1.03614932589820352148990423302166
-0.07815779659681244828650648059920
-2.25468650687725080672407784732059
0.33075324943577960601359677639266
-0.80221103797383985778424175805412
1.48364533897421946306849349639378
-0.56993814921653762617381744348677
-1.55731287579607036164475175610278
0.24350402701098450286565366695868
2.04901992438641844529456648160703
-2.01789779360438803479382841032930
0.27983345689345706652773060341133
0.03734020170683114564491589248973
1.35275417728101987613342771510361
-1.34678896573843220885180471668718
0.19571234561953593233951664842607
-1.12538525799546818007002002559602
-1.58861121540186789324877736362396
0.59350251701550493788062112798798
-0.47300302576305519597354987126892
-1.18349670451044408636676052992698
2.02674693815508266681035820511170
-0.70892062300800484653251487543457
1.20104378859730243078729472472332
2.92315790872472414108074190153275
-0.15209828122526908300571335530549
-0.96608016863132295526384041295387
0.41943047321863746734749156530597
2.20134501640233981589744871598668
-1.59937817221500244713183747080620
0.14135191208935174445038285284681
W:
-0.95160168431819613932276524792542
-1.66125622295469899114550571539439
-1.96786728694836932085365788225317
0.31067844921886955678047570472700
1.63732934415597464195002430642489
-0.50623066830078811140225525377900
1.48972838133130247584290373197291
1.12578147264003858296632643032353
-2.48577159060359198505807398760226
-1.46032905116481726004451502376469
0.03218377781900805256753983485396
0.50927777508462157562973970925668
