mlp_weights
I:6
J:5
K:2
V:
-0.43927884630978486502073110386846
1.21914005620142784636072974535637
-0.01186813513778599282755266131062
-0.61619546728874197150105374021223
-0.28054240012047776398063092528901
2.15431241978976117934507783502340
0.30799698504843886492921001263312
-0.28897755538485991877450942411087
0.44039500021861521794619420688832
0.13636045856658557395846287363383
1.40092261928008454674454696942121
2.63278386197151048619957691698801
1.40426277567300195059374345873948
1.21197358836260726810962751187617
1.53347999601838336225512193777831
0.65361696923647283341551883495413
-0.57092775477517676563365967012942
2.11323425601233561010872108454350
-0.23587014420091323430028751317877
0.28712057791246059501588661078131
-1.09938913798643245200992168975063
2.20211934177197443673890120408032
-1.21386982578679192279480503202649
-2.83250741025903662873020039114635
-1.52481931824621996796054190781433
1.01124032380962058930151670210762
-1.36264032574275506526362278236775
-0.48619590392269945722247825869999
2.61304371197307228058548389526550
-0.38069486049237766245312286628177
0.22887630692938076837350536152371
0.63924754177073017658017306530382
-2.55682432535820591823494396521710
1.28453748035903791979706056736177
-0.12884340650515352377780686765618
W:
0.48858037481045857308714630562463
-0.07753770385656415242703332069141
1.51450126582038047118317081185523
-0.05654715600554811871791827115885
3.70997455784455354432793683372438
-2.09375514455671085656263130658772
-0.44533544326464169493817735201446
-0.09507366519872853527495237813127
-1.88330495691185206830198239913443
-2.41299528499958393368274300883058
-0.78491410543256756593422096557333
-0.95932392246355391307588433846831
