mlp_weights
I:6
J:5
K:2
V:
1.81959015111386568364082449988928
2.47544007231106544253407264477573
-1.06306417009637277359956897271331
-0.91171343264877680034885543136625
-0.36382324764901069480416140322632
0.82192859042696642113412508479087
-3.25325523940093264130268835288007
-1.21112402616723691117783801018959
2.41939612296158435000847930496093
-1.50285303092602684493783726793481
0.72757233732268833392708984320052
2.08534228025018641972110344795510
-0.27118953684302221640578522965370
0.76975615034859878882400607835734
0.63981004116213568977400427684188
-1.29896569967491903874190484202700
1.67128542235487143052807823551120
-1.29947287457834104174025924294256
-2.02533666459840455686958193837199
0.15809570599494232601145426997391
-0.45886333209961827073186668712879
0.50787589093939067286243016496883
-0.31215606812272267411856319085928
-1.48287338435847448891991007258184
-0.30414584214230178105253799003549
-1.01482446048556385065353424579371
1.59142146884850554933166222326690
-2.21124757593425913526630210981239
-0.16709500206711053182928594651457
-1.73335376304287924753566585422959
-0.72748015221973127975019224322750
1.32638727501310405010315207618987
-0.26767538472369151181240454207000
-0.87686640920852265690399462982896
-0.93087942385661692767939712211955
W:
0.49147568051411982814613566006301
2.65194704854217500056279277487192
-1.13697917243522605978967021655990
-1.43766086978091922610190067643998
-1.77752050927911486866150880814530
-0.69340490249176855996893209521659
-1.02815947918096095570206216507358
-2.69872171922801928900526036159135
-0.52091466759488547211276454618201
-3.01666740606491234899522169143893
2.26937023934804127378583871177398
0.24637349622059165343834763461928
