mlp_weights
I:6
J:5
K:2
V:
-1.62650250203006940807881619548425
-0.16996632086214752410668893389811
0.75789558353251662570215785308392
0.04269782834798441228940646396950
-0.84787945195838032574897624726873
-0.11713547240946298177988182942499
-2.08413021900364991978449324960820
0.28706636250929901121864418200857
-0.78881659093829969986444439200568
1.58028238645636043280262583721196
-0.65477544588941161141093516562250
-1.52530037493501091638847810827428
0.22939538157445399368938865336531
1.83334566956696254358405440143542
-1.95446311820899931710471264523221
0.49030303441369310624153854405449
-0.00384146898633502126285677036321
1.56501192622624984984724960668245
-1.38549749780268371956992723426083
0.25648070968059005769745795078052
-1.04850457888055537125637783901766
-1.52982934668599646066411423817044
0.57702393395337026049674022942781
-0.60399872240587659799615494193858
-1.27044739996749478372350949939573
1.75316624558246125786808988777921
-0.68206840836130000482739887956996
1.22921565513716934958665660815313
2.80398896482648307681984078953974
-0.01846004867000695937040433136644
-0.88654207449198541013402063981630
0.32651268385911969005519495112821
2.32131810232193913634546333923936
-1.58032080085858894769046401052037
0.05531276686181568064126778949685
W:
-0.82049069121323903175380110042170
-1.69168127568040072006283480732236
-2.00727214372794504626540401659440
0.12392395350252971564231074808049
1.70971650339201497459384881949518
-0.47429233961622008219904955694801
1.65022961405731383166539671947248
1.10784516162235679992420500639128
-2.41286082280184066561901090608444
-1.57692497036344692062925787467975
-0.17267976915591709552444399378146
0.54507925228827591723756995634176
