mlp_weights
I:6
J:5
K:2
V:
-0.64169889548431413572870951611549
1.71368424136367658583424145035679
1.53997022360592983325489058188396
0.87710791421759437547223114961525
-1.08529088678967422509913376416080
-0.64898071267302492870499008859042
-2.67460763875776397213712698430754
2.39692389226000956981010858726222
0.68685759722409456262681715088547
2.02536197077870072646987864573020
-0.36598869037343362276004654631834
-0.18513496655463790308004945472931
-1.00034019526694861745852449530503
0.75370576721507431816604594132514
1.31843452982040898469051626307191
-0.93375496757784093304621819697786
-0.85530764424002925228052163220127
-0.39537158182960757679680341425410
-0.81426851743913597481139277078910
-2.12465023097037875032810916309245
-0.11401925674199754612292423416875
0.96061848054615250891430378032965
-0.48829358063090616548507227889786
-0.89752150540490305274943239055574
0.94961951828753810023187043043436
-3.60376182996795613178164785495028
0.97386279550180598896247374796076
-2.13935538652346091126332794374321
1.68158208293864253057847690797644
1.67704963685082431013029236055445
1.54129589480822848379659717465984
1.65255415351266332635304934228770
0.58589945388377184798400776344351
-0.46508402034644202860391715148580
-1.10448144688324423334790935768979
W:
1.37604010885873484504315911181038
2.36082577075077937323044352524448
1.53217839820955870067109572119080
-0.00876418272126605613081551382493
2.47120616276262516919359768508002
0.10487915142476213203881485469537
0.53687027014429122839800356814521
-1.05671038761685065487938572914572
0.43133059791844047259345984457468
0.97599499268770817383966686975327
0.38991798890313833503284968173830
-2.08431025637772115999268862651661
