mlp_weights
I:6
J:5
K:2
V:
-0.65051716776881851611591400796897
1.69523503273218434372893170802854
1.51933133338752468510790549771627
0.90339949976206912474196997209219
-0.47263002351864846772855344170239
-1.02217375751961125907030236703577
-2.90565464309798926478833891451359
2.55366879970450844083984520693775
0.43329006181309259737588490679627
2.34867009715487951027057533792686
-0.14557618263958627125020939274691
-0.03644142724981196124200977237706
-1.09607066218167892301948995736893
0.91168168795295034811942969099618
1.49495217037953742611477991886204
-0.95955688026436491977477771797567
-0.82597438932565148128617238398874
-0.73631006385711850192876681830967
-1.01889570445866151082725536980433
-1.60382262327720770400674155098386
-0.39124831777566260182510404774803
0.60927388088448730663060359802330
-0.53915644572895737862694431896671
-1.11550698354363531095145845029037
0.73876347997857427785106665396597
-3.76265464113707404081310414767358
1.07657238442779390474868250748841
-2.09450985557661173430687995278277
1.79760601824832821904465163243003
1.90779008420483875418938168877503
1.71014830555066854600454462342896
1.36292268199535659967125411640154
0.50752927114544610365243215710507
-0.32804500303921690917974274270819
-1.01581661168625880797833360702498
W:
1.19666086655066483679377142834710
2.34029152741088708467032120097429
1.50646902686230688139801259239903
0.31102330539401679132538447447587
1.89812512324106608119222983077634
0.13640156013727000594570881730760
0.62867603335101196471157436462818
-1.05050219199580729956267077795928
0.51042813787390028945623043910018
1.09991108211082089241017456515692
0.25828187054007245571085604751715
-1.80359995670840911330401468148921
