mlp_weights
I:6
J:5
K:2
V:
-0.49557354729237712565037554668379
1.41692358164455889379951258888468
0.03626192178265040533258201094213
-0.44366430995901101619338646742108
-0.25614872573885155704331850756716
1.84234412509818934466920836712234
0.13431465108244097783618542507611
-0.42922289391231105426527392410208
0.77763090299434556307289767573820
0.00440350962158087000375417119358
1.43112887078930195450254814204527
2.88188932137536690802903649455402
1.55868527485754704287046479294077
1.29937619698911377419392465526471
1.87388452497448443345717805641470
0.60470881372367280004453959918465
-0.65267037870207822436441347235814
2.33957334342763001444609471946023
0.12870104517368119445563934277743
0.35531318966281638660476005497912
-1.28530433586070036433568475331413
2.17433195211373408994859346421435
-1.07775669776745108840998454979854
-2.65045762235062465350665661389939
-1.57521649085714798843582684639841
1.21754642316022043679879516275832
-1.23225373509987567999246493855026
-0.45071792681864186747020539769437
2.36974132554266336825321559445001
-0.52311210579311517854250723758014
-0.12547417669254640193443606221990
0.75175445474092661424236894163187
-2.70165364984008427029493759619072
1.37766114301228004279664673958905
-0.17755652719827105801009281549341
W:
0.51676613803102244837361922691343
0.16170076810927441757215206052933
1.66286577286013548260257266520057
0.02761651936958321729154164358988
3.56289125202577539042181342665572
-1.98318671854188233183435841056053
-0.79675838884708849452209733499330
0.12531332774514022943002089505171
-2.17238020940856335627699991164263
-2.21740127558822353037726315960754
-0.82236790281125815571527937208884
-0.74578062894420849016086094707134
