mlp_weights
I:6
J:5
K:2
V:
-0.67224989618226038690096402206109
1.85392448752241922882433300401317
1.34744849679413025711482987389900
0.96495396957549606220538862544345
-0.72128894856135772339911227390985
-1.02132314376268329425556657952257
-2.72766732228499497736606826947536
2.73098782531666506301348817942198
0.70526077346368298837120391908684
2.15974790363523716507643257500604
-0.33070745830863434999713490469730
-0.17933318868154085601318570297735
-0.97435088502016176104092437526560
1.10650760379766643914933865744388
1.48458464821358071539236789249117
-0.95352541720862926677426685273531
-0.88799161759214861877609337170725
-0.46554359831023034432817553351924
-1.06128533267054137034790528559824
-1.92887111854591486448384785035159
-0.23265451128276828929308805982146
0.95317063139596414078624775356730
-0.70459764450575979033430940035032
-0.87318763318386227734180238257977
0.84981684818896263688969838767662
-3.41911409328237203553157996793743
1.13559634807189779870384427340468
-2.09561175254600629003221001767088
1.92502845971201685948415160964942
1.53220340741249416716129871929297
1.51096631815793158715166555339238
1.60236465239666969750942371319979
0.53244442558360816075690991056035
-0.37221050602813016139336355081468
-0.80925604524671812534108994441340
W:
1.44024783284602841959554098139051
2.25867588974761268616475717863068
1.53885680756244536127042010775767
0.18469980545498604351806193335506
2.29835641833154324942256607755553
0.27602684950735700830648511328036
0.65229697999827707111109020843287
-1.18281274260483915128361331881024
0.34136272795626571019411699126067
0.84895238449992427298695929493988
0.23397232707638954130047181934060
-2.07312050452188101345996074087452
