mlp_weights
I:6
J:5
K:2
V:
1.91528174889035707195716895512305
2.77076208260554945894682532525621
-0.84476178461145179365843205232522
-0.96405602651860011764739510908839
-0.12995570288242208611961814312963
1.11312032636944913122079015010968
-3.30009909209131047092000699194614
-1.32708121871456419249568625673419
2.11552535848009171104422421194613
-1.47100758286616972725369123509154
0.83531548267039934518862764889491
2.52166378759908660356359177967533
-0.52550014352998453137644219168578
0.71458943551933262749997766150045
0.36916023574023093534179906782811
-1.13559749898760231623384697741130
1.73436264937555484344500200677430
-1.33438383664053428212525886920048
-2.01092956978860470940162485931069
0.20783955939691084457976444355154
-0.52637150404444998930131305314717
0.79283187579818503731843293280690
-0.46630693652324650688711926704855
-1.18542520127150030617713127867319
-0.62212143043998180402809339284431
-0.78275853287838048633062726366916
1.55211006152728092644110802211799
-2.28428287921091044410104586859234
-0.10840451786609871243083347280844
-1.84705609220487665389498488366371
-0.67998089493305413633095213299384
1.43128513795589684676201613910962
-0.23533009691607031932392146700295
-0.89853936068517725743731716647744
-0.68369337372808236530374870199012
W:
0.27839894558844130445507403237571
2.49080173551611494531243806704879
-1.19322737832113512368437113764230
-1.37104724774577380053131037129788
-1.69968477847409005221379629801959
-0.67677144901476149474461863064789
-0.98765012730037216037715097627370
-2.67071511664214478187773238460068
-0.58842887201062754609637295288849
-3.45194069572899708830959752958734
1.96143639307876682664755207952112
0.60042617800572894992683359305374
