mlp_weights
I:6
J:5
K:2
V:
-0.98251546665967692817389433912467
0.17977072933196350246198846889456
1.11969119791117610596131726197200
1.02528362177027942969687046570471
0.21779138041621182164675474268734
-0.57515864062220944941117295456934
-1.76320313727583277696453478711192
-0.23936293263121138918947394813586
-2.49734057132940190371073185815476
-0.32527944625860460980959487642394
0.11135692492604125358734989958975
2.24884628480657777771511973696761
-1.25413550359066627848392272426281
-1.86155169690478561328461637458531
0.16015932463049914469266354899446
0.98494936985237002691206953386427
-2.33671722263783010475890478119254
-0.77875031105299408196174226759467
-3.81254761120643381744343969330657
3.25734487272224537690590295824222
1.44132061858403548448848141561029
1.86795489110228407625413638015743
1.68131126171805411750881376065081
-1.77299096193385663511321581609081
-1.53915022945679735855151193391066
-0.75275081168683055654611280260724
-1.37362278663447057169832987710834
1.03264794968070772185342320881318
-1.46543786875860448937203273089835
-0.89539826641700448472960260914988
-0.77969484256965437829478560161078
0.09958455342229993734193271848198
1.22110971486899844151707839046139
-2.79724124852178412936609674943611
0.18487317342153031241025473718764
W:
0.95544952354166590158257577058976
-2.23371451911782648025450725981500
1.70890020761834127149825235392200
-0.73583879400983442931050149127259
-1.17069208106526323476259676681366
-1.91812811359940704747373274585698
-2.05201607894172255441844754386693
-0.35478374221292119372606066463050
-0.45355951824960005769327153757331
-0.21909465622690393882265880165505
-0.76288214864057735109525992811541
1.30813860122231084837096659612143
