mlp_weights
I:6
J:5
K:2
V:
-0.46772889145237284136413791202358
1.38065218249779220194284334866097
-0.06945137210550265949304815649157
-0.66843266282453184246037380944472
-0.30907321571206453070246311654046
2.25837971050538310890942739206366
-0.03460018364137970592331328134605
-0.22305669015138748778603883238247
0.68143449632699804041635616158601
0.24032325976114385368553882926790
1.33941781914100155326252661325270
2.67905164127596151502075372263789
1.42510124435084173377674687799299
1.26263816447830423683740264095832
1.65732706564009824035110796103254
0.55074609368484062077442331428756
-0.65549538703997511923660113097867
2.07996214918971666918423579772934
-0.20617109434195338146800224876642
0.29185241564341318776243383581459
-1.16362114397032723189795433427207
2.10846585060182212245649679971393
-0.97762910199810526545860511760111
-2.80772713949199292926550697302446
-1.83642284162230939870141810388304
1.43176961679690561979327867447864
-1.32947949550629918036293020122685
-0.64061864416008007516722955188015
2.73584895742916689442836286616512
-0.47677597761208395654719538470090
0.20819615780722783293654742919898
0.44693660429861470362311592907645
-2.54693656132631751631834049476311
1.25057968989586854036133445333689
0.02123387372133185568845448187858
W:
0.47657855701163420736321540971403
0.08579859387445261387217243509440
1.48345820646001280707082514709327
-0.13268135541869616189636360559234
3.62721351641536182697223011928145
-2.02116416945846966157773749728221
-0.70184277494430091781651981364121
0.19301103770524080660564436584536
-1.95015457139366521488454964128323
-2.31877007243853539009137421089690
-0.85198454831593439795511812917539
-0.88598788875582656920926183374831
