mlp_weights
I:6
J:5
K:2
V:
-0.72615719129460587488722467242042
-1.38549260670876117629291002231184
-0.32852823977343981187715371561353
1.97503286328684257711074678809382
3.54252062670766010299416848283727
-2.08371081221936060856592121126596
3.54218091956617264770557085284963
-0.86071025329145234294969668553676
-0.11196546020339223637130032784626
0.45242738102144519629632668511476
-0.81412743601352410838245532431756
0.09480618535201429386560789680516
-0.35763736617716901378116745036095
1.11023449728727419127949360699859
3.37443405589168099467656247725245
2.32811010125845374574282686808147
1.25631784857370609742588385415729
-0.07441445348071315524229873972217
-1.72344047583144566182511425722623
1.13726543915033362353028678626288
-0.75101266664499932712573126991629
-1.43592767796858500339851616445230
-0.25182532812334174066037917327776
0.94143526322405823858474605003721
0.80795139861712716999875283363508
-0.92387859650733183958237759725307
0.44720960567952117159506997268181
1.18696247860463088841243006754667
-2.07141010596257491016558560659178
0.56789350019869655472604108581436
-1.63004043186271396770337105408544
-0.14211633602658377273364465054328
0.29440188488544599687557479228417
0.11017771206043505682892202912626
0.79385003300198564435419257279136
W:
-0.58433823435586984551548539457144
0.92374230610003271735308771894779
1.02845719000838076162551715242444
-1.52512065903459226312577357020928
-1.97041372765894262641950263059698
-0.78783659233061076321291693602689
-1.61985549351219759728337521664798
1.88488583807569165529116617108230
-0.10375069837990501253610631238189
0.93584870568951938896162801029277
0.09276929036894469848828492786197
-0.82186962656873574495364209724357
