mlp_weights
I:6
J:5
K:2
V:
1.90824117589066277744791477744002
2.58375101946507701455857386463322
-1.24145911781123619022082493756898
-0.97582741583059950940537419228349
0.05728097605902986166892532082784
1.15800888034294380268818258628016
-2.76122981188993854573254793649539
-1.30736997095202633900612454453949
2.48008455919367243325268646003678
-1.50928431660555650850596975942608
1.21038439559497890130046471313108
2.27992475961440721476947146584280
-0.22172795657720481554697755655070
0.66057307810483800736278681142721
0.02084104777785092399433608534309
-0.63743292492494529888347187807085
1.62885766567162004747615355881862
-0.98782097561426462917211210879032
-2.18110792173023426698819093871862
-0.03119526873485263529506283930459
-0.81560081856914790066070963803213
0.66398500375161040309990312380251
-0.59911551864538370448798332290608
-1.04337874368215088871636453404790
-0.86409413249866484640904218395008
-0.84908861030136928427225484483643
1.46128597797705905847465146507602
-2.13864731617838454980073947808705
-0.62516515008507733686116125682020
-1.99678020519734844562265152489999
-0.88639476718563714463527958287159
0.99720341294459491354729152590153
-0.09565496824960484367750268575037
-0.58638958703056331955849600490183
-0.70652327084441224336330833466491
W:
0.54263153170912159506400485042832
2.69064722632035824290142045356333
-1.09339334017486633499061099428218
-1.07771099017986493606713338522241
-1.61755705699981944256649057933828
-1.19442923689295055211800899996888
-0.79849843310508539229175539730932
-2.92115510299194536258937660022639
-0.92442059277150745444373569625895
-3.36791236762179746477841035812162
1.92753953467201588622970120923128
0.24173983812509447499650150348316
