mlp_weights
I:6
J:5
K:2
V:
-0.30933199854283149887734793992422
1.20908670024602060699692174239317
0.12628933643327666658251473563723
-0.59537900069000393443729990394786
-0.17621098722075217990479245600000
2.09532500777235419775479385862127
0.09590782873508266193063320770307
-0.30032331900687087022916443856957
0.68263022432355813240434372346499
0.17526173910535702837876215198776
1.36534417823811282666213173797587
2.51219035979786831092042120872065
1.43841883505096745921036927029490
1.12146775188621328211979744082782
1.46314495986647141734238175558858
0.62414746713552160528593049093615
-0.61618404324016085027437839016784
2.26863935402149774489544142852537
-0.07356530608269631898998852648219
0.29211441296475459949988362495787
-1.16653934398823344587015071738278
2.23959485874267461014142099884339
-1.12900634444503844555640625912929
-2.83692805594833563631596007326152
-1.72198015546740235137690433475655
1.32840233920565031766614083608147
-1.33534116199588726026092899701325
-0.50700943134275622270479288999923
2.55368068726104757715233972703572
-0.49343572516905331859504713065689
0.17634103773935888570534302743908
0.61508938549745262314161209360464
-2.34684066037334426724214608839247
1.27455935543113407781845580757363
0.03655603205276788947308830302063
W:
0.38091007618622768626792662871594
-0.04809332961398483929915670387345
1.50466636138809550793382641131757
-0.11169558029099736773392947952743
3.70059890014901160526505918824114
-1.92204408822447891935780717176385
-0.49085784113526309546671200223500
0.01620620822390270165946901670395
-2.08731594851012935976086737355217
-2.33155442849087046752742935495917
-0.80407411611598988976368218573043
-1.00047829481573424814655481895898
