mlp_weights
I:6
J:5
K:2
V:
-1.57463753098468517421792967070360
-0.09920337816066510105983411449415
0.63918050634097567375135895417770
0.28087440558367415821550139298779
-1.08290109317881078077050460706232
-0.27698316260924649157004751032218
-2.10918246433265954564717503672000
0.24015269966205704532669074069418
-0.89859760117079479080359760700958
1.74605317019279060453129659435945
-0.58120204415986453927445154477027
-1.53067527368519762376308790408075
0.14663784048436959150940595009160
2.00105210301282676610412636364345
-2.08542493546061402653890581859741
0.50407734174820151284990288331755
-0.05030054217357338847138592541341
1.62612912221683392210991314641433
-1.55357361021773909826038106984925
0.18770093655380390429421311182523
-0.98931760061065576739025573260733
-1.71239275090892162367595119576436
0.51154892581227096037821411300683
-0.65923881726298805272534764299053
-1.23100489641912069771478854818270
1.70075038122704236265292365715140
-0.71272954978085700794565582327778
1.27101648725817106821978086372837
2.91389961191095636650061351247132
-0.01059614118936400006809606111347
-0.71380709888657345452145364106400
0.52846711688764780312510538351489
2.09206973914743477038769015052821
-1.44779909398974648837565837311558
0.08714269164546718793307178430041
W:
-0.88015916842474439807375574673642
-1.59008756175800702870049008197384
-1.93766328229802997640263129142113
0.04099216278175342453859997249310
1.66841514426315695729385879531037
-0.51447743590494643406429986498551
1.54682998663042647891074921062682
1.03101623574838296981681651232066
-2.35876931877261375447574209829327
-1.58264533497699466657593347918009
-0.27522015626321300052481433340290
0.62463344066713821778336068746285
