mlp_weights
I:6
J:5
K:2
V:
-1.68142150588434935443160611612257
0.03186624342822028110866483530117
0.58361084720716827067832355169230
0.11786489251825280066832135617005
-1.09226030121937278671850890532369
-0.09408491893150275342527777411306
-2.07878263143636576870676435646601
0.30137781634317506451736790040741
-1.09656725098672103158037316461559
1.65026742977402807177611521183280
-0.64676439241591376916318267831230
-1.50272157363093317172797469538637
0.21948194906458068365040503522323
2.03992115728314482581140509864781
-1.95423334941824466959303663315950
0.43421452751163025496339287201408
-0.06268504672442218317307549568795
1.64905242536552809617944603814976
-1.57422123142741110513043167884462
0.19531677521410067965845769322186
-1.07418238384316233613446911476785
-1.54453634030680020394754592416575
0.67454835334957274906031443606480
-0.68134790256786570417091297713341
-1.17849945711138870407808099116664
1.71537644531152033700038828101242
-0.79736403176392245395476265912293
1.38678289049496883400536262342939
3.00258219428563188913017256709281
0.03732464217847686338558332863613
-0.59600258939860162321622283343459
0.55029227938263558517206774922670
2.17208073024667092099093679280486
-1.44685743199203309394818006694550
0.31739084493802505182458162380499
W:
-0.84188494345487407954919945041183
-1.64584913305338731426274989644298
-1.87455589373522890639378601917997
0.01688142379664893735768949056819
1.47332092802906355899494883487932
-0.42779417822938081705785862141056
1.51650349136491691126593650551513
1.16772286378341827450810797017766
-2.18305488467565123045233121956699
-1.55559961949454184093610820127651
-0.35306052564938195104105034261011
0.61592945853184899451804312775494
