mlp_weights
I:6
J:5
K:2
V:
1.83829844646027584786907027591951
2.91897454631772035327230696566403
-0.96132645274568651050373091493384
-0.99039463514468295546322451627930
-0.13257199439054848100205674654717
1.02287091997852241931354910775553
-3.09982573077265488592502151732333
-1.20844688857835724782319175574230
2.19043535014474288757924114179332
-1.48104424546625179637260316667380
0.65056467677977203312167375770514
2.52708405324806495428902053390630
-0.55960097678833053969071897881804
0.88626525976479109125705235783244
0.54752485592709598805072346294764
-1.19819392189069540144430447980994
1.70798478294953492984120657638414
-1.37400373817018728317407294525765
-2.17922487943784171093852819467429
0.22448298722551407458070116263116
-0.46878359494656762773701075275312
0.79464957268433478176916651136708
-0.55181326577489508977691912150476
-1.33669089649436334532595083146589
-0.71036831500284725038341093750205
-0.70401088218354557213274347304832
1.53833383115986244149553385796025
-2.37305640497749381623293629672844
-0.22191650225539832907983850418532
-1.81170862715420133426391657849308
-0.81509198105274638379569296375848
1.48200877681428222487625134817790
-0.33508259482589658473372651315003
-0.80196474437500298027003964307369
-0.68249978776991016005126766685862
W:
0.17246288106902940562292769755004
2.43474583267514788076368859037757
-1.21294371261257638572317318903515
-1.31593062195071142106428396800766
-1.64837446624154693175512420566520
-0.84330431975739494898647308218642
-0.96489253315392176091336295939982
-2.65853962439778168658222057274543
-0.66517786659510969027309101875289
-3.60072374522858940082414846983738
1.91625149101898251124964644986903
0.40245754847617742910870219930075
