mlp_weights
I:6
J:5
K:2
V:
-0.55350175056996353539773281227099
1.72242641348596037254026214213809
1.42601757367419490485360711318208
0.72235423329120707069961326851626
-0.88301586172463364388107720515109
-1.06669412376261729669124633801403
-2.68437565644121578500858049665112
2.70810103088158360407078362186439
0.53858005737103542553967372441548
2.04916270067063432946952161728404
-0.10361779632864026590155503981805
-0.21613930533399561273455447008018
-1.11180313553919685176651910296641
0.67374695663591477323706158131245
1.46503043402562060926186404685723
-1.12250188235661974012202790618176
-0.85718244010946775812698206209461
-0.32876337773036806710891255534079
-0.71443088356057959931177947510150
-1.98707653634935321740329072781606
-0.04422341719046127966885606497272
1.12338878929604968348598958982620
-0.61947515565138133730727076908806
-1.00140360921202953292663551110309
0.78174431863813043097621857668855
-3.47904663216705989370325369236525
1.17031622134912782762228289357154
-2.08181953562887533948355667234864
1.85276464014875275054805570107419
1.63248395009596802829321404715301
1.63868303074724863677147368434817
1.53239523472900751599468094354961
0.62272917717804288084693098426214
-0.46773651443922559245436332275858
-1.02828314043856616777361523418222
W:
1.49207227468394387770445064234082
2.28073365108672687640023468702566
1.44670846559959165311681772436714
-0.19311466515221026307713714231795
2.30995696540243544703230327286292
-0.03122411005416624030228689434807
0.63389038800838148901561908132862
-1.13232750116131386519668922119308
0.54931183900771174410948560762336
0.91433664084810695182881090659066
0.43939307664222332361347866935830
-1.85800183525435591569419102597749
