mlp_weights
I:6
J:5
K:2
V:
-0.48588743374878023972840423994057
2.06946926972403533184774460096378
1.22900089612409146866411902010441
0.95857513349411904712837895203847
-0.64028253494773279541618649091106
-1.03100107512136096588051259459462
-2.47552161071819964988094397995155
2.39822318983577265072426598635502
0.72991561708022045795729582096101
1.96760361432258723546340206667082
-0.14997044263134837183137904048635
-0.12270052297622677239807842397568
-0.81701523669560138785072922473773
0.70068365071892357853755584073951
1.52274867240722167061051095515722
-0.82387120151162407388767405791441
-0.59188362303019881327514895019704
-0.33368622807152797937746413481364
-0.74086257964323543045992437328096
-2.07832294188160693337863449414726
-0.43105805392702956080341891720309
0.58879346451601100032036129050539
-1.07067820941294611358785004995298
-0.97178473850619373486381391558098
0.77972978959682992528001932441839
-3.58866538579720595336652877449524
1.34205134907104017827350617153570
-1.76638478877280702405982992786448
1.96304236394600239989927104033995
1.80893067501426174636947052931646
1.49823556236016752762907344731502
1.25472348451760140619626326952130
0.62117418457911721674236105172895
-0.33895667949501967486369835569349
-0.86748620887149796576665039538057
W:
1.25557788757773125531969071744243
2.32258020021378452923954682773910
1.45827673696978687978287325677229
-0.07016246468004726233314016781151
2.19501363635833435239419486606494
0.28500398291212714063647126749856
0.76634779717986822866748752858257
-0.98452551938030108402699625003152
0.64404313271238322613498894497752
1.01248257263624208412977623083862
0.26548727297335106278808325441787
-2.12739278403914600090729436487891
